{"q_net": {"layer_sizes": [34, 32, 24, 2], "weights": [[[0.13879212737083435, -0.24920934438705444, 0.17569905519485474, -0.12924635410308838, 0.08779488503932953, -0.24835297465324402, -0.19531893730163574, 0.12353306263685226, -0.18031644821166992, 0.19129279255867004, 0.1643492728471756, 0.4282124638557434, 0.04465731978416443, 0.16405896842479706, -0.21626220643520355, -0.16608822345733643, 0.22507627308368683, -0.6049047708511353, -0.13245044648647308, 0.054643671959638596, -0.12093070894479752, 0.32142606377601624, -0.05852567031979561, -0.2961277961730957, -0.19367368519306183, 0.08586718142032623, 0.18880856037139893, -0.5061546564102173, 0.3838841915130615, 0.1869664490222931, 0.15005312860012054, -0.029389159753918648, 0.2003011852502823, 0.03002854995429516], [-0.11657746136188507, 0.42260998487472534, 0.04736606404185295, 0.48323124647140503, 0.10643476247787476, 0.002996191382408142, 0.2604982554912567, -0.19791515171527863, -0.08453451842069626, 0.0854707732796669, -0.010499116964638233, 0.5598458051681519, -0.006811268161982298, -0.09311040490865707, 0.21218906342983246, -0.24806615710258484, 0.1268119364976883, -0.6859592795372009, -0.08533556014299393, 0.06168735772371292, -0.4036593437194824, 0.22791773080825806, -0.0820501372218132, 0.3352978527545929, 0.11574627459049225, -0.2580546736717224, 0.011536309495568275, 0.1033908948302269, -0.11345231533050537, 0.31641820073127747, 0.0981345921754837, -0.27325236797332764, -0.35696160793304443, -0.20632855594158173], [0.2665714621543884, -0.23094208538532257, -0.2333688586950302, -0.014520907774567604, 0.45476531982421875, -0.24533580243587494, -0.07536336779594421, 0.13794581592082977, 0.2654750645160675, -0.3269921541213989, -0.04210557043552399, -0.09720456600189209, 0.217043936252594, 0.07015427947044373, -0.26752185821533203, 0.06455032527446747, -0.3337405025959015, -0.2790457308292389, 0.3337920010089874, 0.03944893553853035, 0.0674629732966423, -0.08866468071937561, -0.1965714693069458, -0.09401772916316986, 0.14463016390800476, 0.4227551817893982, 0.006492671091109514, 0.08779749274253845, -0.114495187997818, -0.08835861086845398, 0.02289373241364956, 0.2842949628829956, 0.2764242887496948, 0.448398232460022], [0.13502627611160278, 0.347401887178421, -0.20187874138355255, 0.3739165961742401, 0.03420722857117653, -0.23830442130565643, -0.42224857211112976, -0.1902218610048294, -0.12015499174594879, -0.16884617507457733, -0.05729280784726143, -0.620563268661499, 0.08597759157419205, 0.2317958027124405, -0.14335551857948303, -0.05533897131681442, 0.38482022285461426, -0.04120740294456482, 0.09502039104700089, -0.34456300735473633, -0.25721830129623413, 0.055337149649858475, -0.12309544533491135, 0.2009982466697693, -0.01522594504058361, -0.13428202271461487, 0.3829073905944824, -0.3250749707221985, -0.0395849384367466, -0.2652489244937897, 0.1239367201924324, -0.07405425608158112, -0.0019822644535452127, -0.012225281447172165], [-0.2325160950422287, 0.26444393396377563, 0.32387736439704895, 0.3439190685749054, -0.5930899381637573, 0.4250136911869049, -0.2696321904659271, -0.05108565092086792, -0.1603074073791504, -0.11824078857898712, 0.26444679498672485, 0.09244441241025925, -0.22154682874679565, -0.6758127808570862, -0.15880556404590607, -0.22061452269554138, -0.04500744491815567, 0.2581773102283478, 0.04417896270751953, 0.007238083053380251, -0.15184925496578217, -0.417371541261673, 0.0599149651825428, -0.517789363861084, -0.06432711333036423, -0.3509232997894287, -0.35505613684654236, -0.43992531299591064, -0.04436628147959709, 0.12431683391332626, 0.24855424463748932, -0.04964639991521835, -0.3089342415332794, -0.13620330393314362], [0.0351480208337307, 0.29902106523513794, -0.11754370480775833, -0.04591507464647293, 0.548875629901886, -0.1303100734949112, -0.21936966478824615, 0.05566204711794853, 0.17026159167289734, -0.0004899497143924236, 0.4109369218349457, -0.11619170755147934, 0.36158645153045654, 0.16185815632343292, -0.29900887608528137, 0.008480026386678219, -0.32372143864631653, 0.3283323347568512, -0.20445755124092102, 0.41703811287879944, 0.031285833567380905, 0.17967884242534637, 0.1393013298511505, 0.017682408913969994, -0.1826212853193283, -0.08179638534784317, -0.09048125892877579, 0.1774950921535492, 0.012501991353929043, -0.049545761197805405, 0.465316504240036, -0.017688509076833725, -0.18557144701480865, 0.10514649748802185], [0.10554993152618408, 0.2285764366388321, 0.21039259433746338, 0.2827317714691162, 0.06508342921733856, -0.16052396595478058, -0.33017125725746155, -0.008890615776181221, 0.03261436149477959, -0.37660014629364014, -0.37248119711875916, 0.2766892910003662, 0.06789331883192062, 0.19378268718719482, -0.31925684213638306, -0.13823819160461426, -0.0381709486246109, 0.507091224193573, -0.3006536662578583, 0.11245536059141159, -0.27853307127952576, -0.4090856611728668, -0.24870933592319489, -0.05730503052473068, 0.32147642970085144, 0.017338868230581284, -0.2529567778110504, 0.358580619096756, 0.2050734907388687, 0.14093370735645294, 0.1682305932044983, -0.1342230588197708, 0.06827232241630554, 0.3968540132045746], [0.0106570515781641, -0.3732178211212158, -0.4638621509075165, -0.21975605189800262, 0.284422367811203, 0.39985936880111694, -0.06834002584218979, -0.5058518052101135, -0.45818617939949036, 0.043933574110269547, 0.04469050467014313, 0.6915196180343628, -0.26902279257774353, -0.27706006169319153, 0.014526326209306717, -0.3589334487915039, -0.09898295998573303, -0.10572022944688797, -0.20949701964855194, 0.12718640267848969, 0.03313557803630829, -0.31263014674186707, -0.09002286195755005, 0.46727514266967773, 0.0510726273059845, 0.21363037824630737, 0.28427860140800476, 0.10537662357091904, -0.12394159287214279, -0.09601500630378723, 0.1929415464401245, -0.02842438779771328, -0.026942957192659378, -0.5277722477912903], [-0.2715451419353485, -0.33722683787345886, -0.3054412603378296, 0.3059362471103668, 0.06666149199008942, -0.1943124532699585, -0.02132396027445793, -0.19830426573753357, 0.05829053372144699, -0.1569318026304245, 0.6892758011817932, 0.21316084265708923, -0.07873930782079697, -0.425649493932724, 0.3026738464832306, 0.042677849531173706, -0.22786669433116913, -0.5475366115570068, -0.1889614760875702, 0.028999781236052513, 0.004302033688873053, 0.11150466650724411, 0.47523123025894165, 0.44527602195739746, 0.06359740346670151, 0.06153754144906998, 0.017660602927207947, -0.10862439125776291, 0.06753481924533844, -0.18772345781326294, -0.05021200701594353, 0.09465311467647552, -0.1439208984375, 0.22432908415794373], [-0.1870282143354416, -0.10465394705533981, 0.053891200572252274, 0.10975001752376556, -0.12097906321287155, 0.32758215069770813, -0.32454442977905273, 0.11337202042341232, -0.10374855250120163, -0.08092711120843887, 0.08578062057495117, -0.19857195019721985, 0.22615762054920197, 0.05782591179013252, 0.12635894119739532, 0.20319831371307373, 0.029408428817987442, 0.042586516588926315, 0.33110809326171875, -0.010513120330870152, 0.012368287891149521, -0.4211406409740448, -0.10561008751392365, -0.17220015823841095, 0.015232998877763748, 0.039835382252931595, -0.05472386255860329, -0.18723714351654053, -0.22154051065444946, 0.514241099357605, 0.03674786165356636, -0.08200311660766602, 0.2001601755619049, 0.050229500979185104], [-0.040917202830314636, 0.4511606693267822, 0.15842798352241516, -0.04914761334657669, -0.0375080406665802, -0.19098243117332458, 0.24982723593711853, -0.10149161517620087, -0.03832089155912399, 0.1985776424407959, -0.38161125779151917, -0.20447300374507904, 0.04986799508333206, -0.5181407332420349, 0.0046458374708890915, 0.4700058102607727, 0.15464700758457184, -0.001293294015340507, 0.46970462799072266, -0.1243806704878807, 0.24253524839878082, -0.044226258993148804, 0.27009183168411255, 0.01236443780362606, 0.22466832399368286, -0.13412417471408844, -0.16058160364627838, -0.3510516285896301, 0.5735920667648315, -0.1630781590938568, 0.4718180000782013, -0.02760726399719715, 0.07145299017429352, -0.15264295041561127], [0.12033199518918991, -0.22856444120407104, -0.04445810616016388, -0.19782176613807678, -0.03538615629076958, 0.04538895562291145, 0.28676334023475647, 0.18905042111873627, -0.31589505076408386, 0.567168116569519, -0.1202482208609581, 0.5588337182998657, -0.04884917289018631, 0.03794403746724129, -0.2258453667163849, 0.1183469370007515, -0.09052417427301407, -0.38736027479171753, -0.0984189584851265, 0.44672560691833496, 0.2477603703737259, -0.1588336080312729, -0.18828950822353363, -0.5435663461685181, 0.165165975689888, -0.2699437141418457, -0.30916672945022583, 0.1486440896987915, 0.3592897653579712, -0.44102057814598083, -0.17163288593292236, 0.11926663666963577, -0.19043613970279694, -0.15410318970680237], [0.22980080544948578, 0.12661124765872955, -0.0061893584206700325, 0.21695342659950256, -0.12580843269824982, 0.22648990154266357, 0.25592485070228577, 0.014454692602157593, -0.11063312739133835, 0.4105617105960846, -0.14644862711429596, -0.10761994868516922, -0.16136032342910767, 0.14795729517936707, 0.028338907286524773, 0.15297512710094452, 0.13937495648860931, 0.007570648565888405, 0.17270593345165253, -0.16393743455410004, 0.04046313464641571, -0.26401033997535706, -0.345206081867218, -0.13945965468883514, 0.23822160065174103, 0.05561523884534836, 0.49806079268455505, -0.21240448951721191, -0.09612607210874557, -0.18333305418491364, -0.23484553396701813, -0.3351235091686249, 0.043793655931949615, 0.2740103304386139], [0.05249577388167381, -0.018271125853061676, -0.14578543603420258, 0.014114700257778168, 0.20971141755580902, 0.296034574508667, -0.1260589361190796, -0.3250379264354706, -0.054308172315359116, -0.05336767062544823, 0.20227310061454773, -0.16533365845680237, -0.30158182978630066, 0.14369437098503113, 0.11191405355930328, 0.2916783094406128, 0.022619865834712982, 0.045873865485191345, 0.18590408563613892, -0.32547295093536377, -0.4115902781486511, 0.17717444896697998, -0.29530006647109985, -0.028278300538659096, -0.20038123428821564, 0.1343618780374527, -0.07082241773605347, 0.21831630170345306, -0.37061479687690735, -0.27202293276786804, 0.3682997524738312, -0.10696302354335785, -0.369509756565094, 0.10929324477910995], [0.011844788677990437, 0.43386179208755493, -0.04001123458147049, 0.29548901319503784, -0.0961669459939003, -0.3013995289802551, 0.21421392261981964, 0.14767205715179443, -0.4005851149559021, 0.29819947481155396, 0.20648491382598877, 0.3764607012271881, 0.14799168705940247, 0.011199929751455784, -0.05027605965733528, -0.03410887345671654, 0.024109428748488426, -0.055318839848041534, -0.008999969810247421, 0.41658148169517517, -0.3644484579563141, -0.3307431638240814, -0.3723023533821106, -0.18851563334465027, 0.274252712726593, 0.022176366299390793, -0.18147075176239014, 0.26291945576667786, -0.2748364508152008, -0.3266781270503998, 0.5435824394226074, -0.014590315520763397, 0.04255133122205734, -0.2110479176044464], [0.0918252095580101, -0.025499427691102028, 0.49123039841651917, 0.10421780496835709, 0.08025629818439484, -0.5190353393554688, -0.1524387151002884, -0.01940111257135868, 0.09805746376514435, 0.1287720948457718, -0.19154171645641327, -0.08044429123401642, -0.49040475487709045, 0.25123709440231323, -0.023752132430672646, 0.28207817673683167, -0.010271064937114716, -0.035860732197761536, 0.16690725088119507, 0.3731211721897125, 0.2824029326438904, 0.336991548538208, -0.17315427958965302, 0.10702034085988998, 0.26484790444374084, 0.3218633830547333, 0.20530880987644196, -0.06442315876483917, 0.24472583830356598, 0.02702312543988228, 0.10548204928636551, -0.15610498189926147, 0.13770653307437897, -0.18141579627990723], [-0.07081793248653412, -0.04970366880297661, 0.13060499727725983, -0.18840645253658295, -0.35413050651550293, -0.09079406410455704, 0.07848339527845383, 0.005762480664998293, -0.18250052630901337, -0.12677837908267975, 0.45195257663726807, 0.02905428782105446, 0.03989251330494881, -0.17004796862602234, 0.1502174735069275, -0.40256690979003906, 0.3104727268218994, 0.30999958515167236, 0.20441487431526184, 0.1892268806695938, 0.24829275906085968, 0.35061055421829224, 0.08046646416187286, 0.14962780475616455, 0.08689241111278534, 0.2670169770717621, -0.1501615196466446, -0.06054987013339996, 0.3777914345264435, -0.498376727104187, -0.4621694087982178, -0.23621819913387299, 0.23361404240131378, 0.1832074075937271], [-0.3616330325603485, -0.15829454362392426, -0.28663012385368347, 0.24506618082523346, -0.14559224247932434, -0.5362091660499573, -0.20206692814826965, -0.41933849453926086, -0.32282939553260803, 0.23107539117336273, -0.11718053370714188, -0.23454993963241577, 0.024291550740599632, 0.049721281975507736, 0.1145368367433548, -0.33241721987724304, -0.3411038815975189, 0.1787129044532776, -0.1043902188539505, 0.030644148588180542, 0.06856543570756912, -0.06646640598773956, -0.10050491243600845, -0.16615451872348785, 0.071621835231781, -0.03827498108148575, 0.1917147934436798, -0.3295443058013916, 0.14767511188983917, -0.1402960568666458, 0.3968287706375122, -0.08383402228355408, 0.45211172103881836, -0.10420221835374832], [-0.21135982871055603, -0.04926585033535957, 0.013108769431710243, -0.09436915814876556, 0.23817342519760132, 0.17404042184352875, -0.13573306798934937, 0.15048402547836304, 0.3402247726917267, -0.13744127750396729, 0.1476512849330902, 0.1552140712738037, 0.10348742455244064, 0.0029176457319408655, -0.24082079529762268, 0.16017594933509827, -0.1651633381843567, 0.3366902470588684, 0.20146355032920837, -0.2710113823413849, 0.06816376000642776, 0.11173288524150848, -0.21660856902599335, 0.26902177929878235, 0.08131618797779083, 0.05404529720544815, 0.20989181101322174, -0.04740056023001671, -0.16017012298107147, 0.2768130600452423, -0.05149967223405838, -0.11738360673189163, -0.18473339080810547, 0.048451244831085205], [0.09129717200994492, 0.11516328901052475, -0.19796131551265717, -0.1916331648826599, -0.16327621042728424, 0.4889790713787079, 0.07239789515733719, 0.35977432131767273, -0.11377060413360596, 0.13129161298274994, 0.17116105556488037, -0.3378949761390686, -0.34100204706192017, 0.3249942362308502, 0.30847349762916565, 0.08094018697738647, -0.07698094099760056, 0.3443430960178375, 0.3385929465293884, 0.5273309946060181, 0.17868058383464813, 0.42174598574638367, -0.2608426511287689, -0.26827847957611084, 0.5720344185829163, -0.12814681231975555, -0.062167614698410034, -0.057009801268577576, 0.0014204884646460414, 0.26307475566864014, -0.22474965453147888, 0.1691228598356247, 0.33205315470695496, -0.3345116674900055], [0.3208712339401245, -0.0918116495013237, 0.12064630538225174, 0.2552136480808258, 0.049029797315597534, -0.3177395462989807, 0.15610267221927643, 0.45231926441192627, -0.023077787831425667, -0.2175511121749878, 0.21042606234550476, 0.35459083318710327, -0.1617228388786316, -0.4184558689594269, 0.24467144906520844, -0.125662162899971, 0.13096930086612701, -0.05113006383180618, 0.2000008076429367, -0.16242145001888275, -0.4812242388725281, -0.01685972511768341, 0.03650977462530136, -0.4210321605205536, 0.4184083938598633, -0.2232726365327835, -0.2416922003030777, 0.0497586652636528, -0.11527461558580399, 0.37449413537979126, 0.049590300768613815, -0.502302885055542, 0.002920496044680476, 0.29544588923454285], [-0.028835413977503777, 0.011180227622389793, 0.45211055874824524, 0.19710905849933624, -0.24760299921035767, 0.13270129263401031, 0.34566619992256165, -0.2240099161863327, 0.42450574040412903, -0.21709969639778137, 0.2862703204154968, 0.40651917457580566, -0.1311313658952713, -0.34877634048461914, -0.22156773507595062, 0.11607688665390015, -0.16614675521850586, -0.37104150652885437, -0.24129506945610046, -0.008520197123289108, 0.06899682432413101, -0.09498440474271774, -0.08790527284145355, -0.43184420466423035, 0.1036791130900383, -0.2753904461860657, -0.054005082696676254, 0.39563047885894775, -0.023961951956152916, 0.3346724510192871, -0.11180180311203003, -0.43191036581993103, -0.01863204315304756, 0.07413328438997269], [0.1291418820619583, 0.3634374737739563, -0.40551409125328064, -0.14714553952217102, -0.055116817355155945, 0.2556251883506775, -0.3307343125343323, -0.4843325912952423, -0.13861267268657684, 0.1138140931725502, 0.1078367605805397, 0.040882375091314316, -0.0999290719628334, -0.015206463634967804, 0.0938316360116005, -0.01343961339443922, -0.13967958092689514, -0.1941242665052414, -0.06456194072961807, 0.16787908971309662, -0.059458401054143906, 0.4553724229335785, -0.019421054050326347, 0.19533862173557281, 0.27082154154777527, 0.028793318197131157, -0.40825021266937256, -0.12589438259601593, 0.06966008991003036, -0.04859057441353798, -0.07235447317361832, -0.30002981424331665, 0.1420455425977707, 0.3560352623462677], [0.48600801825523376, 0.13079844415187836, 0.3446117639541626, -0.1915755420923233, -0.217553049325943, 0.02943737991154194, 0.3574778139591217, -0.08570895344018936, 0.6070433855056763, 0.2514660358428955, -0.2788105309009552, 0.17580269277095795, 0.16243833303451538, 0.2003897875547409, 0.3031650483608246, 0.1203913763165474, 0.5521819591522217, 0.3385881185531616, -0.03503875061869621, -0.0665552094578743, -0.11880861967802048, -0.0276540108025074, 0.12416068464517593, 0.24602316319942474, 0.20102545619010925, 0.3011587858200073, 0.30303120613098145, -0.06452050060033798, -0.16230477392673492, -0.27362942695617676, 0.03996632248163223, 0.09692955017089844, 0.23780123889446259, -0.3374432325363159], [0.08366309851408005, 0.06699514389038086, -0.27036094665527344, -0.2706471383571625, 0.27995461225509644, 0.0963648185133934, 0.09244196116924286, -0.20872411131858826, 0.5211602449417114, 0.4140418469905853, -0.17843617498874664, -0.09745326638221741, 0.03159947320818901, 0.48026010394096375, 0.03303535282611847, 0.21927566826343536, 0.5930486917495728, 0.2731592655181885, -0.1509021520614624, 0.5135183930397034, 0.129747673869133, 0.4269644618034363, -0.008286453783512115, 0.2259267270565033, -0.501533031463623, 0.11663369089365005, 0.38435786962509155, 0.06284721940755844, 0.08468358218669891, 0.39075690507888794, -0.24880650639533997, 0.3365989625453949, 0.1367085874080658, -0.19571459293365479], [0.02311750315129757, -0.1627054363489151, 0.003038874128833413, 0.15414802730083466, -0.16232597827911377, 0.09683125466108322, 0.01482655480504036, 0.2926633059978485, -0.1754516065120697, -0.027200331911444664, 0.196705162525177, 0.0830211266875267, 0.4096125662326813, 0.26868557929992676, -0.014517992734909058, 0.34809190034866333, 0.10010740906000137, 0.2390637993812561, 0.03921810910105705, 0.18811462819576263, -0.09960657358169556, -0.0845213383436203, 0.25997957587242126, 0.3998938202857971, -0.09659227728843689, 0.3144906163215637, 0.3364946246147156, 0.29832640290260315, 0.08084643632173538, 0.117257259786129, 0.06122833117842674, 0.10377515107393265, 0.25565677881240845, -0.15090934932231903], [-0.2879830300807953, -0.24046525359153748, 0.07619702070951462, -0.2783672511577606, 0.11679311096668243, -0.50439453125, 0.06116500869393349, -0.09893085062503815, 0.20129777491092682, 0.13192035257816315, 0.302831768989563, 0.08002910763025284, 0.3382139205932617, 0.07463536411523819, -0.01708623766899109, 0.21229353547096252, -0.051484115421772, 0.02248537912964821, -0.46048811078071594, 0.17842768132686615, 0.1768154799938202, 0.1916980743408203, -0.06414297968149185, 0.47305211424827576, -0.027821145951747894, -0.23233626782894135, 0.2570522129535675, 0.23464475572109222, 0.5369741320610046, 0.19289658963680267, -0.19993095099925995, -0.3346480131149292, -0.01593148708343506, -0.18693293631076813], [0.5431963801383972, -0.0985492616891861, 0.09303496032953262, -0.2229057252407074, -0.23155862092971802, -0.15546676516532898, -0.007660257164388895, 0.004023342858999968, 0.13071107864379883, 0.04368907958269119, 0.3216172158718109, 0.20053638517856598, 0.013901281170547009, 0.10694252699613571, -0.35315877199172974, -0.14440487325191498, 0.27624669671058655, 0.2693312466144562, 0.12383560836315155, 0.05269180238246918, 0.271777868270874, 0.04541999101638794, 0.14897173643112183, -0.10105349868535995, -0.08047636598348618, -0.00940356869250536, 0.06573011726140976, 0.1619410663843155, 0.2890995442867279, 0.26860958337783813, 0.235744446516037, 0.10049403458833694, -0.00341024249792099, 0.2223975509405136], [-0.052284229546785355, 0.18700866401195526, -0.021853847429156303, 0.08476711064577103, -0.006050094496458769, -0.10721050947904587, -0.20551134645938873, 0.32065701484680176, 0.21895214915275574, 0.030012182891368866, -0.03688466176390648, 0.13469742238521576, -0.13399751484394073, -0.1981559544801712, -0.4139481484889984, -0.13167475163936615, 0.12041287869215012, 0.23520717024803162, -0.030718661844730377, 0.12102831155061722, 0.5351380109786987, -0.005292501766234636, 0.04382136091589928, 0.699620246887207, 0.4159959554672241, -0.3565334677696228, 0.2695598602294922, 0.08409514278173447, -0.14655694365501404, -0.10207293182611465, -0.26588818430900574, -0.07305965572595596, 0.34603655338287354, 0.005344513338059187], [-0.03849675878882408, -0.38979262113571167, 0.15763550996780396, -0.10765686631202698, 0.3069052994251251, 0.15319880843162537, -0.1539589911699295, 0.02630978636443615, 0.08378881216049194, 0.03650825098156929, 0.009715191088616848, -0.09197626262903214, -0.013141020201146603, -0.29998481273651123, 0.08305584639310837, 0.12906640768051147, 0.24178217351436615, -0.07703281939029694, -0.459492951631546, -0.004068934824317694, -0.17765091359615326, -0.09013956785202026, 0.16993460059165955, 0.3260899484157562, -0.18276996910572052, -0.5719101428985596, 0.13225196301937103, -0.12695688009262085, -0.18517984449863434, -0.09841752052307129, 0.292356938123703, 0.3203643262386322, 0.25138476490974426, 0.8038685321807861], [0.296172171831131, -0.42593270540237427, 0.1350916028022766, 0.31831076741218567, -0.4676288664340973, 0.031758811324834824, -0.24910610914230347, 0.11786126345396042, 0.239809051156044, -0.4880984425544739, -0.07214482128620148, -0.22447267174720764, 0.1452576220035553, -0.23300640285015106, -0.07048904150724411, 0.36607712507247925, 0.546508252620697, -0.2312224805355072, 0.40180885791778564, 0.22057750821113586, 0.25076982378959656, -0.16996979713439941, 0.10833538323640823, 0.16321644186973572, -0.11364389955997467, 0.41750600934028625, 0.45400986075401306, 0.0779508575797081, -0.4703351855278015, 0.4509628117084503, -0.13288503885269165, 0.08597374707460403, -0.5076972842216492, 0.056002985686063766], [0.10161779820919037, -0.33918872475624084, 0.19631247222423553, 0.09878308326005936, -0.08008871972560883, 0.8242479562759399, 0.07431592047214508, 0.2422075867652893, -0.5560072064399719, -0.09163303673267365, 0.012198401615023613, -0.037429727613925934, -0.09234681725502014, -0.1781550645828247, -0.056344445794820786, 0.23127475380897522, -0.11733754724264145, -0.03230525180697441, 0.40218493342399597, -0.046573977917432785, 0.10436128824949265, 0.18521471321582794, -0.14659914374351501, -0.08877484500408173, 0.0412633940577507, 0.3216498792171478, -0.41045522689819336, -0.11616601794958115, 0.14810608327388763, -0.12058927863836288, 0.0458311066031456, 0.3187503218650818, -0.20438972115516663, -0.2587108910083771]], [[-0.021469611674547195, -0.09115281701087952, -0.0918908342719078, -0.18354055285453796, -0.23845751583576202, -0.046329643577337265, 0.11861641705036163, 0.13903993368148804, -0.4331342875957489, -0.03618623688817024, -0.016577640548348427, -0.25471925735473633, 0.0914158821105957, -0.1885322779417038, 0.22515811026096344, -0.16581623256206512, -0.4194778501987457, 0.006494768429547548, 0.34110236167907715, 0.05689983814954758, -0.1132630929350853, -0.18428437411785126, 0.1616683453321457, 0.004487582948058844, -0.2863840162754059, 0.25360044836997986, -0.4972894489765167, -0.20458203554153442, -0.013563661836087704, -0.24977122247219086, -0.6177002787590027, 0.06792406737804413], [0.18717214465141296, 0.22718359529972076, 0.023615457117557526, 0.4048513174057007, 0.12960243225097656, -0.25121361017227173, -0.2926911413669586, 0.5678387880325317, -0.13149023056030273, -0.0053198859095573425, 0.048717644065618515, -0.26432710886001587, 0.018237639218568802, 0.009958243928849697, 0.12201056629419327, 0.12026561796665192, 0.22320476174354553, 0.1338965892791748, 0.06954406201839447, 0.10702670365571976, -0.1339949071407318, -0.2518245577812195, -0.5252352952957153, -0.038294997066259384, -0.19456423819065094, -0.14756275713443756, 0.0759069100022316, -0.08509133756160736, 0.17812837660312653, 0.42683592438697815, 0.1840934157371521, -0.5941741466522217], [-0.13291002810001373, 0.29620540142059326, 0.13499848544597626, 0.27884721755981445, 0.2496960163116455, 0.29469799995422363, -0.48571768403053284, 0.11709270626306534, 0.45516231656074524, -0.1458943784236908, 0.4106815755367279, 0.04270821064710617, -0.0329148955643177, 0.3600161671638489, 0.09927283227443695, 0.18068017065525055, -0.42630767822265625, 0.13511298596858978, 0.1614730954170227, -0.05391324684023857, -0.29786497354507446, -0.04496092349290848, -0.3548220694065094, -0.2779510021209717, 0.33093228936195374, 0.12245181947946548, 0.43152809143066406, 0.4411067068576813, -0.104264996945858, 0.4084831774234772, 0.10629701614379883, 0.29398080706596375], [0.2285512089729309, -0.020974166691303253, -0.31323763728141785, 0.18547922372817993, 0.1419379711151123, -0.1319606453180313, -0.24849559366703033, -0.22402985394001007, -0.6172448992729187, 0.08784832060337067, 0.06096484512090683, 0.39295831322669983, 0.12626361846923828, 0.10479757934808731, 0.325489342212677, 0.06167295575141907, -0.08788203448057175, 0.08082209527492523, 0.4187160134315491, 0.08032093197107315, 0.09280017763376236, 0.027445826679468155, -0.2401542216539383, 0.09781747311353683, -0.35082870721817017, -0.6805195808410645, 0.23390376567840576, -0.28981614112854004, 0.9946805238723755, -0.10518147796392441, -0.2006390243768692, 0.018835408613085747], [-0.2251398116350174, 0.27375054359436035, -0.39352408051490784, -0.21792300045490265, -0.2286665439605713, -0.24915145337581635, -0.012116489931941032, -0.10790207237005234, 0.031063878908753395, -0.1077302098274231, -0.2743413746356964, -0.041237521916627884, 0.5556862354278564, 0.014881112612783909, 0.32125526666641235, -0.020910484716296196, 0.1919751614332199, -0.07797375321388245, 0.07430487871170044, 0.010521972551941872, 0.3541921079158783, -0.3018728196620941, 0.3708113133907318, 0.2755022346973419, 0.11958340555429459, 0.21102839708328247, 0.23552261292934418, -0.3311678171157837, -0.06396070867776871, -0.014060522429645061, -1.0044164657592773, -0.26893603801727295], [-0.16280066967010498, 0.07574234157800674, 0.39493128657341003, 0.3504215180873871, -0.1102219671010971, -0.07308261841535568, 0.23780831694602966, -0.42464426159858704, -0.08108320087194443, 0.36543139815330505, -0.05609294772148132, 0.06869448721408844, 0.048546746373176575, -0.1949291080236435, 0.28811419010162354, -0.1131766065955162, 0.033279452472925186, 0.004169130697846413, -0.1893092542886734, -0.5671719312667847, 0.08607950806617737, -0.07068890333175659, -0.12321653217077255, -0.10016577690839767, -0.07567242532968521, 0.15326672792434692, 0.25098636746406555, -0.1312231719493866, 0.180426225066185, 0.002626759232953191, 0.21111074090003967, 0.18426965177059174], [-0.2330547422170639, -0.13971370458602905, -0.2832268476486206, 0.13534298539161682, -0.059504393488168716, 0.04760894179344177, -0.005356190726161003, 0.25261250138282776, 0.08938989043235779, 0.04614216834306717, 0.10011575371026993, 0.10965260118246078, 0.008881556801497936, -0.21275389194488525, -0.002447837498039007, 0.08278326690196991, 0.061504922807216644, -0.07036947458982468, 0.3869507312774658, 0.21676842868328094, -0.3141016662120819, 0.39171919226646423, 0.12283676862716675, 0.4557056725025177, -0.1306075155735016, -0.032921694219112396, -0.04718694090843201, 0.44711974263191223, 0.3917014002799988, 0.231027290225029, 0.39207515120506287, 0.5118122100830078], [0.24740521609783173, 0.09707880020141602, 0.033165764063596725, 0.4158443510532379, -0.4162285625934601, 0.1545131355524063, -0.1157977506518364, 0.3327495753765106, -0.605143666267395, -0.12309455871582031, -0.053538937121629715, 0.028628792613744736, 0.00986289419233799, -0.3695959746837616, -0.43839502334594727, -0.24246211349964142, -0.20666944980621338, -0.01590476930141449, -0.09152785688638687, -0.24932225048542023, 0.019258378073573112, -0.13909576833248138, 0.17788128554821014, 0.2647356688976288, 0.028763554990291595, -0.3356282711029053, 0.2031666487455368, -0.3034147620201111, -0.16010749340057373, -0.456403523683548, -0.11766356974840164, 0.02694305032491684], [0.1615849733352661, 0.1501370072364807, -0.09192734211683273, -0.23739290237426758, 0.015889322385191917, 0.21091091632843018, 0.29120588302612305, -0.24394436180591583, -0.4838061034679413, 0.03972863405942917, 0.3468424677848816, 0.0030487014446407557, -0.17349177598953247, -0.19704914093017578, -0.023414980620145798, 0.16894975304603577, 0.017805811017751694, -0.15777909755706787, -0.0440254807472229, 0.20189854502677917, 0.278028666973114, -0.2562953233718872, 0.39336347579956055, 0.3119122385978699, -0.07734358310699463, 0.19520525634288788, 0.12069391459226608, 0.21549949049949646, 0.9013881683349609, 0.37648239731788635, -0.06560289859771729, 0.3037586510181427], [0.0822017714381218, -0.15595868229866028, 0.4109126925468445, -0.24071086943149567, 0.20725615322589874, 0.06882622838020325, -0.1010967493057251, -0.36811381578445435, 0.26808497309684753, -0.1891544759273529, -0.18681491911411285, 0.051129065454006195, 0.11591079086065292, 0.5065697431564331, 0.05488208681344986, 0.14435186982154846, -0.022784503176808357, 0.12116468697786331, 0.18779344856739044, 0.3042641878128052, -0.38945522904396057, -0.011659219861030579, -0.2408328801393509, -0.6476028561592102, -0.3265838325023651, -0.4444289803504944, 0.2806863784790039, 0.3011135756969452, 0.10798478126525879, -0.021211231127381325, -0.011052463203668594, 0.20869165658950806], [-0.0695800930261612, -0.07368337363004684, -0.1535036563873291, 0.14067921042442322, 0.08248396962881088, -0.22116129100322723, 0.31790974736213684, 0.13457518815994263, -0.3838742673397064, -0.25389546155929565, 0.29880350828170776, 0.3082757890224457, 0.24194152653217316, 0.21307538449764252, -0.14404907822608948, -0.03943559527397156, -0.17322658002376556, 0.23083914816379547, 0.02894122712314129, -0.37917840480804443, 0.0363500602543354, 0.14691105484962463, -0.05563398078083992, -0.16023942828178406, 0.04631027579307556, 0.05497181415557861, 0.01576988771557808, -0.01911136880517006, -0.08941902965307236, -0.22737747430801392, -0.2947184443473816, -0.19216175377368927], [0.07766466587781906, 0.08126627653837204, 0.3374449610710144, 0.12782417237758636, -0.5406643748283386, 0.15422815084457397, 0.21422620117664337, -0.08454826474189758, -0.2925146520137787, -0.10430508106946945, 0.004597574006766081, -0.1783461570739746, 0.23848235607147217, -0.2051275223493576, 0.2665248513221741, 0.013485247269272804, -0.580318033695221, -0.4826430380344391, 0.22776243090629578, -0.22774918377399445, -0.020274223759770393, 0.19221101701259613, -0.3721636235713959, -0.2393641322851181, -0.08526818454265594, 0.15865541994571686, -0.3584916591644287, -0.4540223777294159, 0.4256204068660736, 0.12269256263971329, -0.31887832283973694, -0.11043514311313629], [0.09069138020277023, 0.4826289415359497, -0.0485408790409565, -0.3794924020767212, -0.179765522480011, -0.21467068791389465, 0.07689831405878067, -0.19288308918476105, 0.04095897823572159, -0.23328836262226105, -0.36765480041503906, -0.13239306211471558, 0.2982429265975952, 0.04138577729463577, 0.18046830594539642, 0.334929883480072, -0.06686638295650482, -0.37710243463516235, 0.16632680594921112, -0.3532692790031433, 0.43946200609207153, 0.12919294834136963, 0.35979610681533813, -0.3620883822441101, -0.05009562522172928, 0.23329465091228485, -0.4746910035610199, -0.163918137550354, 0.3926936388015747, -0.037752266973257065, 0.19665147364139557, 0.09979593008756638], [-0.19739006459712982, 0.09325970709323883, 0.38901352882385254, 0.3787735402584076, 0.5166768431663513, 0.11443458497524261, -0.08892829716205597, -0.47975367307662964, 0.10296547412872314, -0.26216062903404236, 0.23792263865470886, 0.1258167177438736, -0.14133325219154358, 0.12358743697404861, 0.034680675715208054, 0.0030255094170570374, -0.12527279555797577, 0.12351302802562714, -0.4417904019355774, -0.27466604113578796, 0.105772964656353, 0.12284140288829803, 0.6283970475196838, -0.0691315308213234, -0.14701378345489502, -0.06385023891925812, -0.29926517605781555, -0.4004390239715576, -0.09358849376440048, 0.013655873015522957, 0.06885858625173569, -0.4229007661342621], [-0.33892640471458435, -0.13070005178451538, 0.4157543182373047, 0.25101643800735474, 0.05430711433291435, -0.10647588968276978, -0.04288586229085922, 0.011857058852910995, -0.03486886993050575, -0.34239810705184937, 0.012416232377290726, 0.16252364218235016, -0.021760860458016396, 0.08384726941585541, 0.02102794125676155, 0.3854984939098358, -0.20525848865509033, -0.09119992703199387, -0.09998418390750885, -0.16896016895771027, 0.2517818808555603, 0.6997404098510742, 0.5969093441963196, -0.1339007467031479, 0.1707507222890854, -0.023399004712700844, -0.29460957646369934, -0.07443264126777649, 0.32208845019340515, 0.45017942786216736, 0.2592785060405731, 0.11445672065019608], [-0.07098019123077393, -0.02523534744977951, 0.3041830062866211, 0.11686239391565323, 0.10021267086267471, -0.09622474759817123, 0.00400939304381609, 0.36169570684432983, -0.20955464243888855, 0.025415431708097458, 0.6561543345451355, -0.21828553080558777, -0.0359056256711483, -0.4034501314163208, 0.06222495436668396, 0.004756617825478315, 0.030506260693073273, -0.6186580657958984, 0.17168164253234863, 0.058985933661460876, -0.32964059710502625, -0.11702733486890793, 0.01931753009557724, 0.10811412334442139, -0.06429329514503479, 0.16440635919570923, 0.09103535115718842, -0.29087892174720764, -0.15105798840522766, -0.28238192200660706, 0.306273877620697, 0.08721365034580231], [0.3564646244049072, -0.15031418204307556, 0.16469430923461914, 0.18637429177761078, -0.0867600366473198, 0.11717016249895096, 0.41157469153404236, -0.7292144298553467, -0.08169209957122803, -0.47001388669013977, -0.05217790603637695, -0.22407488524913788, -0.5214763879776001, 0.17858578264713287, 0.20351138710975647, 0.08340620249509811, -0.25884586572647095, -0.030864117667078972, -0.023563627153635025, 0.12378131598234177, -0.27614691853523254, -0.3830903172492981, 0.22667154669761658, -0.034816909581422806, 0.04514188691973686, -0.31653591990470886, -0.1354101002216339, 0.23456673324108124, 0.25327304005622864, -0.06323086470365524, 0.3542264997959137, -0.2768155634403229], [-0.33575108647346497, 0.2452189177274704, -0.15635289251804352, 0.27349933981895447, 0.12577232718467712, -0.30811992287635803, 0.0783039778470993, 0.15766176581382751, 0.07809598743915558, -0.09333057701587677, -0.3491896986961365, 0.29541337490081787, 0.15428683161735535, -0.4101407527923584, -0.6830615997314453, 0.42406919598579407, 0.3935980498790741, -0.33122116327285767, -0.005785701796412468, -0.11177822202444077, -0.1811874955892563, 0.044520147144794464, -0.5154088139533997, -0.1242455318570137, -0.043478935956954956, -0.20862363278865814, -0.06843909621238708, -0.004931128583848476, 0.004780999850481749, -0.241075798869133, -0.2545645236968994, -0.00195217109285295], [-0.3426385819911957, 0.24989256262779236, -0.3032911717891693, -0.10878585278987885, -0.13377292454242706, 0.1660396307706833, 0.0016849670791998506, 0.21300722658634186, 0.38565129041671753, 0.28830644488334656, -0.1460292935371399, 0.11239457130432129, -0.04823143780231476, 0.241995707154274, -0.2955344021320343, 0.1466636210680008, 0.078544981777668, -0.17545261979103088, 0.22057364881038666, 0.29313817620277405, -0.24822109937667847, -0.10793486982584, -0.02340022101998329, 0.6802054047584534, 0.046683166176080704, -0.1278160810470581, -0.1925806999206543, -0.08203166723251343, 0.0902724638581276, 0.004332143813371658, 0.4824862778186798, 0.14969830214977264], [0.008581465110182762, 0.2523859441280365, 0.023609984666109085, -0.2872614562511444, 0.30385541915893555, -0.22549426555633545, 0.2995665967464447, -0.31929242610931396, -0.31914228200912476, 0.1287241280078888, -0.16709046065807343, 0.11403027921915054, -0.4880780577659607, 0.21160975098609924, 0.06533120572566986, -0.16159814596176147, 0.08280248939990997, -0.18490681052207947, 0.0920046865940094, 0.3908020853996277, 0.4368649423122406, 0.19573979079723358, -0.3788352608680725, 0.420791894197464, -0.1976620852947235, 0.0003527678200043738, 0.074036605656147, 0.016054682433605194, 0.14639762043952942, -0.23778177797794342, 0.7345684766769409, 0.10268781334161758], [-0.1594574898481369, 0.0725875124335289, -0.029942432418465614, -0.23788222670555115, 0.014019140973687172, 0.3166522979736328, -0.07387416064739227, -0.3859495222568512, 0.024600159376859665, -0.0514923632144928, -0.054054804146289825, -0.24563686549663544, -0.05372646078467369, -0.2526862621307373, -0.2335062325000763, 0.09299623221158981, 0.3790460228919983, 0.2140999287366867, -0.21133050322532654, 0.4629211723804474, -0.12652412056922913, 0.41993680596351624, 0.3000338077545166, -0.774803876876831, 0.7771334052085876, 0.2534182071685791, -0.46442556381225586, -0.03879888355731964, -0.07425419986248016, -0.32292282581329346, -0.2144264429807663, 0.11234933882951736], [0.06234316527843475, 0.2268272191286087, 0.04003531485795975, 0.005123045761138201, 0.3543219268321991, -0.0438501238822937, 0.01498157624155283, 0.16171099245548248, -0.12723606824874878, 0.17553478479385376, 0.3746379613876343, -0.6359232068061829, 0.05831677094101906, 0.10724959522485733, -0.07990457862615585, 0.09971347451210022, 0.11333740502595901, -0.21256808936595917, 0.07591257244348526, -0.179621621966362, 0.4315696656703949, -0.3120109438896179, 0.672667920589447, -0.06663786619901657, 0.5387213826179504, -0.052608124911785126, 0.23115625977516174, 0.1158003956079483, -0.11160942912101746, 0.8788307905197144, 0.44139304757118225, 0.11327921599149704], [0.032872237265110016, 0.21084409952163696, 0.2293568253517151, -0.029811980202794075, 0.2709187865257263, -0.00021520096925087273, -0.14380961656570435, -0.053635988384485245, 0.21068839728832245, 0.0066841477528214455, -0.011619391851127148, 0.5615954399108887, 0.26833969354629517, -0.3208739161491394, -0.4633009135723114, 0.40345215797424316, -0.15172791481018066, -0.1695321649312973, -0.057453256100416183, 0.14102797210216522, -0.19999556243419647, 0.47518399357795715, -0.04097006842494011, -0.046953894197940826, -0.09310682117938995, 0.08836396038532257, -0.6260103583335876, -0.3174934685230255, -0.41198664903640747, -0.2303200513124466, 0.15116272866725922, 0.08138762414455414], [0.4321177005767822, 0.3457540273666382, -0.13690555095672607, 0.06755492836236954, -0.05133280158042908, -0.11264324933290482, 0.04353083670139313, -0.1889445036649704, 0.07959876954555511, -0.12401259690523148, -0.3268865644931793, 0.30667203664779663, 0.542181134223938, 0.6068586111068726, -0.04309150204062462, 0.1062512919306755, 0.057975661009550095, -0.39164355397224426, 0.2120698243379593, -0.20407238602638245, 0.01672976091504097, 0.007371733896434307, 0.4253782033920288, -0.2164505422115326, -0.3476203680038452, -0.1250654011964798, -0.1394856721162796, 0.21154658496379852, 0.08118278533220291, -0.06605175137519836, 0.4489600956439972, -0.4069444537162781]], [[-0.6168755292892456, 0.4589473605155945, 0.6849347352981567, -0.027194635942578316, -0.140594482421875, -0.11930184811353683, 0.20788337290287018, 0.015953930094838142, 0.22649936378002167, 0.33408454060554504, 0.16187839210033417, 0.22093574702739716, 0.08487307280302048, 0.051578544080257416, 0.3036908805370331, -0.07639574259519577, 0.19556890428066254, -0.09358976036310196, 0.6330376267433167, 0.3147372603416443, -0.029302701354026794, 0.566027820110321, 0.18275249004364014, -0.9263585805892944], [0.11378931999206543, -0.24618510901927948, 0.4518575668334961, 0.03840795159339905, -0.06874069571495056, -0.27820080518722534, 0.2848546504974365, -0.12372633069753647, 0.7820913791656494, 0.21647274494171143, 0.5970578193664551, 0.2274659276008606, -0.08120790123939514, -0.23335276544094086, 0.0778370201587677, -0.36788496375083923, -0.17844641208648682, 0.723249077796936, 0.3573623299598694, 0.03214307874441147, -0.04895593225955963, 0.454561322927475, -0.21927663683891296, -0.1586855798959732]]], "biases": [[-0.05674094706773758, 0.042853474617004395, -0.02809903770685196, -0.005409296602010727, 0.04221641272306442, 0.04370688647031784, -0.02916901931166649, 0.03319613263010979, 0.025055114179849625, -0.0009058065479621291, 0.07106097787618637, -0.01606139913201332, -0.07768291980028152, 0.04044346138834953, -0.030789026990532875, 0.05646409094333649, -0.023896340280771255, -0.021878812462091446, 0.048477087169885635, 0.033688150346279144, 0.0029332435224205256, -0.04807703197002411, -0.012155166827142239, 0.06801804900169373, 0.08345653116703033, -0.04648392274975777, 0.05114751681685448, 0.08374935388565063, 0.0645274817943573, 0.2487945407629013, 0.09109752625226974, 0.07550457119941711], [-0.004291990306228399, 0.04353495314717293, 0.20627203583717346, -0.007821740582585335, -0.03032027557492256, -0.05228979140520096, 0.04824339598417282, -0.00020677379507105798, 0.11617055535316467, 0.0456131249666214, 0.02647380158305168, 0.019798345863819122, 0.003067408688366413, -0.014752325601875782, 0.05943501368165016, -0.059828005731105804, 0.010060981847345829, 0.0016278024995699525, 0.17929452657699585, 0.05764700099825859, -0.02316872589290142, 0.18415547907352448, -0.0006573711871169508, -0.11046683043241501], [0.3629063069820404, 0.18434758484363556]]}, "target_net": {"layer_sizes": [34, 32, 24, 2], "weights": [[[0.13878943026065826, -0.24918150901794434, 0.17634296417236328, -0.1288863867521286, 0.08779960870742798, -0.24818867444992065, -0.19554053246974945, 0.12371876835823059, -0.17967504262924194, 0.1916612684726715, 0.16443569958209991, 0.4284040927886963, 0.04424961656332016, 0.1645975261926651, -0.21566905081272125, -0.1658748835325241, 0.2249421626329422, -0.6049429774284363, -0.13295356929302216, 0.05470557510852814, -0.12029611319303513, 0.32173609733581543, -0.058497220277786255, -0.2960531413555145, -0.19429127871990204, 0.08635172247886658, 0.18943342566490173, -0.5059467554092407, 0.3839907944202423, 0.18709605932235718, 0.15072675049304962, -0.028829582035541534, 0.20069074630737305, 0.030353065580129623], [-0.11634837836027145, 0.42252013087272644, 0.04620666801929474, 0.48260441422462463, 0.10647011548280716, 0.0029422123916447163, 0.2600356936454773, -0.19731417298316956, -0.08572918176651001, 0.08489776402711868, -0.010537780821323395, 0.5595200657844543, -0.00709972670301795, -0.09301351010799408, 0.2110424041748047, -0.248416930437088, 0.12706045806407928, -0.6859497427940369, -0.08487602323293686, 0.06279166787862778, -0.40485018491744995, 0.2274962067604065, -0.08204270899295807, 0.33494293689727783, 0.11550450325012207, -0.25708115100860596, 0.01033240370452404, 0.1027604341506958, -0.11353198438882828, 0.3158116340637207, 0.09701365232467651, -0.2745049297809601, -0.35741838812828064, -0.20655710995197296], [0.26671385765075684, -0.23096966743469238, -0.23319558799266815, -0.014436066150665283, 0.4547994136810303, -0.24522630870342255, -0.07524848729372025, 0.13808411359786987, 0.2656170129776001, -0.32697439193725586, -0.04210759699344635, -0.09721436351537704, 0.21730178594589233, 0.07014535367488861, -0.26736244559288025, 0.06463979184627533, -0.3337395191192627, -0.27898985147476196, 0.33401525020599365, 0.03949308395385742, 0.06762684136629105, -0.08862527459859848, -0.1965385377407074, -0.09391406923532486, 0.144609734416008, 0.42294204235076904, 0.006654947996139526, 0.0878589004278183, -0.11447658389806747, -0.08831968903541565, 0.02296309359371662, 0.2844851315021515, 0.2764963209629059, 0.4484878480434418], [0.13509903848171234, 0.3472215235233307, -0.20215435326099396, 0.37378206849098206, 0.03421933948993683, -0.2382999211549759, -0.4219822883605957, -0.19014066457748413, -0.12044623494148254, -0.16899490356445312, -0.057286716997623444, -0.6205556392669678, 0.08605270832777023, 0.23166455328464508, -0.14363382756710052, -0.05542833358049393, 0.384915292263031, -0.0412156768143177, 0.0950966477394104, -0.34421461820602417, -0.25752151012420654, 0.05518428981304169, -0.12309440225362778, 0.20084814727306366, -0.01509009674191475, -0.13402356207370758, 0.3826325535774231, -0.32517194747924805, -0.03958907723426819, -0.2653419077396393, 0.12355761975049973, -0.07433788478374481, -0.002158585237339139, -0.012298451736569405], [-0.23222406208515167, 0.264773428440094, 0.3232625126838684, 0.34354278445243835, -0.5930781364440918, 0.42506369948387146, -0.26925671100616455, -0.050439149141311646, -0.16088393330574036, -0.11855096369981766, 0.2644388973712921, 0.09249960631132126, -0.2212923914194107, -0.6748886704444885, -0.15939220786094666, -0.22075043618679047, -0.04491374269127846, 0.25822368264198303, 0.0445995070040226, 0.008250044658780098, -0.15246689319610596, -0.41758614778518677, 0.05991535633802414, -0.5178073048591614, -0.06422745436429977, -0.35014548897743225, -0.3556753993034363, -0.4402320384979248, -0.044398412108421326, 0.12407708913087845, 0.24768823385238647, -0.050394389778375626, -0.3090847432613373, -0.1361885517835617], [0.03541162610054016, 0.2985345125198364, -0.11833798885345459, -0.046312447637319565, 0.548859179019928, -0.1305272877216339, -0.21936866641044617, 0.055355314165353775, 0.16950412094593048, -0.0008670267998240888, 0.41085749864578247, -0.11634307354688644, 0.361506849527359, 0.16096706688404083, -0.2997421324253082, 0.008219757117331028, -0.32364150881767273, 0.3282981216907501, -0.20403680205345154, 0.41658905148506165, 0.030504515394568443, 0.1793701946735382, 0.13923531770706177, 0.017459619790315628, -0.18218575417995453, -0.08236455917358398, -0.09126564860343933, 0.17714716494083405, 0.012450342066586018, -0.049783941358327866, 0.46444937586784363, -0.018579909577965736, -0.18597544729709625, 0.10451336950063705], [0.1054082065820694, 0.22878186404705048, 0.21074414253234863, 0.282935231924057, 0.06507185101509094, -0.16050605475902557, -0.33039677143096924, -0.008657251484692097, 0.032962895929813385, -0.3764064311981201, -0.3724716305732727, 0.27669259905815125, 0.06784192472696304, 0.19413937628269196, -0.31891778111457825, -0.1381300985813141, -0.038240574300289154, 0.5070785284042358, -0.3010968565940857, 0.11257036030292511, -0.2781559228897095, -0.40894815325737, -0.2487049549818039, -0.057235490530729294, 0.32168829441070557, 0.017661508172750473, -0.25261569023132324, 0.3586927354335785, 0.20509830117225647, 0.14106068015098572, 0.16874177753925323, -0.13387663662433624, 0.06846726685762405, 0.39717593789100647], [0.010650752112269402, -0.37271642684936523, -0.4646138548851013, -0.22011399269104004, 0.28444018959999084, 0.39975395798683167, -0.06814886629581451, -0.5049939751625061, -0.4589138925075531, 0.043501853942871094, 0.044654492288827896, 0.6914800405502319, -0.2683098614215851, -0.27641236782073975, 0.0138162299990654, -0.35912641882896423, -0.09890166670084, -0.10577363520860672, -0.20874784886837006, 0.1279648244380951, 0.03238479793071747, -0.3128705322742462, -0.09006275981664658, 0.46714329719543457, 0.05122363567352295, 0.21371883153915405, 0.28354427218437195, 0.10498015582561493, -0.12399067729711533, -0.09613070636987686, 0.19187478721141815, -0.029223540797829628, -0.027194969356060028, -0.5278342366218567], [-0.27112630009651184, -0.3369005024433136, -0.30631041526794434, 0.305473655462265, 0.06668996065855026, -0.1944778859615326, -0.021208185702562332, -0.1978386640548706, 0.05747361481189728, -0.1574036180973053, 0.6891956925392151, 0.21309936046600342, -0.07835885882377625, -0.42528319358825684, 0.3018632233142853, 0.04239235445857048, -0.2278040498495102, -0.5475644469261169, -0.18802659213542938, 0.029578281566500664, 0.0034628738649189472, 0.11119302362203598, 0.4752054512500763, 0.4450935423374176, 0.06380068510770798, 0.06138688325881958, 0.016851041465997696, -0.10901729017496109, 0.06744129210710526, -0.18784146010875702, -0.05113651230931282, 0.09369724988937378, -0.1442357748746872, 0.22407203912734985], [-0.1870150864124298, -0.10459411144256592, 0.05374231934547424, 0.10968197882175446, -0.12098564952611923, 0.32749268412590027, -0.3245868384838104, 0.11334473639726639, -0.10388143360614777, -0.08099604398012161, 0.08577150851488113, -0.19857370853424072, 0.2261061668395996, 0.05773887783288956, 0.1262301802635193, 0.20315423607826233, 0.02943195030093193, 0.04260455071926117, 0.330952912569046, -0.010506569407880306, 0.012230286374688148, -0.42118361592292786, -0.10561829060316086, -0.1722356379032135, 0.015257421880960464, 0.039786238223314285, -0.05486614257097244, -0.18728724122047424, -0.22154374420642853, 0.5141916275024414, 0.03665759041905403, -0.08216504752635956, 0.2000880390405655, 0.05017818510532379], [-0.04073196277022362, 0.4513643980026245, 0.15680867433547974, -0.04990377277135849, -0.037477340549230576, -0.19099505245685577, 0.24988248944282532, -0.10045181214809418, -0.03993760049343109, 0.19769732654094696, -0.3816291093826294, -0.20459245145320892, 0.05007081478834152, -0.5171639323234558, 0.0030246435198932886, 0.4694506525993347, 0.15491442382335663, -0.0013471798738464713, 0.46971702575683594, -0.12245123088359833, 0.2408020794391632, -0.044824615120887756, 0.27004265785217285, 0.011690002866089344, 0.22461946308612823, -0.1333291083574295, -0.16224583983421326, -0.35186612606048584, 0.5734865069389343, -0.1635761708021164, 0.46975594758987427, -0.029506603255867958, 0.07086014002561569, -0.15285977721214294], [0.1204298883676529, -0.22861692309379578, -0.0442785769701004, -0.19773061573505402, -0.03537413850426674, 0.04546497017145157, 0.28694650530815125, 0.18912439048290253, -0.31573083996772766, 0.5672621726989746, -0.12023119628429413, 0.5588821172714233, -0.04879625514149666, 0.03802652284502983, -0.22568638622760773, 0.11840363591909409, -0.0905526801943779, -0.3873555064201355, -0.09849981218576431, 0.44678422808647156, 0.24792388081550598, -0.15879051387310028, -0.1882825791835785, -0.5435663461685181, 0.16519299149513245, -0.26997295022010803, -0.3089991509914398, 0.14875593781471252, 0.35933130979537964, -0.4409966468811035, -0.17157427966594696, 0.11942814290523529, -0.19030693173408508, -0.15403178334236145], [0.22995449602603912, 0.12670449912548065, -0.005568355787545443, 0.21727387607097626, -0.12580691277980804, 0.22660234570503235, 0.25626492500305176, 0.014448593370616436, -0.11002392321825027, 0.41088199615478516, -0.1464196741580963, -0.10751938819885254, -0.16113676130771637, 0.14848549664020538, 0.02889532409608364, 0.15314462780952454, 0.13917730748653412, 0.007446557283401489, 0.17283187806606293, -0.1642487496137619, 0.04108718782663345, -0.26377415657043457, -0.3452168405056, -0.13923437893390656, 0.23871076107025146, 0.05583444982767105, 0.49867063760757446, -0.21210817992687225, -0.09607884287834167, -0.18324211239814758, -0.23428881168365479, -0.33466941118240356, 0.04408624395728111, 0.27427318692207336], [0.05306956171989441, -0.01790713705122471, -0.14667314291000366, 0.013598835095763206, 0.20972852408885956, 0.2960895299911499, -0.12586452066898346, -0.32434722781181335, -0.055145833641290665, -0.0538322813808918, 0.20224997401237488, -0.16531594097614288, -0.3014110028743744, 0.14427228271961212, 0.11109139770269394, 0.2913815677165985, 0.022795118391513824, 0.045977652072906494, 0.18631017208099365, -0.32447564601898193, -0.4124540686607361, 0.17676003277301788, -0.2953058183193207, -0.02834351733326912, -0.19997760653495789, 0.13463254272937775, -0.07165557891130447, 0.21782487630844116, -0.3706485629081726, -0.27213022112846375, 0.3670113980770111, -0.10802405327558517, -0.36979296803474426, 0.10908055305480957], [0.011777116917073727, 0.4340437948703766, -0.039759282022714615, 0.2956363558769226, -0.0961676687002182, -0.30136385560035706, 0.21433734893798828, 0.14781895279884338, -0.4003399908542633, 0.2983476519584656, 0.20649437606334686, 0.37653428316116333, 0.14804035425186157, 0.011505238711833954, -0.050043899565935135, -0.034027211368083954, 0.02408401481807232, -0.0553378090262413, -0.009108452126383781, 0.41680917143821716, -0.36419880390167236, -0.33066526055336, -0.3722825348377228, -0.18847040832042694, 0.27435827255249023, 0.02252700924873352, -0.18123653531074524, 0.2630351185798645, -0.27482500672340393, -0.3266662061214447, 0.5439251661300659, -0.014369403012096882, 0.04267863929271698, -0.21081887185573578], [0.09224127233028412, -0.02581949718296528, 0.4893242418766022, 0.10325998812913895, 0.08026379346847534, -0.5192822217941284, -0.15240338444709778, -0.019734464585781097, 0.09618430584669113, 0.12785950303077698, -0.19163662195205688, -0.08072469383478165, -0.48993077874183655, 0.2500302493572235, -0.025544896721839905, 0.2814810276031494, -0.009969083592295647, -0.035786278545856476, 0.16779781877994537, 0.3733864426612854, 0.28042376041412354, 0.33619827032089233, -0.17317871749401093, 0.10630618780851364, 0.2651478052139282, 0.32062071561813354, 0.20339836180210114, -0.06529892235994339, 0.24453957378864288, 0.026591505855321884, 0.10335871577262878, -0.15799756348133087, 0.1367756724357605, -0.1822526752948761], [-0.07094200700521469, -0.049537986516952515, 0.13084593415260315, -0.18829354643821716, -0.35413631796836853, -0.09078273177146912, 0.07876019924879074, 0.005889310967177153, -0.18226686120033264, -0.12666314840316772, 0.4519984722137451, 0.02911367639899254, 0.040095966309309006, -0.169716015458107, 0.15042078495025635, -0.40250805020332336, 0.31038105487823486, 0.30987924337387085, 0.20449002087116241, 0.1893010288476944, 0.24855026602745056, 0.35071074962615967, 0.08049369603395462, 0.14971616864204407, 0.08701980113983154, 0.26741841435432434, -0.1499336063861847, -0.060433972626924515, 0.37785500288009644, -0.49838826060295105, -0.46206536889076233, -0.23600895702838898, 0.23378728330135345, 0.18331897258758545], [-0.36190930008888245, -0.15832696855068207, -0.28624725341796875, 0.2452927827835083, -0.14558708667755127, -0.5361925363540649, -0.20217615365982056, -0.4194866716861725, -0.32243385910987854, 0.23130106925964355, -0.11716756969690323, -0.23449760675430298, 0.024069875478744507, 0.04967547208070755, 0.1149248331785202, -0.3322722911834717, -0.3411043584346771, 0.17877766489982605, -0.10501297563314438, 0.03061065636575222, 0.0689387321472168, -0.0663449838757515, -0.10048641264438629, -0.1661401093006134, 0.07139396667480469, -0.03820892050862312, 0.19209720194339752, -0.3293992578983307, 0.14769789576530457, -0.14017745852470398, 0.39734432101249695, -0.0833563432097435, 0.4523059129714966, -0.10405085980892181], [-0.21067692339420319, -0.049135174602270126, 0.011842640116810799, -0.0949929878115654, 0.2381882667541504, 0.17393022775650024, -0.13556280732154846, 0.15061330795288086, 0.338990181684494, -0.13798144459724426, 0.14756640791893005, 0.15505902469158173, 0.10301242023706436, 0.002783736912533641, -0.24202023446559906, 0.15973347425460815, -0.16500873863697052, 0.3368072211742401, 0.20160406827926636, -0.26997458934783936, 0.06684381514787674, 0.1111738532781601, -0.21658816933631897, 0.2685000002384186, 0.08129988610744476, 0.05418141931295395, 0.20859676599502563, -0.047989409416913986, -0.1602158397436142, 0.2763623297214508, -0.05276412144303322, -0.11886625736951828, -0.18524262309074402, 0.048101600259542465], [0.09134984016418457, 0.11494934558868408, -0.19850333034992218, -0.19191183149814606, -0.16326318681240082, 0.4888688921928406, 0.07226884365081787, 0.35936594009399414, -0.1142868772149086, 0.13106052577495575, 0.171097993850708, -0.33797818422317505, -0.3411899507045746, 0.32420358061790466, 0.3079798221588135, 0.08081040531396866, -0.0768115445971489, 0.3444497883319855, 0.3385939598083496, 0.5270745158195496, 0.178130105137825, 0.4215227961540222, -0.26084840297698975, -0.2684110701084137, 0.5717410445213318, -0.1285979151725769, -0.06271738559007645, -0.057262979447841644, 0.0013490138808265328, 0.2629008889198303, -0.22520600259304047, 0.16854701936244965, 0.33175376057624817, -0.3348710238933563], [0.3207927644252777, -0.09184031933546066, 0.12058832496404648, 0.25518473982810974, 0.04902565851807594, -0.31777238845825195, 0.15603551268577576, 0.4523107707500458, -0.023128565400838852, -0.21755515038967133, 0.21041981875896454, 0.35458308458328247, -0.16176721453666687, -0.41845422983169556, 0.24461743235588074, -0.12567806243896484, 0.13096840679645538, -0.05115411803126335, 0.19989167153835297, -0.16245527565479279, -0.481275737285614, -0.0168690737336874, 0.036495041102170944, -0.42103809118270874, 0.41831621527671814, -0.22326932847499847, -0.2417498081922531, 0.049736108630895615, -0.11527463048696518, 0.374449223279953, 0.049561209976673126, -0.5023534297943115, 0.0029000735376030207, 0.2954033613204956], [-0.02884720452129841, 0.011025206185877323, 0.4524005055427551, 0.19723372161388397, -0.2476087212562561, 0.13269668817520142, 0.34558355808258057, -0.22429189085960388, 0.42479372024536133, -0.21694262325763702, 0.28628575801849365, 0.40652838349342346, -0.13127346336841583, -0.34904834628105164, -0.22127045691013336, 0.11620407551527023, -0.1661866009235382, -0.37099558115005493, -0.2416815608739853, -0.008834455162286758, 0.0692954882979393, -0.09486624598503113, -0.08789843320846558, -0.43181896209716797, 0.10346808284521103, -0.27575740218162537, -0.05369161069393158, 0.3957858681678772, -0.02394498512148857, 0.3348604142665863, -0.11145700514316559, -0.4315221309661865, -0.01852642372250557, 0.07414091378450394], [0.1292445957660675, 0.36333826184272766, -0.4056321084499359, -0.14720942080020905, -0.05511708930134773, 0.2555995285511017, -0.3307585120201111, -0.48416274785995483, -0.1387382596731186, 0.11371251195669174, 0.10784479230642319, 0.040814559906721115, -0.09980954229831696, -0.015252984128892422, 0.09370690584182739, -0.013494341634213924, -0.13968153297901154, -0.1941577047109604, -0.06435757875442505, 0.16770265996456146, -0.05957086756825447, 0.4553375840187073, -0.019459491595625877, 0.19534116983413696, 0.27086031436920166, 0.028618887066841125, -0.4083521366119385, -0.12592153251171112, 0.06963814049959183, -0.04859180375933647, -0.07245166599750519, -0.30016183853149414, 0.14197812974452972, 0.3559010922908783], [0.4859376847743988, 0.130571186542511, 0.3427481949329376, -0.1924886405467987, -0.21756906807422638, 0.02911961078643799, 0.3569819927215576, -0.08563617616891861, 0.6052176356315613, 0.25063130259513855, -0.2789243161678314, 0.17553582787513733, 0.16204746067523956, 0.19965311884880066, 0.3013675808906555, 0.11975876241922379, 0.552543580532074, 0.3386317789554596, -0.034508757293224335, -0.0658593475818634, -0.12074331194162369, -0.02831590361893177, 0.12409675121307373, 0.24534839391708374, 0.20140613615512848, 0.3005542457103729, 0.30114197731018066, -0.06537386775016785, -0.16244398057460785, -0.274162620306015, 0.038301803171634674, 0.09484057873487473, 0.23684091866016388, -0.33814963698387146], [0.08412349224090576, 0.06666898727416992, -0.27244773507118225, -0.27159813046455383, 0.2799795866012573, 0.09601044654846191, 0.09236876666545868, -0.2084963619709015, 0.5191075801849365, 0.41297653317451477, -0.178600013256073, -0.09778206050395966, 0.031897418200969696, 0.47919905185699463, 0.031028350815176964, 0.21847812831401825, 0.5934438109397888, 0.2731812000274658, -0.1498270034790039, 0.5142963528633118, 0.1275465190410614, 0.4260733723640442, -0.008387310430407524, 0.22503356635570526, -0.5002248287200928, 0.1159791573882103, 0.38226181268692017, 0.0618957094848156, 0.08454430848360062, 0.3902256488800049, -0.25084516406059265, 0.3341662883758545, 0.1356414407491684, -0.1965993195772171], [0.023004144430160522, -0.16268141567707062, 0.0031953516881912947, 0.15423426032066345, -0.16233016550540924, 0.09683960676193237, 0.014758438803255558, 0.2927737236022949, -0.17530639469623566, -0.027133002877235413, 0.19672627747058868, 0.08302123099565506, 0.4097234308719635, 0.2688749432563782, -0.01437876932322979, 0.34813225269317627, 0.10002969950437546, 0.23903079330921173, 0.03907164931297302, 0.1880837082862854, -0.09945189207792282, -0.08445862680673599, 0.2599656581878662, 0.39991846680641174, -0.09652367979288101, 0.31457963585853577, 0.33664846420288086, 0.29841411113739014, 0.08086284250020981, 0.11728695034980774, 0.06134655699133873, 0.10392739623785019, 0.25575801730155945, -0.15085534751415253], [-0.28772735595703125, -0.2400577962398529, 0.07524929940700531, -0.27876347303390503, 0.11680962890386581, -0.5045103430747986, 0.061135828495025635, -0.09838701784610748, 0.20036877691745758, 0.13144764304161072, 0.30275723338127136, 0.07993701100349426, 0.3383778929710388, 0.07494274526834488, -0.01802178844809532, 0.2119150608778, -0.05137963220477104, 0.022417211905121803, -0.45958200097084045, 0.17932769656181335, 0.1758287250995636, 0.19131320714950562, -0.06419554352760315, 0.47270458936691284, -0.027190355584025383, -0.2318241149187088, 0.2560708522796631, 0.23415403068065643, 0.5368828773498535, 0.1925320029258728, -0.2008831799030304, -0.3357982933521271, -0.01633373275399208, -0.18707381188869476], [0.5431099534034729, -0.09854108840227127, 0.09086279571056366, -0.22394034266471863, -0.23152801394462585, -0.15573231875896454, -0.007928775623440742, 0.004300134256482124, 0.12856806814670563, 0.042663853615522385, 0.32144787907600403, 0.20021578669548035, 0.013657004572451115, 0.10626360028982162, -0.35524749755859375, -0.1451456993818283, 0.2765941023826599, 0.2693600356578827, 0.12456014007329941, 0.05354401469230652, 0.2695176601409912, 0.04462558776140213, 0.14885255694389343, -0.10178115963935852, -0.07990782707929611, -0.009724622592329979, 0.06350558996200562, 0.1609031856060028, 0.28889724612236023, 0.26787588000297546, 0.23361749947071075, 0.09790598601102829, -0.004479236900806427, 0.2215726524591446], [-0.05202527716755867, 0.18665575981140137, -0.023762090131640434, 0.08385435491800308, -0.006014716811478138, -0.10726724565029144, -0.20527790486812592, 0.32053056359291077, 0.21706177294254303, 0.029182760044932365, -0.036992937326431274, 0.13438482582569122, -0.13408803939819336, -0.1983925700187683, -0.41582030057907104, -0.13229356706142426, 0.12072733044624329, 0.2350938618183136, -0.030165189877152443, 0.122049480676651, 0.5331276655197144, -0.005997289903461933, 0.043759070336818695, 0.6987472772598267, 0.4156152904033661, -0.35652756690979004, 0.26757100224494934, 0.08307500183582306, -0.1465887874364853, -0.10277185589075089, -0.26773613691329956, -0.07527914643287659, 0.3451820909976959, 0.004694621544331312], [-0.03718046471476555, -0.38915756344795227, 0.1522219032049179, -0.11032824963331223, 0.30693498253822327, 0.15237879753112793, -0.15301461517810822, 0.02785813808441162, 0.07850059121847153, 0.03386861830949783, 0.00942227616906166, -0.09237364679574966, -0.012087310664355755, -0.30018293857574463, 0.07786612957715988, 0.12730003893375397, 0.24270926415920258, -0.0770258679986, -0.4556593596935272, -0.0005065821460448205, -0.18319039046764374, -0.09213721752166748, 0.16989396512508392, 0.32450175285339355, -0.18036963045597076, -0.5713005065917969, 0.1268104910850525, -0.12938742339611053, -0.18551373481750488, -0.10009802132844925, 0.28633132576942444, 0.3141342103481293, 0.24890387058258057, 0.8019745349884033], [0.29668036103248596, -0.4258873760700226, 0.13187874853610992, 0.31666964292526245, -0.46759843826293945, 0.031250279396772385, -0.24939486384391785, 0.11745217442512512, 0.2367919236421585, -0.4894132614135742, -0.072354257106781, -0.224776953458786, 0.14439699053764343, -0.23381923139095306, -0.07349305599927902, 0.3651132881641388, 0.5473930239677429, -0.23090732097625732, 0.40299224853515625, 0.2215658724308014, 0.24745500087738037, -0.17108367383480072, 0.10821909457445145, 0.162430077791214, -0.11349838972091675, 0.41597452759742737, 0.45082154870033264, 0.07644736021757126, -0.4705187976360321, 0.45003917813301086, -0.13555161654949188, 0.08226991444826126, -0.5092465281486511, 0.054931435734033585], [0.10179994255304337, -0.33867889642715454, 0.19512881338596344, 0.09810440242290497, -0.08014930784702301, 0.8238278031349182, 0.0741487666964531, 0.24214427173137665, -0.5570860505104065, -0.09208749234676361, 0.01209290511906147, -0.037473201751708984, -0.09272956848144531, -0.1783413589000702, -0.057398471981287, 0.23093587160110474, -0.1172018051147461, -0.032054364681243896, 0.40140753984451294, -0.04585963115096092, 0.10319635272026062, 0.18473099172115326, -0.14659349620342255, -0.08914204686880112, 0.04125692695379257, 0.3209855556488037, -0.41157564520835876, -0.11672020703554153, 0.1479312777519226, -0.12068358808755875, 0.04467681050300598, 0.31738653779029846, -0.20488251745700836, -0.2590981721878052]], [[-0.021459318697452545, -0.0911485105752945, -0.09187493473291397, -0.18354055285453796, -0.23845751583576202, -0.04631415382027626, 0.11861773580312729, 0.13903993368148804, -0.4331342875957489, -0.03614656627178192, -0.016558311879634857, -0.25471922755241394, 0.09143265336751938, -0.1885322779417038, 0.2251855880022049, -0.1657887101173401, -0.4194716513156891, 0.006494768429547548, 0.34113359451293945, 0.0569612942636013, -0.1132630929350853, -0.18428437411785126, 0.1616683453321457, 0.004546586889773607, -0.28633230924606323, 0.2536616921424866, -0.4972894489765167, -0.20458203554153442, -0.013556466437876225, -0.24976396560668945, -0.6176910996437073, 0.06797231733798981], [0.18683122098445892, 0.22683608531951904, 0.023222528398036957, 0.4044205844402313, 0.12909100949764252, -0.251772403717041, -0.29299893975257874, 0.5673343539237976, -0.13241605460643768, -0.005641947500407696, 0.04766298085451126, -0.2643962502479553, 0.017943548038601875, 0.009339486248791218, 0.1218830868601799, 0.11881239712238312, 0.2231682389974594, 0.13314248621463776, 0.06884079426527023, 0.10661584138870239, -0.13415831327438354, -0.2529204189777374, -0.5253415107727051, -0.039958514273166656, -0.19594626128673553, -0.14818941056728363, 0.07474247366189957, -0.08581379801034927, 0.17717324197292328, 0.4240897595882416, 0.1835320144891739, -0.5942509174346924], [-0.13395865261554718, 0.2950938940048218, 0.1331331580877304, 0.27795442938804626, 0.24838371574878693, 0.292540043592453, -0.48668172955513, 0.11583041399717331, 0.4526236355304718, -0.14690537750720978, 0.407821387052536, 0.04226091876626015, -0.033925727009773254, 0.3585432171821594, 0.09835169464349747, 0.17620275914669037, -0.4265983998775482, 0.13337759673595428, 0.1595430076122284, -0.05591339245438576, -0.2983056902885437, -0.04755106568336487, -0.355119913816452, -0.2837691605091095, 0.32492896914482117, 0.11915628612041473, 0.4285705089569092, 0.4386804401874542, -0.10657736659049988, 0.40151602029800415, 0.10374495387077332, 0.2932088375091553], [0.22855408489704132, -0.020964592695236206, -0.3132335841655731, 0.1854952573776245, 0.1419520080089569, -0.13195393979549408, -0.24848875403404236, -0.22402170300483704, -0.6172288060188293, 0.0878545418381691, 0.060989223420619965, 0.39296117424964905, 0.1262710988521576, 0.1048106774687767, 0.3254913091659546, 0.061699751764535904, -0.08788459002971649, 0.0808444693684578, 0.41873490810394287, 0.08032196760177612, 0.09280209243297577, 0.027468368411064148, -0.24015098810195923, 0.09785334765911102, -0.3508133292198181, -0.6805090308189392, 0.23393188416957855, -0.28981101512908936, 0.9947102665901184, -0.10512767732143402, -0.20064230263233185, 0.018830472603440285], [-0.22507715225219727, 0.2738603353500366, -0.3934493958950043, -0.21788091957569122, -0.22865183651447296, -0.24899061024188995, -0.012019793502986431, -0.10783439129590988, 0.03117312677204609, -0.10771104693412781, -0.2741990387439728, -0.04118683189153671, 0.5558047294616699, 0.014957076869904995, 0.3213684856891632, -0.02054167538881302, 0.19202306866645813, -0.07786960154771805, 0.07442288845777512, 0.010685157962143421, 0.3542220890522003, -0.3017352223396301, 0.3708547353744507, 0.27607831358909607, 0.12009180337190628, 0.21129894256591797, 0.2357814460992813, -0.3310283422470093, -0.06374190002679825, -0.01369806844741106, -1.0043673515319824, -0.26891830563545227], [-0.16272176802158356, 0.07581929862499237, 0.39526471495628357, 0.35051923990249634, -0.1101764589548111, -0.07281700521707535, 0.23790867626667023, -0.42462900280952454, -0.08093839883804321, 0.36562761664390564, -0.055827416479587555, 0.06871531903743744, 0.048636000603437424, -0.19488847255706787, 0.28820478916168213, -0.1128699779510498, 0.03333425149321556, 0.0042429217137396336, -0.18901021778583527, -0.566993236541748, 0.0861428901553154, -0.0705949068069458, -0.12321028858423233, -0.09957686811685562, -0.07521086931228638, 0.15378230810165405, 0.2512674629688263, -0.13100263476371765, 0.18071149289608002, 0.00303850625641644, 0.2115435153245926, 0.18440192937850952], [-0.23341847956180573, -0.14011690020561218, -0.28394436836242676, 0.13503265380859375, -0.05999824032187462, 0.046844493597745895, -0.005687323398888111, 0.2521494925022125, 0.08845534920692444, 0.04574538394808769, 0.09903720021247864, 0.10950720310211182, 0.008504554629325867, -0.21329478919506073, -0.002769078593701124, 0.08119326829910278, 0.06137369945645332, -0.07097502797842026, 0.38622263073921204, 0.2159789502620697, -0.31427818536758423, 0.3908080756664276, 0.12274087220430374, 0.4535547196865082, -0.13282786309719086, -0.03415704891085625, -0.04823211953043938, 0.4461780786514282, 0.39086878299713135, 0.22849157452583313, 0.3910132646560669, 0.5114696025848389], [0.24740616977214813, 0.09707881510257721, 0.03316572681069374, 0.41584429144859314, -0.4162285625934601, 0.15451428294181824, -0.11579717695713043, 0.3327501118183136, -0.605143666267395, -0.12309456616640091, -0.05353894457221031, 0.02862878330051899, 0.009862869046628475, -0.36959603428840637, -0.4383949637413025, -0.242460235953331, -0.20666947960853577, -0.015904804691672325, -0.09152790904045105, -0.24932225048542023, 0.019258394837379456, -0.1390952169895172, 0.17788149416446686, 0.2647381126880646, 0.02876756526529789, -0.3356267511844635, 0.20316819846630096, -0.30341416597366333, -0.16010747849941254, -0.45640331506729126, -0.11766351014375687, 0.02694305032491684], [0.16104331612586975, 0.14948014914989471, -0.09321921318769455, -0.2378678321838379, 0.015052923932671547, 0.20969821512699127, 0.290709912776947, -0.24466267228126526, -0.4852595925331116, 0.03899442031979561, 0.3449622690677643, 0.002854996593669057, -0.17414049804210663, -0.1979338526725769, -0.02390970289707184, 0.1664290875196457, 0.01754145137965679, -0.1586921364068985, -0.045297056436538696, 0.20042486488819122, 0.2776935398578644, -0.2576501667499542, 0.39323869347572327, 0.3083101212978363, -0.0810697078704834, 0.19307062029838562, 0.11908353120088577, 0.2138175219297409, 0.9000310301780701, 0.37238988280296326, -0.06768856942653656, 0.3030270040035248], [0.08209448307752609, -0.15607896447181702, 0.41076481342315674, -0.24085083603858948, 0.20685932040214539, 0.06871002167463303, -0.10114303976297379, -0.368348628282547, 0.26751449704170227, -0.1892922967672348, -0.18719010055065155, 0.051109883934259415, 0.11586689203977585, 0.5062190294265747, 0.05485887825489044, 0.1439317762851715, -0.022782988846302032, 0.12078709900379181, 0.1875259429216385, 0.30410757660865784, -0.3894828259944916, -0.012046527117490768, -0.24085254967212677, -0.6478356122970581, -0.32694798707962036, -0.4445493519306183, 0.28031206130981445, 0.3008897602558136, 0.10769440978765488, -0.022492241114377975, -0.011382104828953743, 0.20858021080493927], [-0.06958963721990585, -0.07377949357032776, -0.15351781249046326, 0.1405681073665619, 0.08228940516710281, -0.22118131816387177, 0.3179071843624115, 0.13453657925128937, -0.384011834859848, -0.2539282441139221, 0.2982935607433319, 0.3082762062549591, 0.2418883591890335, 0.21291349828243256, -0.14404958486557007, -0.039563871920108795, -0.17323429882526398, 0.2306828647851944, 0.028827669098973274, -0.37920045852661133, 0.03624721243977547, 0.14673753082752228, -0.055648475885391235, -0.16047927737236023, 0.046171799302101135, 0.054954640567302704, 0.01570729725062847, -0.019227832555770874, -0.08953102678060532, -0.22775930166244507, -0.29479289054870605, -0.19218215346336365], [0.07760654389858246, 0.08120439946651459, 0.3372686207294464, 0.12775258719921112, -0.5406850576400757, 0.15400764346122742, 0.21407832205295563, -0.08455028384923935, -0.2925384044647217, -0.10436920076608658, 0.004449365194886923, -0.1783575862646103, 0.23840513825416565, -0.205162912607193, 0.26639506220817566, 0.013175426982343197, -0.5803457498550415, -0.48267412185668945, 0.22761468589305878, -0.22792884707450867, -0.02032037079334259, 0.1921660602092743, -0.37218642234802246, -0.23967939615249634, -0.08554769307374954, 0.15839466452598572, -0.35855862498283386, -0.45414382219314575, 0.4254022538661957, 0.12251054495573044, -0.31900039315223694, -0.11045167595148087], [0.09065580368041992, 0.4826120436191559, -0.04856232553720474, -0.37950316071510315, -0.179768905043602, -0.21474288403987885, 0.07686585932970047, -0.19288799166679382, 0.0409431979060173, -0.23329278826713562, -0.36767667531967163, -0.13240008056163788, 0.29823604226112366, 0.041361842304468155, 0.18043532967567444, 0.3348100781440735, -0.06686027348041534, -0.3771260678768158, 0.16631436347961426, -0.35327741503715515, 0.4394579529762268, 0.12917019426822662, 0.359784334897995, -0.3621388375759125, -0.050209950655698776, 0.23323766887187958, -0.4747065603733063, -0.16393215954303741, 0.39267489314079285, -0.037807647138834, 0.19664616882801056, 0.09981617331504822], [-0.19738715887069702, 0.09327038377523422, 0.3890272080898285, 0.37877753376960754, 0.5167320966720581, 0.1144399493932724, -0.08893469721078873, -0.4797258973121643, 0.10303482413291931, -0.26214736700057983, 0.23800893127918243, 0.12581618130207062, -0.14133386313915253, 0.12361545115709305, 0.03468048945069313, 0.003030576277524233, -0.12527334690093994, 0.12355298548936844, -0.44176679849624634, -0.27466291189193726, 0.1057870015501976, 0.12289337068796158, 0.6283929944038391, -0.06908842921257019, -0.14698845148086548, -0.06384147703647614, -0.2992304861545563, -0.4004096984863281, -0.09357327222824097, 0.013796725310385227, 0.06891494989395142, -0.4228859841823578], [-0.3393537700176239, -0.13112938404083252, 0.41506683826446533, 0.25065818428993225, 0.053811173886060715, -0.10733304917812347, -0.04328601807355881, 0.011373485438525677, -0.03583920747041702, -0.3427698016166687, 0.011353524401783943, 0.16233552992343903, -0.022142954170703888, 0.08328109979629517, 0.020656617358326912, 0.3837309181690216, -0.20534829795360565, -0.09189296513795853, -0.10070128738880157, -0.16967879235744476, 0.2516240179538727, 0.6987062096595764, 0.5967829823493958, -0.13611151278018951, 0.16843925416469574, -0.024645492434501648, -0.29576244950294495, -0.07532187551259995, 0.3211899697780609, 0.4474849998950958, 0.25839662551879883, 0.11421389877796173], [-0.07088521122932434, -0.025104321539402008, 0.30469414591789246, 0.11695599555969238, 0.10032062977552414, -0.09597116708755493, 0.004121627192944288, 0.3617282211780548, -0.20936831831932068, 0.025698889046907425, 0.6567391753196716, -0.21822476387023926, -0.03567974641919136, -0.40335896611213684, 0.062380753457546234, 0.005337235052138567, 0.03060523048043251, -0.6185637712478638, 0.17206035554409027, 0.059512410312891006, -0.32952114939689636, -0.11687181890010834, 0.01932571269571781, 0.10910908132791519, -0.06355918198823929, 0.1651218682527542, 0.09123875200748444, -0.29049068689346313, -0.1507442146539688, -0.2819538414478302, 0.30699437856674194, 0.08751188963651657], [0.35633113980293274, -0.15035730600357056, 0.16455841064453125, 0.18626229465007782, -0.08676469326019287, 0.11687774956226349, 0.4114018976688385, -0.7292385101318359, -0.08172425627708435, -0.4700431823730469, -0.05219876766204834, -0.2241203337907791, -0.521525502204895, 0.1784844547510147, 0.20337437093257904, 0.08292927592992783, -0.25884079933166504, -0.03097139485180378, -0.023650754243135452, 0.12361510843038559, -0.2761302888393402, -0.3831343352794647, 0.2266116887331009, -0.03507528826594353, 0.04471840709447861, -0.31676673889160156, -0.13557332754135132, 0.2344602346420288, 0.2530962824821472, -0.06349704414606094, 0.35423344373703003, -0.27676427364349365], [-0.33574944734573364, 0.24520841240882874, -0.15635283291339874, 0.2734946608543396, 0.12577199935913086, -0.30811992287635803, 0.0783039852976799, 0.15766564011573792, 0.07809794694185257, -0.0933341383934021, -0.34919196367263794, 0.29541662335395813, 0.15429341793060303, -0.410140722990036, -0.6830617785453796, 0.42407527565956116, 0.3936004042625427, -0.3312205672264099, -0.005799739621579647, -0.11177850514650345, -0.1811901181936264, 0.04452277719974518, -0.5154076218605042, -0.12422816455364227, -0.04346155375242233, -0.2086203396320343, -0.06844770163297653, -0.004929408896714449, 0.004757997114211321, -0.24108056724071503, -0.25456416606903076, -0.0019522450165823102], [-0.34358957409858704, 0.24888965487480164, -0.30495721101760864, -0.10959473997354507, -0.13494493067264557, 0.16408531367778778, 0.0008077413658611476, 0.21187061071395874, 0.38337403535842896, 0.28740692138671875, -0.1485746055841446, 0.11198537051677704, -0.049139879643917084, 0.2406706064939499, -0.29637062549591064, 0.14261265099048615, 0.07829320430755615, -0.17701849341392517, 0.21883949637413025, 0.29135599732398987, -0.2486192286014557, -0.11028269678354263, -0.0236740130931139, 0.6749752759933472, 0.041283369064331055, -0.13077223300933838, -0.19525884091854095, -0.08419229835271835, 0.08817967027425766, -0.0019321228610351682, 0.48023951053619385, 0.14902842044830322], [0.008418301120400429, 0.25212833285331726, 0.023007696494460106, -0.2874396741390228, 0.3037154972553253, -0.22587883472442627, 0.2993944585323334, -0.3193984627723694, -0.31952986121177673, 0.12844723463058472, -0.16770312190055847, 0.11385361850261688, -0.4883556067943573, 0.21147923171520233, 0.06505027413368225, -0.16247327625751495, 0.08274172991514206, -0.1850874274969101, 0.09151404350996017, 0.3902679979801178, 0.4367203414440155, 0.1951737403869629, -0.37885233759880066, 0.4193327724933624, -0.1987008899450302, -0.0005751532153226435, 0.07341397553682327, 0.01561071164906025, 0.1458144634962082, -0.23873589932918549, 0.7339718341827393, 0.10248957574367523], [-0.15942172706127167, 0.07260313630104065, -0.029880914837121964, -0.23787587881088257, 0.014028373174369335, 0.3167406916618347, -0.07384202629327774, -0.3859449028968811, 0.02461584471166134, -0.051463525742292404, -0.05404259264469147, -0.24562251567840576, -0.05370476841926575, -0.2526795566082001, -0.2334747016429901, 0.09312378615140915, 0.37905576825141907, 0.21411937475204468, -0.21131056547164917, 0.4630063474178314, -0.12652328610420227, 0.419965922832489, 0.3000425398349762, -0.7746945023536682, 0.7773562669754028, 0.2535335123538971, -0.46437394618988037, -0.038736492395401, -0.0742206797003746, -0.32281726598739624, -0.2143583446741104, 0.11237287521362305], [0.061451442539691925, 0.22587230801582336, 0.03841041401028633, 0.0043633864261209965, 0.35318484902381897, -0.04569393768906593, 0.014163680374622345, 0.16062375903129578, -0.12942445278167725, 0.1746497005224228, 0.37215813994407654, -0.6362983584403992, 0.05744277313351631, 0.10598056763410568, -0.08068868517875671, 0.09588589519262314, 0.11307343095541, -0.21404583752155304, 0.07423906028270721, -0.18137463927268982, 0.43118178844451904, -0.3142203688621521, 0.6724187135696411, -0.07165832072496414, 0.5335404276847839, -0.05546112358570099, 0.22863063216209412, 0.11368222534656525, -0.11359239369630814, 0.8728408813476562, 0.43912583589553833, 0.1125815361738205], [0.032788123935461044, 0.2107733190059662, 0.22927701473236084, -0.029839009046554565, 0.27089089155197144, -0.00032501350506208837, -0.14385034143924713, -0.053696390241384506, 0.2105797529220581, 0.0066866641864180565, -0.011748429387807846, 0.5615249872207642, 0.2682815492153168, -0.3208974301815033, -0.46338093280792236, 0.40309497714042664, -0.1517065167427063, -0.16960042715072632, -0.05748019367456436, 0.14095962047576904, -0.20001427829265594, 0.47506070137023926, -0.04099906608462334, -0.04727803170681, -0.09342804551124573, 0.08820091933012009, -0.6260805130004883, -0.31755924224853516, -0.4120655059814453, -0.23049749433994293, 0.1511142998933792, 0.08140100538730621], [0.4322730004787445, 0.3459565043449402, -0.13676494359970093, 0.0680231973528862, -0.051111385226249695, -0.11246643215417862, 0.04364991933107376, -0.1886577308177948, 0.07996117323637009, -0.12388917058706284, -0.32626864314079285, 0.3066740036010742, 0.542339026927948, 0.6077089905738831, -0.043048590421676636, 0.10712401568889618, 0.05797168239951134, -0.3913499116897583, 0.21254761517047882, -0.20398330688476562, 0.01693127304315567, 0.00761015061289072, 0.42549726366996765, -0.21586520969867706, -0.34702837467193604, -0.12490153312683105, -0.13937000930309296, 0.2120777815580368, 0.08155804872512817, -0.06503868103027344, 0.4494340717792511, -0.40684211254119873]], [[-0.6168867349624634, 0.4548916518688202, 0.670469343662262, -0.028618857264518738, -0.1417844146490097, -0.12005337327718735, 0.1976131796836853, 0.01595456711947918, 0.21657982468605042, 0.33324751257896423, 0.16166062653064728, 0.2206602841615677, 0.08458660542964935, 0.05072136968374252, 0.29502251744270325, -0.07807811349630356, 0.19410879909992218, -0.09361021965742111, 0.6247929930686951, 0.3122207522392273, -0.031517140567302704, 0.5510002374649048, 0.18167199194431305, -0.9267465472221375], [0.11378931999206543, -0.24762001633644104, 0.44606274366378784, 0.038095418363809586, -0.06895944476127625, -0.278578519821167, 0.28010356426239014, -0.12372837215662003, 0.7781517505645752, 0.21614843606948853, 0.5970022082328796, 0.22742071747779846, -0.08132188767194748, -0.23361732065677643, 0.07467322796583176, -0.3690478503704071, -0.17888875305652618, 0.723247230052948, 0.35334083437919617, 0.030032051727175713, -0.04981601983308792, 0.44801294803619385, -0.21971909701824188, -0.15876175463199615]]], "biases": [[-0.05550098419189453, 0.040573492646217346, -0.027792058885097504, -0.005972278770059347, 0.04100850597023964, 0.04220447316765785, -0.028463097289204597, 0.0317348949611187, 0.023426031693816185, -0.0011736097512766719, 0.06782431155443192, -0.01573318801820278, -0.07648687809705734, 0.03874111548066139, -0.03030574508011341, 0.052733175456523895, -0.023422876372933388, -0.02111756056547165, 0.04600014537572861, 0.03262965381145477, 0.0028319505508989096, -0.047488220036029816, -0.012374269776046276, 0.06434137374162674, 0.07935163378715515, -0.04618148133158684, 0.0492701530456543, 0.0794614851474762, 0.060733165591955185, 0.23819614946842194, 0.08485745638608932, 0.07327944785356522], [-0.004248060751706362, 0.04114624857902527, 0.19935113191604614, -0.007770320400595665, -0.029856501147150993, -0.051725491881370544, 0.045741207897663116, -0.00020533725910354406, 0.11214610934257507, 0.04482291266322136, 0.026130331680178642, 0.019495679065585136, 0.0029765416402369738, -0.014671281911432743, 0.05674712732434273, -0.058975107967853546, 0.009643079712986946, 0.0016341308364644647, 0.17305490374565125, 0.05615111067891121, -0.023035220801830292, 0.1782144457101822, -0.0009964205091819167, -0.1094946339726448], [0.35461634397506714, 0.18144501745700836]]}, "epsilon": 0.09646406774948073, "steps": 4676, "total_collisions": 58}