{"q_net": {"layer_sizes": [34, 32, 24, 2], "weights": [[[-0.5531516075134277, 0.2371218204498291, -0.40394100546836853, -0.14370839297771454, 0.4982919991016388, -0.014419694431126118, 0.17069858312606812, -0.6019732356071472, 0.09196273982524872, 0.10453729331493378, 0.15804630517959595, 0.03340788558125496, 0.4132649302482605, 0.04742009565234184, -0.13979966938495636, 0.26284462213516235, 0.188365176320076, 0.1191558986902237, -0.03112884610891342, -0.04368508607149124, -0.2218724936246872, -0.4893389344215393, 0.26874852180480957, 0.3787325918674469, -0.06300429999828339, 0.30924466252326965, 0.026072734966874123, 0.2605848014354706, 0.34051474928855896, -0.2275889664888382, 0.10520545393228531, -0.48459696769714355, -0.15395137667655945, 0.27434593439102173], [-0.12700363993644714, -0.2492310106754303, 0.07808896899223328, 0.16077785193920135, 0.1792723834514618, 0.1979651153087616, -0.44754159450531006, 0.02889595553278923, 0.11197109520435333, 0.07433561980724335, -0.40335893630981445, 0.206821471452713, -0.5803726315498352, 0.060588538646698, -0.33759453892707825, -0.37370583415031433, 0.25363731384277344, -0.36892396211624146, 0.08741935342550278, 0.18645694851875305, 0.007549440022557974, 0.15111027657985687, -0.31715863943099976, 0.14932413399219513, -0.1489538699388504, 0.2884689271450043, 0.3292556405067444, 0.4004979431629181, -0.18792028725147247, -0.02979586273431778, 0.21248504519462585, -0.2941684126853943, 0.29664790630340576, 0.296927809715271], [-0.10608470439910889, -0.05694282799959183, -0.43944796919822693, -0.05169115960597992, 0.04777871072292328, -0.4170520603656769, 0.020868990570306778, -0.184955433011055, -0.049158886075019836, -0.6285638213157654, -0.029644429683685303, -0.14700885117053986, 0.22341838479042053, 0.22736719250679016, -0.44421663880348206, 0.2727750539779663, -0.21955731511116028, 0.249513640999794, -0.3012593984603882, 0.023267097771167755, 0.011944402940571308, -0.21572962403297424, -0.30760854482650757, 0.2981926202774048, -0.03649555519223213, -0.21755382418632507, 0.2485722452402115, -0.1206517219543457, 0.012407551519572735, 0.12962819635868073, -0.09442997723817825, 0.43050438165664673, 0.08098232746124268, 0.25416722893714905], [0.2593422532081604, -0.39070388674736023, 0.03901687636971474, 0.3137098252773285, -0.12255367636680603, -0.3691253364086151, -0.330699622631073, 0.24846415221691132, 0.2824753522872925, -0.19146692752838135, 0.1377023458480835, -0.2500356435775757, -0.12531355023384094, -0.23330073058605194, -0.009960300289094448, -0.18562158942222595, 0.07388041913509369, 0.42475855350494385, -0.17408712208271027, -0.2579187750816345, 0.5097344517707825, 0.06788842380046844, 0.07906662672758102, -0.3080805540084839, -0.3063463270664215, -0.09269263595342636, 0.1409515142440796, 0.08524051308631897, -0.06100009009242058, 0.16846440732479095, -0.09963380545377731, -0.00904761627316475, 0.1340104192495346, -0.0312200915068388], [0.4630770683288574, 0.07433263957500458, 0.49785658717155457, 0.22933737933635712, -0.26464349031448364, -0.026654012501239777, -0.04924029856920242, -0.11285214871168137, 0.28744015097618103, -0.21110859513282776, 0.1915730983018875, -0.16971349716186523, 0.07469724118709564, 0.2933586537837982, 0.1699007749557495, -0.23764105141162872, 0.0544683039188385, -0.0031078215688467026, -0.032197292894124985, 0.00539272790774703, 0.3991950452327728, -0.19101126492023468, 0.15894196927547455, 0.1727074533700943, 0.06110129505395889, 0.22337713837623596, 0.31219685077667236, -0.06097884476184845, -0.12408039718866348, -0.010822783224284649, -0.3858598470687866, -0.14560650289058685, -0.058374226093292236, 0.20770873129367828], [-0.544429361820221, -0.23726071417331696, 0.4488281309604645, -0.03445811569690704, 0.13765428960323334, -0.2703165113925934, -0.22732901573181152, -0.044767651706933975, -0.6043218374252319, 0.20731014013290405, 0.050922784954309464, -0.000946195621509105, -0.1736908257007599, 0.10376880317926407, 0.2223808318376541, -0.12310907244682312, -0.14983773231506348, -0.2089524120092392, -0.3625295162200928, -0.05663953721523285, -0.16525818407535553, -0.09465837478637695, -0.5090728402137756, -0.011650534346699715, -0.17214518785476685, 0.16262109577655792, 0.01656104251742363, -0.13571612536907196, 0.06938954442739487, 0.02513023279607296, -0.03816909343004227, 0.4649232029914856, 0.1161470040678978, -0.48702800273895264], [-0.0478341206908226, 0.18381287157535553, -0.20268283784389496, -0.40748360753059387, -0.10328131169080734, -0.19220420718193054, 0.18102556467056274, 0.19456616044044495, 0.08382469415664673, -0.10716419667005539, -0.45316073298454285, 0.06997311860322952, 0.49084043502807617, 0.11161578446626663, 0.3442179262638092, 0.184817373752594, -0.20615513622760773, 0.16586636006832123, -0.10655110329389572, 0.12432249635457993, -0.022141804918646812, -0.28454843163490295, -0.23703783750534058, 0.3003745377063751, 0.008094832301139832, -0.04015495628118515, -0.10271541029214859, 0.032233383506536484, -0.17061002552509308, -0.025664856657385826, -0.2102005034685135, -0.3871649205684662, -0.42586320638656616, 0.08523323386907578], [0.17178767919540405, 0.05851415917277336, -0.04469608888030052, -0.4823586344718933, -0.14536140859127045, -0.055103279650211334, -0.22432245314121246, -0.11893321573734283, 0.10346668213605881, -0.31847628951072693, -0.1916166990995407, -0.25403153896331787, 0.37450534105300903, -0.0910572037100792, -0.055357132107019424, -0.14300061762332916, -0.19994646310806274, -0.024079620838165283, 0.046350494027137756, 0.04162171855568886, 0.0652853474020958, -0.14350858330726624, 0.0978824719786644, -0.2051488310098648, 0.11667591333389282, 0.06732804328203201, 0.1292187124490738, 0.3525554835796356, -0.2537727952003479, 0.5422688722610474, -0.17123401165008545, -0.3979042172431946, -0.211978942155838, 0.09073946624994278], [0.08563248068094254, -0.03237026557326317, -0.014445009641349316, 0.24437713623046875, -0.338034451007843, -0.08622095733880997, 0.37746956944465637, 0.09273391962051392, -0.1887379139661789, -0.33999165892601013, 0.31619325280189514, 0.22793048620224, 0.5350184440612793, -0.022966329008340836, 0.22321289777755737, -0.1175326332449913, -0.2098679095506668, 0.02552758902311325, 0.12926433980464935, -0.5016469955444336, -0.05047016218304634, 0.1383773535490036, -0.08777134865522385, -0.1749441921710968, 0.17088808119297028, -0.03253079950809479, -0.09642466902732849, -0.44011297821998596, 0.39449065923690796, -0.09491672366857529, 0.018781298771500587, -0.0784057006239891, -0.25636348128318787, -0.38606107234954834], [0.07950739562511444, 0.017947042360901833, 0.18714463710784912, -0.13756585121154785, -0.28004103899002075, -0.030302152037620544, -0.5059531331062317, -0.34200477600097656, -0.27543315291404724, -0.30775076150894165, -0.09094590693712234, -0.20978513360023499, 0.42480525374412537, -0.25501200556755066, 0.24450530111789703, -0.4261547029018402, 0.3940288722515106, -0.12206483632326126, 0.18981263041496277, 0.1343640685081482, -0.30054253339767456, -0.17647002637386322, -0.07883181422948837, 0.07932012528181076, 0.1767863780260086, 0.1776328980922699, 0.27449437975883484, -0.028028080239892006, -0.15506203472614288, 0.42244428396224976, 0.202622190117836, 0.40356311202049255, 0.02019486203789711, 0.14388532936573029], [-0.18800173699855804, 0.2053556740283966, -0.15107174217700958, -0.18145297467708588, 0.2305794209241867, -0.08734115958213806, -0.3528842329978943, 0.346926212310791, 0.005900050047785044, 0.06289737671613693, 0.40224704146385193, -0.38131412863731384, 0.0490412712097168, 0.21300764381885529, 0.14660710096359253, -0.27586835622787476, 0.1804938018321991, -0.14710117876529694, -0.05334782972931862, 0.03307364508509636, -0.03692186623811722, 0.0331144854426384, 0.011094667948782444, -0.2456163465976715, -0.05942228436470032, -0.07568104565143585, -0.23798556625843048, -0.0033403888810425997, -0.0733712688088417, 0.21774546802043915, -0.1831723153591156, -0.1829366236925125, 0.2046702802181244, -0.38677260279655457], [-0.13029003143310547, -0.08271805942058563, 0.028416311368346214, -0.0768449679017067, 0.001338207977823913, 0.46981438994407654, 0.0789300724864006, -0.15075932443141937, 0.2542476952075958, 0.2998155653476715, 0.04226556420326233, -0.007936404086649418, -0.0057515292428433895, -0.017378393560647964, 0.2672813832759857, 0.26394182443618774, -0.024257397279143333, -0.4251502454280853, 0.312630295753479, -0.28684672713279724, 0.10620323568582535, -0.19085882604122162, 0.3112569749355316, -0.41964560747146606, 0.08908962458372116, -0.1737452894449234, 0.24899369478225708, -0.07348527759313583, 0.05662226676940918, -0.5369213819503784, -0.09300660341978073, 0.07875227928161621, -0.10858336836099625, 0.10068446397781372], [-0.18231332302093506, 0.23586180806159973, 0.40209996700286865, 0.11143801361322403, 0.03261909261345863, 0.036122243851423264, -0.05398391932249069, 0.17992986738681793, -0.30788254737854004, -0.15922027826309204, -0.11104543507099152, 0.19819967448711395, -0.13866740465164185, 0.11993271112442017, -0.06409096717834473, -0.16301915049552917, 0.3425399959087372, -0.11489612609148026, -0.1928434818983078, -0.16040723025798798, -0.06020879000425339, -0.3806457221508026, -0.3247204124927521, 0.057098694145679474, -0.04446009173989296, 0.3702702522277832, 0.16169685125350952, -0.4660305082798004, -0.05695655569434166, -0.26243719458580017, -0.03241003677248955, -0.18968039751052856, -0.38672488927841187, -0.042955610901117325], [-0.0627460703253746, -0.01759989932179451, 0.06595892459154129, -0.0741157978773117, -0.46273431181907654, 0.08244048058986664, 0.21259400248527527, 0.015363780781626701, -0.14461223781108856, 0.2704162895679474, -0.3720918595790863, -0.20380212366580963, 0.332107812166214, -0.3270159065723419, -0.21433991193771362, -0.23132911324501038, -0.061320774257183075, 0.37508833408355713, -0.469980925321579, 0.004547963850200176, -0.04166533797979355, -0.34438639879226685, 0.15246322751045227, -0.1581868976354599, 0.08592889457941055, -0.35277798771858215, -0.25543642044067383, 0.06467675417661667, 0.1502649337053299, 0.11555284261703491, 0.04842212423682213, 0.37676936388015747, 0.09684635698795319, -0.003939677495509386], [0.2416268140077591, 0.13937583565711975, 0.04302588477730751, -0.2242964506149292, -0.309012234210968, 0.2508103847503662, -0.053887203335762024, -0.28820353746414185, -0.31550896167755127, -0.5147603750228882, 0.11991998553276062, 0.2312866598367691, -0.07303247600793839, -0.3462927043437958, 0.14589521288871765, -0.1555122286081314, -0.14338475465774536, 0.05423104017972946, -0.035643596202135086, 0.043946169316768646, 0.29460132122039795, -0.4001651108264923, 0.12002521753311157, 0.02208132855594158, -0.03401621803641319, 0.15763413906097412, 0.2903172969818115, 0.2846415042877197, -0.2060660421848297, -0.051787368953228, -0.31201282143592834, 0.2531239986419678, -0.07707127928733826, 0.5393403172492981], [0.20611192286014557, -0.4562482237815857, -0.49743691086769104, -0.19948220252990723, 0.13051587343215942, 0.01776604726910591, 0.20043785870075226, 0.1887807846069336, -0.04863712191581726, 0.3260936439037323, 0.30860888957977295, -0.24776573479175568, -0.09066548943519592, 0.034800607711076736, -0.25367918610572815, 0.0222875215113163, -0.40319594740867615, -0.24190965294837952, -0.12672889232635498, 0.09103486686944962, 0.13193529844284058, -0.13874885439872742, -0.3246459662914276, 0.46985238790512085, 0.1604769378900528, -0.28502118587493896, -0.03460649400949478, -0.2650398313999176, 0.08625660091638565, -0.15791380405426025, -0.09658954292535782, 0.0950641930103302, 0.15599362552165985, -0.35533756017684937], [-0.23930573463439941, -0.8128805160522461, -0.2616911828517914, 0.19209352135658264, -0.09298238903284073, -0.24336731433868408, 0.3836124837398529, -0.2782488167285919, 0.030977623537182808, -0.3661515414714813, -0.1388740986585617, 0.17635053396224976, -0.6087944507598877, -0.09991489350795746, 0.05631310120224953, -0.12227724492549896, -0.4578356444835663, -0.31762227416038513, -0.15571044385433197, -0.0436997190117836, 0.06049671396613121, 0.036430079489946365, -0.19880056381225586, 0.049730654805898666, -0.2541101574897766, 0.10928325355052948, 0.20754815638065338, -0.3222101330757141, 0.07618176192045212, 0.1875576674938202, -0.4719196856021881, -0.2920841872692108, -0.06915604323148727, 0.09893222898244858], [-0.021496878936886787, -0.019353529438376427, 0.14718662202358246, 0.12551738321781158, 0.36877790093421936, -0.08276191353797913, 0.21694669127464294, -0.34046080708503723, -0.19562971591949463, 0.28468120098114014, 0.649835467338562, -0.12751257419586182, -0.34787312150001526, 0.2889089286327362, 0.09959932416677475, 0.021881595253944397, -0.033244866877794266, -0.10588981211185455, -0.11273955553770065, -0.0729549452662468, 0.0029157723765820265, -0.6180111169815063, -0.4657054543495178, -0.5566256046295166, -0.18840396404266357, 0.39527979493141174, 0.41543325781822205, -0.37904173135757446, -0.12174856662750244, 0.13235454261302948, -0.14474192261695862, -0.29779550433158875, -0.13455075025558472, 0.2621224820613861], [-0.31011834740638733, 0.20992453396320343, 0.03176303207874298, -0.20563314855098724, -0.2830275297164917, 0.03657720237970352, 0.2730883061885834, 0.35348689556121826, 0.1354578584432602, -0.0019580393563956022, 0.34750065207481384, 0.5408843159675598, 0.16550302505493164, 0.31737691164016724, -0.24907542765140533, 0.061977043747901917, 0.23665891587734222, 0.28251582384109497, -0.011245430447161198, 0.31585392355918884, -0.10723663121461868, -0.08619854599237442, -0.5641660690307617, 0.36266839504241943, 0.02952946163713932, -0.02380012534558773, -0.024840258061885834, 0.6027225852012634, -0.3864009976387024, 0.10106594860553741, -0.11447639018297195, -0.2311655580997467, -0.4093639850616455, 0.18787012994289398], [0.1766391545534134, 0.153533935546875, 0.24374312162399292, 0.042107954621315, -0.029287509620189667, 0.35731104016304016, 0.14761017262935638, 0.0179805438965559, 0.48897409439086914, 0.43731364607810974, 0.19268716871738434, -0.2252652943134308, 0.2374151349067688, 0.08581643551588058, -0.12324307858943939, -0.02519955299794674, -0.07165715098381042, 0.19351595640182495, 0.06964541971683502, 0.21799638867378235, 0.30274301767349243, -0.13010817766189575, -0.010974422097206116, 0.3863229751586914, 0.18654271960258484, 0.17553354799747467, -0.09624427556991577, 0.2511332929134369, 0.2223253846168518, 0.4195680320262909, 0.4714961051940918, -0.22355066239833832, 0.6108763813972473, 0.24633944034576416], [-0.10673251003026962, 0.12196077406406403, -0.10610811412334442, 0.5011211633682251, 0.023415351286530495, 0.11962572485208511, -0.23707692325115204, 0.5568082928657532, -0.09582964330911636, 0.09147872030735016, 0.03185473382472992, 0.15253017842769623, -0.4096953272819519, -0.005867382977157831, 0.3468107581138611, -0.04542285203933716, 0.20639121532440186, -0.20171760022640228, -0.1629374474287033, -0.5103834271430969, -0.23000307381153107, 0.09601999074220657, 0.10567040741443634, -0.10589215904474258, 0.026363486424088478, -0.08433465659618378, 0.04301575571298599, -0.24409841001033783, -0.07995298504829407, -0.40751221776008606, 0.25931990146636963, -0.08554287999868393, -0.3288373351097107, -0.007143104914575815], [0.20832128822803497, 0.15390531718730927, -0.09173069894313812, -0.037199050188064575, -0.02935544215142727, -0.12581557035446167, 0.009118269197642803, 0.20907199382781982, -0.1871170550584793, -0.2724224925041199, -0.3730352222919464, -0.02369200624525547, -0.16085219383239746, 0.19717206060886383, 0.36078640818595886, 0.03174438327550888, -0.2049812525510788, -0.44306227564811707, 0.13740664720535278, 0.3708241879940033, -0.09586314111948013, -0.013998191803693771, 0.2213258445262909, 0.35020148754119873, -0.0513266958296299, 0.20931954681873322, -0.40456920862197876, 0.09330917149782181, -0.08380778133869171, 0.024573354050517082, 0.04293195903301239, -0.19000819325447083, 0.5436583757400513, 0.4384998083114624], [-0.01395015325397253, -0.11913145333528519, -0.03905592858791351, 0.42532673478126526, 0.1017087921500206, -0.3643045127391815, 0.28413569927215576, -0.30490201711654663, -0.5285838842391968, 0.4953843057155609, -0.10652609914541245, -0.02328876592218876, 0.2536560595035553, 0.02101260982453823, 0.36768150329589844, 0.15148264169692993, -0.46744444966316223, 0.3614838719367981, 0.10865458846092224, -0.10176968574523926, 0.23770979046821594, -0.10234321653842926, -0.07445833086967468, 0.10329681634902954, 0.5468147397041321, 0.052659861743450165, -0.27138006687164307, -0.21311922371387482, -0.0853966698050499, -0.11626002937555313, -0.20918475091457367, 0.2355068325996399, 0.13501988351345062, 0.21712201833724976], [-0.000276457576546818, -0.22905941307544708, 0.3872334361076355, -0.07541771978139877, 0.22872523963451385, 0.023198453709483147, 0.18773053586483002, 0.06713899224996567, -0.16551105678081512, 0.07488983869552612, 0.1296350061893463, -0.04324168339371681, 0.08776583522558212, 0.20093683898448944, -0.19410794973373413, -0.45331040024757385, -0.09025617688894272, -0.17351152002811432, -0.30997928977012634, 0.5007245540618896, 0.0588664710521698, -0.26810508966445923, 0.21566492319107056, 0.23987330496311188, -0.04781871289014816, 0.3567579388618469, -0.2045447677373886, 0.031294189393520355, 0.06659295409917831, -0.06500042229890823, -0.10890524834394455, -0.32919842004776, -0.34838271141052246, 0.10013482719659805], [0.08222700655460358, 0.14102616906166077, -0.1852913647890091, 0.26381421089172363, 0.07522747665643692, 0.10063587129116058, 0.30601733922958374, -0.4954565465450287, 0.1383155733346939, -0.33524033427238464, 0.0014936542138457298, -0.38582777976989746, -0.0935991108417511, 0.22171959280967712, -0.18770731985569, -0.4118182361125946, 0.10098370164632797, 0.14214067161083221, -0.03209797292947769, 0.02563997358083725, 0.20164242386817932, -0.059914324432611465, 0.20168139040470123, 0.16086623072624207, 0.2284793257713318, -0.079002745449543, 0.17095288634300232, 0.083086296916008, 0.05996805801987648, 0.34355705976486206, 0.05648910999298096, -0.12088095396757126, -0.20887009799480438, 0.22996075451374054], [-0.15444974601268768, 0.26037368178367615, -0.1113380715250969, -0.5378906726837158, -0.21962161362171173, 0.17216229438781738, -0.10193192213773727, 0.4654344320297241, 0.41805991530418396, 0.157212033867836, -0.03446347638964653, -0.3251175582408905, 0.022866837680339813, 0.14094650745391846, 0.3802088499069214, 0.24194300174713135, -0.26821401715278625, -0.14646966755390167, 0.17314544320106506, 0.22837811708450317, -0.06809674203395844, -0.014830406755208969, 0.3894537389278412, -0.08802828937768936, -0.0578097440302372, 0.3138585388660431, 0.33330732583999634, 0.03641430288553238, 0.012812785804271698, -0.09322965890169144, -0.28190597891807556, 0.506937563419342, -0.2811097800731659, 0.11041273921728134], [-0.07589125633239746, -0.15988750755786896, 0.14419697225093842, -0.2468036562204361, 0.350981205701828, -0.20712462067604065, -0.08930043131113052, -0.08626896888017654, 0.14725835621356964, -0.03520969673991203, 0.013106676749885082, -0.29449599981307983, 0.22345811128616333, -0.1874510794878006, -0.039825037121772766, 0.19272683560848236, -0.06138351932168007, -0.15678252279758453, 0.148226797580719, 0.09358835220336914, -0.10237865149974823, 0.14298173785209656, -0.10294690728187561, 0.11721859872341156, -0.06130484491586685, -0.32730764150619507, 0.12532369792461395, 0.5237059593200684, 0.21745716035366058, 0.6014052629470825, -0.17486310005187988, 0.21745094656944275, 0.162470281124115, 0.20218729972839355], [0.16758905351161957, 0.24693742394447327, -0.5636872053146362, 0.25075826048851013, -0.1866046041250229, -0.054905351251363754, 0.28943490982055664, -0.08864584565162659, 0.3153080940246582, 0.20118165016174316, -0.1715887486934662, -0.5279752016067505, -0.13470959663391113, -0.10199642926454544, 0.025346258655190468, 0.33087149262428284, 0.13365621864795685, -0.367750883102417, -0.3335801661014557, 0.12295088917016983, 0.2666023075580597, 0.5374857187271118, -0.4805666208267212, 0.011634175665676594, -0.016016410663723946, 0.19817699491977692, 0.24827143549919128, 0.30306336283683777, 0.0388796441257, 0.029606198891997337, -0.3199475109577179, 0.6324613690376282, -0.011166832409799099, 0.34455767273902893], [0.11326645314693451, 0.09918610751628876, 0.01246498990803957, 0.15154589712619781, -0.45585086941719055, 0.1906137466430664, 0.14479708671569824, 0.16435150802135468, 0.021189749240875244, -0.33998918533325195, -0.4756038188934326, -0.7225331664085388, -0.06805837154388428, 0.19338324666023254, -0.5867576003074646, -0.2610166072845459, -0.1778213083744049, 0.13397128880023956, -0.20235846936702728, -0.10224650800228119, 0.17655445635318756, -0.22693242132663727, -0.3412646949291229, 0.2639528214931488, 0.012303262017667294, -0.029080545529723167, -0.1950095146894455, -0.013237407431006432, -0.21535201370716095, -0.1521994173526764, 0.012781321071088314, -0.19177578389644623, -0.15094640851020813, -0.07500583678483963], [0.03266581520438194, -0.28836941719055176, 0.30257004499435425, 0.5413495898246765, 0.32842952013015747, -0.017220513895154, -0.3805270791053772, -0.10636866092681885, 0.479058176279068, 0.16034676134586334, -0.11939430236816406, 0.206938236951828, -0.22997522354125977, -0.12573891878128052, -0.03778090700507164, 0.09181027114391327, 0.29890090227127075, -0.18047039210796356, -0.060978181660175323, -0.04463203623890877, 0.5864912271499634, 0.4720569849014282, 0.041344549506902695, 0.025254089385271072, -0.17456024885177612, -0.6228967905044556, 0.24282321333885193, 0.1241384893655777, -0.03090471588075161, -0.21183393895626068, -0.26165682077407837, 0.010519818402826786, -0.2962402403354645, 0.5239226222038269], [-0.0648072138428688, -0.06893862038850784, 0.1340283304452896, -0.16863436996936798, 0.3002910614013672, 0.26572877168655396, -0.021510055288672447, 0.16163930296897888, 0.1746828556060791, -0.45602911710739136, 0.005444892682135105, 0.04731561243534088, -0.16835832595825195, -0.09207987040281296, -0.2604179084300995, 0.1912245899438858, -0.1735915243625641, 0.3220606744289398, -0.16362521052360535, 0.2736007273197174, 0.3535081446170807, 0.318077951669693, 0.09615610539913177, -0.24197997152805328, 0.12006478011608124, -0.1841895878314972, -0.09721362590789795, -0.30436110496520996, -0.04000338539481163, 0.3318534195423126, -0.04167453572154045, 0.06153663620352745, -0.2960377335548401, -0.47916504740715027], [0.39705270528793335, 0.058602556586265564, 0.2311950922012329, -0.5222906470298767, -0.12230008095502853, 0.2554357051849365, 0.41638725996017456, -0.05874555930495262, 0.08764857053756714, -0.3681841790676117, -0.03660134598612785, 0.08801025152206421, 0.10290899127721786, 0.17012988030910492, 0.3660524785518646, -0.29675406217575073, -0.020638350397348404, -0.4059997498989105, -0.21749264001846313, 0.004862233065068722, -0.24887023866176605, 0.14874579012393951, 0.10559618473052979, 0.1005241870880127, -0.26721063256263733, -0.37940889596939087, -0.18087922036647797, 0.18798941373825073, 0.15790602564811707, -0.005887224338948727, 0.09911079704761505, -0.24640397727489471, -0.14854224026203156, 0.18913742899894714]], [[-0.08445760607719421, -0.24800559878349304, -0.3610251843929291, 0.119204580783844, 0.35428547859191895, 0.07960302382707596, -0.01100519672036171, 0.17356403172016144, 0.4005967080593109, -0.21027037501335144, -0.052613310515880585, 0.11372880637645721, -0.16740338504314423, 0.28806886076927185, 0.10249960422515869, 0.34304922819137573, 0.44683852791786194, -0.1520964801311493, 0.3568291664123535, -0.45308324694633484, 0.14915238320827484, 0.15869207680225372, -0.12327121943235397, 0.17379507422447205, -0.1925063133239746, 0.6900168657302856, -0.07373227179050446, 0.633673369884491, -0.008960193023085594, 0.479158878326416, -0.26393020153045654, 0.11194175481796265], [-0.01909337006509304, -0.1762714684009552, -0.012090739794075489, 0.03185943141579628, 0.03123963065445423, -0.024768948554992676, 0.2283453345298767, 0.29060813784599304, -0.08147096633911133, 0.6132363080978394, 0.06055460497736931, -0.12668710947036743, -0.18706926703453064, -0.3544588088989258, -0.20086102187633514, 0.0809493437409401, -0.17613761126995087, -0.16513074934482574, -0.21418142318725586, -0.1489553451538086, 0.3617595434188843, -0.05516921356320381, -0.19410310685634613, 0.018047787249088287, -0.17668993771076202, -0.08180029690265656, 0.002018590923398733, -0.13127577304840088, -0.23340749740600586, 0.13977278769016266, 0.3753046989440918, -0.20294438302516937], [0.010101444087922573, -0.3355277180671692, -0.0436706505715847, -0.10543394088745117, -0.31295424699783325, 0.06295093148946762, 0.11541302502155304, 0.31696656346321106, 0.3068435490131378, 0.4351422190666199, 0.07528892159461975, 0.7456197738647461, 0.19305557012557983, 0.11227889358997345, 0.3916165828704834, 0.498767226934433, -0.03196130692958832, 0.07231049239635468, -0.06385044753551483, -0.3907558023929596, 0.3701983392238617, 0.3159830570220947, 0.17854885756969452, 0.5113312005996704, 0.2553200125694275, 0.6866908669471741, -0.05847994238138199, 0.44041872024536133, 0.08495642244815826, 0.3253280520439148, 0.15581612288951874, -0.2611694037914276], [0.07492143660783768, 0.13536334037780762, -0.05516837537288666, -0.016118554398417473, -0.20778682827949524, -0.15636380016803741, 0.35813838243484497, 0.3932337164878845, -0.5213811993598938, 0.1046002134680748, -0.3021562099456787, -0.15701928734779358, 0.5957085490226746, 0.1377444714307785, 0.041344694793224335, 0.30972129106521606, -0.06513865292072296, -0.18705646693706512, -0.06471194326877594, -0.14242009818553925, -0.16769511997699738, -0.34357836842536926, -0.006722240708768368, 0.1784801334142685, 0.154912069439888, -0.2589106559753418, -0.002629142953082919, 0.2043883502483368, 0.14365367591381073, 0.5405690670013428, -0.06898649036884308, 0.1366225779056549], [-0.3632186949253082, 0.11390510946512222, 0.04184071719646454, 0.028013871982693672, -0.42456507682800293, 0.1795891374349594, 0.27920418977737427, -0.011633597314357758, 0.513488233089447, -0.1480420082807541, 0.2805044651031494, 0.18372629582881927, -0.2892740070819855, 0.14000481367111206, 0.23384442925453186, 0.4235380291938782, 0.17174524068832397, 0.09906621277332306, -0.21320796012878418, -0.01840355060994625, 0.40766382217407227, -0.3805374801158905, 0.05607660114765167, -0.022987233474850655, 0.17941340804100037, -0.2008270025253296, -0.5036550760269165, 0.07096603512763977, 0.44642916321754456, -0.497946560382843, -0.03655216470360756, -0.583349883556366], [-0.22348403930664062, -0.06444910913705826, 0.06632116436958313, -0.2676015794277191, 0.11126944422721863, 0.001274064532481134, -0.19760261476039886, 0.2383507639169693, -0.053248848766088486, -0.21737724542617798, 0.46838536858558655, -0.008618973195552826, -0.07850340753793716, -0.0507926419377327, -0.15653926134109497, 0.1851595640182495, 0.39574000239372253, -0.6019540429115295, -0.07102392613887787, -0.3518869876861572, 0.4929458200931549, 0.1190001517534256, 0.11285089701414108, 0.06340233236551285, 0.40828225016593933, 0.2750115692615509, -0.16279742121696472, -0.01976744271814823, 0.14468976855278015, -0.24287199974060059, -0.3520697355270386, 0.015488246455788612], [0.015526584349572659, 0.03764666989445686, -0.05687544122338295, 0.3210414946079254, 0.05246924236416817, 0.07588654011487961, -0.19858276844024658, 0.3183295428752899, 0.05587629973888397, -0.34299758076667786, 0.3344995677471161, -0.1215655580163002, -0.331989586353302, -0.41723936796188354, 0.19525909423828125, 0.004722504876554012, 0.09588757902383804, -0.323331743478775, 0.2815219759941101, 0.20147103071212769, 0.09928081929683685, 0.1959136426448822, 0.037210915237665176, 0.20390024781227112, 0.34735527634620667, 0.1328115463256836, 0.09687571227550507, -0.1964593380689621, -0.08803195506334305, 0.16070470213890076, -0.07466216385364532, 0.08873085677623749], [-0.33453676104545593, 0.2622772753238678, 0.31853580474853516, 0.22781333327293396, 0.0486774742603302, -0.03224587440490723, -0.08128135651350021, 0.01455430407077074, -0.09361948072910309, -0.25344619154930115, 0.2273133099079132, 0.1280771940946579, -0.12221881002187729, -0.017144758254289627, 0.19347932934761047, 0.3930053114891052, 0.13763965666294098, -0.31720978021621704, -0.17988108098506927, -0.128798246383667, -0.3684110939502716, 0.02821398340165615, -0.012253919616341591, 0.25167524814605713, -0.294094055891037, -0.22917860746383667, 0.0005396742490120232, 0.13925877213478088, 0.20703566074371338, -0.3348987102508545, 0.12543852627277374, -0.24680551886558533], [-0.05734563246369362, -0.2720891535282135, -0.06432382762432098, 0.014033008366823196, 0.2643313407897949, -0.14662840962409973, -0.17136938869953156, 0.3108385503292084, 0.0017245592316612601, -0.5795906782150269, 0.04973004758358002, 0.03632866218686104, 0.41638094186782837, 0.031669992953538895, -0.28181013464927673, -0.08934449404478073, 0.30102601647377014, 0.134288027882576, -0.05328449234366417, -0.48928365111351013, 0.08190824836492538, -0.243502676486969, 0.2620019316673279, 0.32833296060562134, 0.3480995297431946, 0.05307954177260399, -0.21370960772037506, 0.10374316573143005, 0.5441954135894775, 0.07990436255931854, 0.08687258511781693, 0.1787143349647522], [0.0535777248442173, -0.02245931327342987, -0.0173853300511837, 0.2352994829416275, 0.3619796633720398, 0.1892349123954773, -0.40523651242256165, 0.20388507843017578, 0.04572712257504463, -0.30951249599456787, 0.36180540919303894, 0.12849044799804688, -0.25098341703414917, -0.429620623588562, -0.003947070334106684, -0.3433833122253418, 0.21984931826591492, 0.0384400375187397, 0.23779618740081787, 0.27213379740715027, -0.0543917678296566, -0.15827810764312744, 0.31443995237350464, 0.09283487498760223, 0.17485420405864716, 0.23608559370040894, 0.31761860847473145, 0.2011421024799347, 0.20143388211727142, 0.6475969552993774, -0.31820088624954224, -0.07851699739694595], [0.021170612424612045, 0.0182028915733099, 0.14647191762924194, 0.26546740531921387, 0.30203044414520264, 0.5708460211753845, -0.4781392812728882, 0.17605161666870117, -0.02123584970831871, 0.5054882168769836, -0.3766178488731384, 0.29870662093162537, 0.1643088012933731, -0.4144849479198456, -0.05786697193980217, -0.13063950836658478, -0.35310205817222595, 0.2816413938999176, -0.20508970320224762, 0.22961390018463135, 0.0056381262838840485, -0.3052281439304352, 0.5956849455833435, 0.05708453431725502, -0.16516150534152985, 0.1607198715209961, 0.1411352902650833, 0.12779474258422852, -0.37748563289642334, 0.6177654266357422, 0.0616755411028862, 0.22502820193767548], [0.10783135145902634, 0.04111422225832939, -0.06842906028032303, 0.05819850414991379, -0.009681404568254948, -0.07052619755268097, -0.16480064392089844, 0.15846683084964752, -0.1901787519454956, -0.11930099129676819, -0.11759854853153229, 0.07131335139274597, 0.2131645828485489, 0.31417354941368103, -0.08691518753767014, -0.6646639704704285, 0.11703606694936752, -0.32970908284187317, 0.27873000502586365, 0.016447652131319046, -0.28811967372894287, -0.141744926571846, -0.2754732370376587, 0.06219286099076271, -0.014625189825892448, -0.11021454632282257, -0.25753018260002136, 0.04101285710930824, -0.3274591863155365, -0.03133158013224602, 0.170832097530365, -0.09003382176160812], [0.0305287167429924, 0.08413604646921158, 0.21529270708560944, -0.11868754029273987, 0.028086820617318153, 0.29873672127723694, 0.09301365166902542, -0.3191194534301758, 0.02218027226626873, -0.13366474211215973, 0.3256615400314331, 0.059341948479413986, -0.28915709257125854, -0.14696460962295532, -0.2157798856496811, 0.015937477350234985, 0.02674359269440174, -0.3718509376049042, -0.02911646105349064, -0.05343685299158096, 0.002969464985653758, -0.04470430314540863, -0.3452424705028534, 0.6450942158699036, -0.09113503247499466, 0.04216712713241577, 0.015280217863619328, -0.24964533746242523, -0.3216109275817871, -0.012426280416548252, 0.16470421850681305, -0.03828664496541023], [-0.13974419236183167, -0.17896668612957, 0.06319210678339005, 0.2365797609090805, -0.5401503443717957, 0.07882610708475113, -0.1846674382686615, 0.004438792355358601, 0.09163152426481247, 0.21885360777378082, -0.217255100607872, 0.23899394273757935, -0.4015806317329407, -0.14071880280971527, -0.24719274044036865, -0.07822396606206894, -0.1387828141450882, 0.09565866738557816, -0.3020222783088684, -0.3167119324207306, 0.06756655126810074, 0.034550562500953674, 0.2464229315519333, -0.5571357011795044, -0.11426370590925217, 0.022020157426595688, 0.125735342502594, -0.14769494533538818, 0.22046799957752228, 0.23969241976737976, 0.011938986368477345, 0.10763809084892273], [0.19181589782238007, 0.08677610754966736, -0.43891459703445435, 0.504642903804779, 0.4294581711292267, -0.3031338155269623, -0.16549871861934662, 0.058665916323661804, -0.08877966552972794, 0.2078024446964264, -0.18504540622234344, -0.25293299555778503, 0.47998741269111633, -0.06193049997091293, 0.12447071075439453, -0.46672773361206055, 0.5485948920249939, 0.19199660420417786, 0.41975730657577515, 0.3739655613899231, 0.15932050347328186, -0.06095301732420921, 0.14544792473316193, -0.23954077064990997, 0.24842169880867004, -0.08719298988580704, -0.2046525627374649, 0.0051706633530557156, 0.21045063436031342, -0.17983020842075348, -0.12164273858070374, -0.026526611298322678], [-0.1397761106491089, 0.1312892884016037, -0.18875814974308014, -0.17793388664722443, 0.20463897287845612, -0.46177053451538086, -0.27455058693885803, 0.12742620706558228, 0.17917165160179138, 0.224758118391037, -0.2034512460231781, -0.2570067048072815, -0.2321014255285263, -0.16568848490715027, -0.02397351898252964, -0.12492112070322037, 0.6347077488899231, 0.16101160645484924, 0.26479241251945496, 0.004245659802109003, 0.0704147219657898, -0.07676902413368225, -0.0236413162201643, 0.12955443561077118, -0.29302114248275757, -0.08588200062513351, 0.1398082822561264, -0.14727361500263214, -0.39209452271461487, 0.12379034608602524, 0.38602033257484436, -0.29381099343299866], [0.0267652478069067, 0.2879776954650879, 0.12695497274398804, 0.020423030480742455, 0.15445604920387268, -0.07237620651721954, 0.45014631748199463, -0.19229012727737427, -0.1171741932630539, 0.0026216811966151, -0.013909133151173592, 0.24047724902629852, 0.42002031207084656, -0.10984813421964645, 0.6179183125495911, -0.035676851868629456, 0.38365980982780457, 0.1581050008535385, -0.22298191487789154, -0.36737602949142456, -0.401043176651001, 0.6570211052894592, 0.11113651841878891, 0.02863961271941662, -0.11112386733293533, -0.23201210796833038, 0.33574777841567993, 0.12693671882152557, 0.3338918685913086, -0.13801710307598114, 0.15922431647777557, 0.15077590942382812], [-0.32469987869262695, 0.08735255897045135, 0.21463412046432495, -0.0664311945438385, -0.23093736171722412, 0.26674532890319824, 0.007474514190107584, -0.16616027057170868, -0.05802244320511818, 0.016470912843942642, -0.009746448136866093, 0.0022814441472291946, -0.4152566194534302, 0.09983029961585999, -0.4224134087562561, -0.0914749726653099, -0.1907218098640442, 0.2077452540397644, -0.17947012186050415, -0.0024020185228437185, -0.119737409055233, -0.050601959228515625, -0.0355621874332428, -0.085181325674057, -0.08673901855945587, -0.059717513620853424, -0.09965057671070099, -0.6689983606338501, 0.13346606492996216, -0.3119812607765198, 0.22484628856182098, -0.19901075959205627], [-0.02661995030939579, -0.09955475479364395, 0.13347181677818298, 0.05085200443863869, -0.216060072183609, -0.12405417114496231, -0.29440322518348694, -0.04166629910469055, 0.005309238098561764, -0.22181281447410583, -0.030226947739720345, -0.1954902559518814, 0.2395533174276352, -0.06764215230941772, 0.28396910429000854, 0.09534724056720734, -0.05030238255858421, 0.03179970383644104, 0.27426835894584656, -0.1456695944070816, -0.16990122199058533, -0.23691807687282562, 0.3012251853942871, -0.1068553477525711, -0.1874965876340866, 0.021241553127765656, 0.3032704293727875, 0.15973757207393646, 0.6630006432533264, -0.3158016800880432, -0.01979367434978485, -0.3033648431301117], [-0.04271677881479263, -0.08085910975933075, 0.15667249262332916, 0.23627246916294098, -0.1756446212530136, 0.28957900404930115, 0.04396190866827965, -0.05978859215974808, 0.044439781457185745, -0.2426692545413971, -0.05991495028138161, -0.10705769807100296, -0.09907373040914536, 0.13416031002998352, 0.012451985850930214, 0.20392078161239624, -0.14018532633781433, 0.12490788847208023, 0.008246523328125477, 0.11358962953090668, -0.14305002987384796, 0.1634291559457779, -0.14870308339595795, 0.406232625246048, 0.06992430984973907, 0.04926438629627228, -0.01113903895020485, -0.38017621636390686, 0.23675742745399475, -0.24142874777317047, -0.13835814595222473, -0.3092209994792938], [-0.01295824907720089, 0.18492186069488525, -0.12848405539989471, 0.2669426202774048, 0.40294891595840454, 0.21081067621707916, -0.013374856673181057, -0.04451781511306763, 0.27093952894210815, 0.157968208193779, -0.029644696041941643, 0.031378455460071564, 0.29825344681739807, 0.051262032240629196, -0.08585809916257858, -0.13669750094413757, 0.2790369987487793, 0.41387251019477844, 0.14729368686676025, -0.07992008328437805, -0.1433582305908203, 0.24689793586730957, 0.3988569676876068, -0.13613148033618927, 0.007834474556148052, 0.4653090238571167, 0.5957515835762024, 0.5735309720039368, -0.26104170083999634, 0.08514609932899475, -0.11603069305419922, -0.03748616203665733], [0.29202723503112793, -0.249250128865242, -0.1508464813232422, 0.27958109974861145, 0.009353301487863064, 0.3014385998249054, -0.2542133629322052, -0.5347230434417725, -0.3357413113117218, 0.19657185673713684, 0.09933248907327652, -0.08333244174718857, -0.34635546803474426, 0.348300576210022, 0.026255013421177864, -0.16930848360061646, 0.07890613377094269, -0.08889743685722351, -0.7809297442436218, -0.1249077320098877, -0.47441816329956055, 0.3174009621143341, 0.06811459362506866, -0.3412720263004303, -0.32437729835510254, 0.34641826152801514, -0.34889155626296997, 0.8550471663475037, -0.06571917980909348, -0.00988028571009636, -0.09430868178606033, 0.2666636109352112], [-0.22747497260570526, 0.11693426221609116, 0.2150530219078064, 0.47746556997299194, 0.18680015206336975, -0.03478981927037239, -0.10495097935199738, 0.40108242630958557, 0.17501047253608704, -0.3021113872528076, 0.31503531336784363, 0.13021330535411835, -0.25254350900650024, 0.2999759614467621, -0.2436113953590393, -0.29238036274909973, -0.15496976673603058, 0.027703117579221725, -0.3210679292678833, -0.37881919741630554, 0.4655052125453949, 0.03471164405345917, 0.011770736426115036, 0.016447557136416435, -0.02183866873383522, -0.06314092129468918, -0.10933075100183487, -0.2937352657318115, -0.19326971471309662, -0.12955616414546967, -0.3097343444824219, 0.08263743668794632], [-0.020288687199354172, 0.09770999103784561, 0.07018894702196121, -0.3196682035923004, 0.12906698882579803, 0.02962031587958336, -0.4417901933193207, -0.1156233549118042, -0.4125445783138275, 0.24047261476516724, -0.24647663533687592, -0.18022584915161133, -0.44053807854652405, -0.4406256079673767, 0.29071468114852905, -0.31335124373435974, -0.06139678880572319, -0.028473947197198868, -0.13462837040424347, 0.07345788180828094, -0.3218996226787567, -0.19838348031044006, 0.11939170211553574, 0.23282916843891144, -0.521268367767334, -0.22587080299854279, -0.26412907242774963, 0.17256410419940948, -0.33366858959198, -0.0475907176733017, 0.11603432148694992, -0.23664040863513947]], [[0.7628661394119263, -0.2335655391216278, 0.4324483871459961, 0.0922713354229927, -0.2563970983028412, 0.2745587229728699, -0.16314110159873962, -0.4111952483654022, 0.04660242050886154, 0.42766663432121277, 0.41761747002601624, -0.3924390375614166, 0.23523667454719543, 0.26667237281799316, -0.09586639702320099, -0.0867677554488182, 0.09200982749462128, 0.7893136143684387, 0.04138419032096863, -0.42360392212867737, 0.5398715138435364, -0.0629555732011795, 0.4678531885147095, 0.12377350777387619], [0.7172715067863464, -0.5065501928329468, 0.4971797466278076, 0.01703670620918274, 0.2874944508075714, -0.30297666788101196, 0.10556641966104507, 0.00964931957423687, -0.32340893149375916, 0.39628157019615173, 0.5187581181526184, 0.4567755162715912, -0.2837894558906555, 0.32144033908843994, -0.12227416783571243, -0.05751030147075653, 0.142494335770607, -0.1719851940870285, -0.5392274260520935, 0.11982085555791855, 0.4030696153640747, 0.06931620091199875, -0.0981755182147026, -0.028607327491044998]]], "biases": [[-0.009169643744826317, -0.09627317637205124, -0.06334169209003448, 0.09447275102138519, 0.13645438849925995, 0.12805359065532684, -0.19415701925754547, 0.04738547280430794, 0.07667800784111023, 0.05299725383520126, -0.02442339062690735, 0.2703389525413513, -0.024297062307596207, -0.14070218801498413, -0.012378291226923466, -0.010300636291503906, -0.00803754199296236, 0.07364155352115631, -0.0049618943594396114, 0.18057836592197418, 0.02219451032578945, -0.062404531985521317, 0.11182131618261337, 0.033977992832660675, -0.04803727939724922, 0.25351980328559875, 0.2614412307739258, 0.22739900648593903, -0.012221284210681915, 0.5042311549186707, -0.05933003127574921, 0.006419164128601551], [0.31145280599594116, -0.05063837394118309, 0.12617482244968414, 0.003658126574009657, -0.02583993785083294, -0.03321164473891258, -0.0407135933637619, -0.03595847636461258, -0.11283113807439804, 0.2887890934944153, 0.31945160031318665, -0.09474895149469376, 0.012085129506886005, 0.051129214465618134, -0.06731591373682022, -0.04070894047617912, 0.01970992051064968, 0.002371198730543256, -0.12578165531158447, -0.02930515818297863, 0.18392746150493622, -0.061847735196352005, 0.06644126772880554, -0.0058760857209563255], [0.5052698254585266, 0.23603296279907227]]}, "target_net": {"layer_sizes": [34, 32, 24, 2], "weights": [[[-0.5531933307647705, 0.23709610104560852, -0.4039001762866974, -0.1436707228422165, 0.4982914924621582, -0.01442267931997776, 0.17068617045879364, -0.6020401120185852, 0.09200216084718704, 0.10456151515245438, 0.15804846584796906, 0.0334203764796257, 0.4132576882839203, 0.04737706482410431, -0.13976211845874786, 0.26287582516670227, 0.18836399912834167, 0.11914671957492828, -0.031171541661024094, -0.04374013841152191, -0.22182931005954742, -0.4893135726451874, 0.26875656843185425, 0.37874460220336914, -0.06305225193500519, 0.3092252314090729, 0.026112839579582214, 0.2606184482574463, 0.3405126929283142, -0.2275984287261963, 0.10524862259626389, -0.4845638573169708, -0.1539369821548462, 0.27435627579689026], [-0.12713958323001862, -0.24901792407035828, 0.0779813900589943, 0.16081500053405762, 0.17925025522708893, 0.19780784845352173, -0.44761335849761963, 0.02871556766331196, 0.11189163476228714, 0.07427776604890823, -0.40334653854370117, 0.20688006281852722, -0.5803399085998535, 0.06053255870938301, -0.3377121388912201, -0.3737088441848755, 0.2535734474658966, -0.36897963285446167, 0.08744874596595764, 0.18667246401309967, 0.0074715386144816875, 0.15112122893333435, -0.3171588182449341, 0.149311825633049, -0.14901642501354218, 0.28869831562042236, 0.3291969299316406, 0.40042081475257874, -0.18790556490421295, -0.029826054349541664, 0.21220922470092773, -0.2941926419734955, 0.29651325941085815, 0.29695385694503784], [-0.10613594949245453, -0.05693899095058441, -0.43935635685920715, -0.05163765698671341, 0.047771722078323364, -0.4170518219470978, 0.020666832104325294, -0.18518131971359253, -0.04905954748392105, -0.6285263299942017, -0.02964383363723755, -0.14694078266620636, 0.2233709990978241, 0.22741496562957764, -0.4441298544406891, 0.27287328243255615, -0.2195599526166916, 0.24951805174350739, -0.30148452520370483, 0.023187972605228424, 0.01205719169229269, -0.21569250524044037, -0.30760103464126587, 0.298272043466568, -0.03665351867675781, -0.21761605143547058, 0.24865303933620453, -0.12059023976325989, 0.01239961851388216, 0.12963441014289856, -0.094355009496212, 0.430609792470932, 0.08103720098733902, 0.254144549369812], [0.259307861328125, -0.3910489082336426, 0.03912064805626869, 0.31365740299224854, -0.12255558371543884, -0.36893486976623535, -0.33041292428970337, 0.2493075430393219, 0.28257477283477783, -0.19127731025218964, 0.1376638561487198, -0.2501427233219147, -0.12583030760288239, -0.23315735161304474, -0.009795385412871838, -0.1855599284172058, 0.07410625368356705, 0.4247967004776001, -0.1740759015083313, -0.2579527199268341, 0.5098184943199158, 0.06795082986354828, 0.07901199907064438, -0.3082631230354309, -0.3063834011554718, -0.09301590174436569, 0.14105455577373505, 0.08523882925510406, -0.06103083863854408, 0.16864442825317383, -0.09908834844827652, -0.008854278363287449, 0.13421136140823364, -0.031212905421853065], [0.46307340264320374, 0.07391157001256943, 0.49771660566329956, 0.22905750572681427, -0.264690101146698, -0.02626614086329937, -0.04928235709667206, -0.11239151656627655, 0.28726381063461304, -0.21119916439056396, 0.1915319412946701, -0.1697598695755005, 0.07453060895204544, 0.2933310270309448, 0.1697302609682083, -0.23763836920261383, 0.05448624864220619, -0.0031287246383726597, -0.03200299292802811, 0.005554532632231712, 0.39898616075515747, -0.19136205315589905, 0.15889587998390198, 0.17255213856697083, 0.06152408942580223, 0.22351592779159546, 0.31193894147872925, -0.06113859638571739, -0.12411316484212875, -0.01087556965649128, -0.38581159710884094, -0.14581729471683502, -0.05843500420451164, 0.20779474079608917], [-0.5444399118423462, -0.23773932456970215, 0.44871988892555237, -0.03472180292010307, 0.13769200444221497, -0.2700258493423462, -0.22704462707042694, -0.04408373683691025, -0.6044875979423523, 0.2073756456375122, 0.050897471606731415, -0.001209876500070095, -0.1739831566810608, 0.10390602797269821, 0.22230985760688782, -0.12318617850542068, -0.14963102340698242, -0.20884056389331818, -0.36269816756248474, -0.056768711656332016, -0.16545382142066956, -0.09477030485868454, -0.5091520547866821, -0.01192023977637291, -0.17223557829856873, 0.16208995878696442, 0.016363339498639107, -0.1358075588941574, 0.06933716684579849, 0.025046152994036674, -0.03792596235871315, 0.4647403955459595, 0.11612631380558014, -0.4870860278606415], [-0.04790397733449936, 0.1837703436613083, -0.20266686379909515, -0.40748119354248047, -0.10327327996492386, -0.19220399856567383, 0.1810261756181717, 0.19452089071273804, 0.08383097499608994, -0.10712957382202148, -0.45316052436828613, 0.06997248530387878, 0.4908592998981476, 0.11163856089115143, 0.34422457218170166, 0.18480195105075836, -0.2061559110879898, 0.16585181653499603, -0.10658107697963715, 0.12417440861463547, -0.02212582528591156, -0.284514844417572, -0.2370411455631256, 0.3004077672958374, 0.008034917525947094, -0.040245622396469116, -0.10270483791828156, 0.03224976733326912, -0.17060697078704834, -0.025671137496829033, -0.2101801633834839, -0.387220561504364, -0.42589905858039856, 0.08518849313259125], [0.17170532047748566, 0.05850191041827202, -0.044685181230306625, -0.4823767840862274, -0.14537183940410614, -0.05501531437039375, -0.22424310445785522, -0.11873111128807068, 0.10347788780927658, -0.3185104727745056, -0.19162751734256744, -0.25396963953971863, 0.3745812773704529, -0.09091181308031082, -0.05534163862466812, -0.14301423728466034, -0.1999472826719284, -0.02403854764997959, 0.04654955491423607, 0.041865065693855286, 0.06529734283685684, -0.1435919851064682, 0.09787889569997787, -0.20510394871234894, 0.11674696207046509, 0.06742479652166367, 0.12922462821006775, 0.3525664508342743, -0.2537740468978882, 0.5423606634140015, -0.17122873663902283, -0.3978235721588135, -0.21190160512924194, 0.09077778458595276], [0.08569905906915665, -0.03229200467467308, -0.014501885510981083, 0.244239941239357, -0.3380838632583618, -0.0861106663942337, 0.37722906470298767, 0.09324555844068527, -0.1887442022562027, -0.34010642766952515, 0.31615370512008667, 0.22808702290058136, 0.5349392890930176, -0.022965557873249054, 0.22316214442253113, -0.11758005619049072, -0.20987126231193542, 0.02554580569267273, 0.12961925566196442, -0.5015881061553955, -0.050487179309129715, 0.13829080760478973, -0.08780428767204285, -0.1747252494096756, 0.17104104161262512, -0.03205307945609093, -0.09649726003408432, -0.4401792287826538, 0.39451864361763, -0.09494775533676147, 0.01888253726065159, -0.07838103920221329, -0.2562803626060486, -0.3859351873397827], [0.07963006943464279, 0.01785033941268921, 0.18716955184936523, -0.13761354982852936, -0.2800600528717041, -0.030164673924446106, -0.5059818625450134, -0.34194114804267883, -0.2754141688346863, -0.3077918291091919, -0.09095890074968338, -0.20975261926651, 0.4247933030128479, -0.255080908536911, 0.24451784789562225, -0.4261931777000427, 0.3940393924713135, -0.12205888330936432, 0.18999847769737244, 0.13443759083747864, -0.3005295991897583, -0.1765032857656479, -0.07883130759000778, 0.07935510575771332, 0.17679330706596375, 0.17762461304664612, 0.27448976039886475, -0.027938177809119225, -0.15507037937641144, 0.42250603437423706, 0.20257945358753204, 0.4036015272140503, 0.02025745064020157, 0.1439412236213684], [-0.18803606927394867, 0.2054060995578766, -0.15103258192539215, -0.18141022324562073, 0.23058077692985535, -0.08734653890132904, -0.35293298959732056, 0.3469477593898773, 0.005939895752817392, 0.06291521340608597, 0.4022528827190399, -0.3813108503818512, 0.049010973423719406, 0.21303461492061615, 0.14664408564567566, -0.27582067251205444, 0.18048587441444397, -0.14709752798080444, -0.053407084196805954, 0.03308432921767235, -0.03688592463731766, 0.033162206411361694, 0.011091443710029125, -0.2456284761428833, -0.059469763189554214, -0.07567711174488068, -0.23794597387313843, -0.003324934048578143, -0.07337196916341782, 0.21774423122406006, -0.18314743041992188, -0.18291443586349487, 0.20469044148921967, -0.3867744505405426], [-0.13020168244838715, -0.08325626701116562, 0.02857831120491028, -0.07698320597410202, 0.001325220800936222, 0.4702388346195221, 0.0790761411190033, -0.14959754049777985, 0.2544252574443817, 0.30005937814712524, 0.04216412454843521, -0.007949067279696465, -0.006491152103990316, -0.017128873616456985, 0.2674970328807831, 0.26397904753685, -0.02393420599400997, -0.42512285709381104, 0.3126224875450134, -0.28705033659935, 0.10633830726146698, -0.19097861647605896, 0.3111798167228699, -0.4197998344898224, 0.0892365500330925, -0.17428065836429596, 0.249103844165802, -0.07337182760238647, 0.05662115290760994, -0.5365575551986694, -0.09203943610191345, 0.07880935817956924, -0.10816248506307602, 0.10082633793354034], [-0.1822471171617508, 0.2358093410730362, 0.40206611156463623, 0.11139815300703049, 0.03262466564774513, 0.036127179861068726, -0.053933460265398026, 0.17992670834064484, -0.307928204536438, -0.15922941267490387, -0.11104162782430649, 0.19812963902950287, -0.1386190801858902, 0.11984728276729584, -0.0641263872385025, -0.16305981576442719, 0.3425446152687073, -0.11489668488502502, -0.1928039938211441, -0.16044478118419647, -0.06025488302111626, -0.38069242238998413, -0.32471975684165955, 0.05705121159553528, -0.04433600604534149, 0.37025487422943115, 0.16165079176425934, -0.4660503566265106, -0.056963514536619186, -0.2624366879463196, -0.032389622181653976, -0.1897151619195938, -0.38673922419548035, -0.04298178106546402], [-0.06277669221162796, -0.017636680975556374, 0.06597288697957993, -0.07407375425100327, -0.46273571252822876, 0.08243653923273087, 0.21266120672225952, 0.015466943383216858, -0.14459434151649475, 0.27049872279167175, -0.3721010386943817, -0.20381203293800354, 0.3319650888442993, -0.3269578516483307, -0.21430687606334686, -0.23133665323257446, -0.06124955788254738, 0.37506425380706787, -0.4700484275817871, 0.00448586605489254, -0.041649024933576584, -0.3443779945373535, 0.15245500206947327, -0.15819887816905975, 0.08581745624542236, -0.35284438729286194, -0.2554223835468292, 0.0646970197558403, 0.1502603441476822, 0.11551571637392044, 0.048447135835886, 0.3768298625946045, 0.09686896950006485, -0.003942124545574188], [0.2417510747909546, 0.13929806649684906, 0.04300303012132645, -0.22432677447795868, -0.3090125620365143, 0.2508987784385681, -0.053684577345848083, -0.28803399205207825, -0.31553536653518677, -0.514797568321228, 0.11990819871425629, 0.2312910556793213, -0.07287386804819107, -0.34631145000457764, 0.14588168263435364, -0.15555745363235474, -0.14337751269340515, 0.05428965017199516, -0.03550655394792557, 0.04418765753507614, 0.2945645749568939, -0.4002071022987366, 0.12002722918987274, 0.02202676609158516, -0.03395988047122955, 0.15772034227848053, 0.29026710987091064, 0.2846093773841858, -0.20605973899364471, -0.051802657544612885, -0.3120045065879822, 0.25312158465385437, -0.07704570889472961, 0.5393998622894287], [0.20606423914432526, -0.4562859833240509, -0.497453898191452, -0.19951725006103516, 0.13052339851856232, 0.017787354066967964, 0.20030993223190308, 0.1888805627822876, -0.048645198345184326, 0.32608267664909363, 0.30860528349876404, -0.24776573479175568, -0.0907188430428505, 0.03471996262669563, -0.2536938190460205, 0.02226101979613304, -0.40319594740867615, -0.2419152855873108, -0.12671439349651337, 0.0910317450761795, 0.13191522657871246, -0.1387387067079544, -0.3246464133262634, 0.4698069393634796, 0.16050304472446442, -0.2851017415523529, -0.03461434319615364, -0.26502588391304016, 0.08626127988100052, -0.1578407883644104, -0.09650777280330658, 0.09504683315753937, 0.15599817037582397, -0.35533756017684937], [-0.23926009237766266, -0.8128602504730225, -0.26157256960868835, 0.19215156137943268, -0.09296710044145584, -0.24326813220977783, 0.3837394118309021, -0.27803972363471985, 0.031102430075407028, -0.3660396337509155, -0.13887271285057068, 0.1763797402381897, -0.6090701818466187, -0.09985048323869705, 0.05645344778895378, -0.12223999947309494, -0.45783910155296326, -0.317562073469162, -0.15588171780109406, -0.04360631853342056, 0.060572344809770584, 0.036550700664520264, -0.1988150030374527, 0.049622368067502975, -0.25425925850868225, 0.1092083677649498, 0.2076416164636612, -0.32221168279647827, 0.07619757950305939, 0.18760612607002258, -0.4716998040676117, -0.29193076491355896, -0.06902515143156052, 0.09893521666526794], [-0.021437807008624077, -0.019475160166621208, 0.14710617065429688, 0.12536484003067017, 0.36880436539649963, -0.08268637955188751, 0.2170216590166092, -0.34019818902015686, -0.19574208557605743, 0.2846999764442444, 0.6498337388038635, -0.12763440608978271, -0.34781163930892944, 0.2888365089893341, 0.09951842576265335, 0.0218151044100523, -0.033226530998945236, -0.10589420795440674, -0.11271540820598602, -0.07305609434843063, 0.0027906105387955904, -0.6181541681289673, -0.46571415662765503, -0.5567150115966797, -0.1882617175579071, 0.39509645104408264, 0.4153226912021637, -0.3791254162788391, -0.1217556893825531, 0.13238666951656342, -0.14478284120559692, -0.2978913187980652, -0.13463005423545837, 0.2620979845523834], [-0.31000396609306335, 0.20973406732082367, 0.03174595162272453, -0.20573125779628754, -0.2830398678779602, 0.0366840697824955, 0.27306556701660156, 0.3534587025642395, 0.13542556762695312, -0.0020178083796054125, 0.34749892354011536, 0.5408668518066406, 0.16564109921455383, 0.3172127604484558, -0.24910596013069153, 0.061975788325071335, 0.23666144907474518, 0.2825464606285095, -0.011105099692940712, 0.31571900844573975, -0.10726424306631088, -0.08633992075920105, -0.5641615986824036, 0.36275532841682434, 0.029747746884822845, -0.023848557844758034, -0.024896424263715744, 0.6027725338935852, -0.38639047741889954, 0.10103726387023926, -0.11456940323114395, -0.23120275139808655, -0.4093285799026489, 0.18792547285556793], [0.17660900950431824, 0.15372052788734436, 0.24366889894008636, 0.04233847185969353, -0.029287371784448624, 0.35698312520980835, 0.1472470909357071, 0.016972960904240608, 0.48888111114501953, 0.43714550137519836, 0.19274701178073883, -0.22529001533985138, 0.23788970708847046, 0.08543968945741653, -0.1233752891421318, -0.02527296543121338, -0.07190240919589996, 0.19347642362117767, 0.06954599171876907, 0.21809881925582886, 0.30269622802734375, -0.129967600107193, -0.010927833616733551, 0.3864428699016571, 0.18632706999778748, 0.17571237683296204, -0.09627800434827805, 0.25106126070022583, 0.22233322262763977, 0.4194107949733734, 0.470989465713501, -0.2236316204071045, 0.610678493976593, 0.24627730250358582], [-0.10675445944070816, 0.12184714525938034, -0.1060396358370781, 0.5011430978775024, 0.023415319621562958, 0.11966372281312943, -0.23708592355251312, 0.557091236114502, -0.09575655311346054, 0.09160444140434265, 0.031841080635786057, 0.15246817469596863, -0.40997475385665894, -0.005697872489690781, 0.34691426157951355, -0.04534360021352768, 0.20651482045650482, -0.20172816514968872, -0.16316454112529755, -0.5106260776519775, -0.2299378216266632, 0.09610036015510559, 0.1056433767080307, -0.1059449315071106, 0.026318315416574478, -0.08457653969526291, 0.04308705031871796, -0.24408100545406342, -0.07997053116559982, -0.40747708082199097, 0.25956887006759644, -0.08546712249517441, -0.3287580609321594, -0.007173712830990553], [0.20841874182224274, 0.15374569594860077, -0.09172066301107407, -0.037238720804452896, -0.029371710494160652, -0.1257297694683075, 0.009089318104088306, 0.20911206305027008, -0.1871260106563568, -0.27245914936065674, -0.3730364143848419, -0.023713823407888412, -0.160755917429924, 0.197041854262352, 0.360795795917511, 0.03171185031533241, -0.2049786001443863, -0.44302186369895935, 0.13755102455615997, 0.370734840631485, -0.09586083889007568, -0.014044028706848621, 0.22133606672286987, 0.35025379061698914, -0.05119989067316055, 0.20928335189819336, -0.4045833945274353, 0.09333283454179764, -0.0838165134191513, 0.02459811419248581, 0.04290771484375, -0.19001862406730652, 0.5436873435974121, 0.43852126598358154], [-0.013935587368905544, -0.11905764788389206, -0.03903871029615402, 0.4250963628292084, 0.10172104090452194, -0.36420509219169617, 0.2840500771999359, -0.3048613369464874, -0.5285120010375977, 0.4952494204044342, -0.1065736636519432, -0.023081043735146523, 0.25348496437072754, 0.020802220329642296, 0.36772048473358154, 0.1514381319284439, -0.46745672821998596, 0.36158281564712524, 0.10915184020996094, -0.10162504762411118, 0.2377314269542694, -0.10239233821630478, -0.07447537034749985, 0.1033574640750885, 0.5470924377441406, 0.05252852663397789, -0.27138248085975647, -0.21304519474506378, -0.0853557214140892, -0.1160777285695076, -0.2088737040758133, 0.23555628955364227, 0.1351679414510727, 0.21729739010334015], [-0.0002126504114130512, -0.22916705906391144, 0.38716956973075867, -0.07555711269378662, 0.22872716188430786, 0.0233596358448267, 0.18768064677715302, 0.06707064062356949, -0.16559866070747375, 0.07480712234973907, 0.12963421642780304, -0.04323849454522133, 0.0877978578209877, 0.20082634687423706, -0.19418947398662567, -0.45337119698524475, -0.09026100486516953, -0.17345507442951202, -0.30986133217811584, 0.5006433129310608, 0.05877095088362694, -0.26828184723854065, 0.2156694233417511, 0.23988847434520721, -0.04777846857905388, 0.35661444067955017, -0.20466655492782593, 0.03128461912274361, 0.06656519323587418, -0.06498465687036514, -0.10916963219642639, -0.32922786474227905, -0.3484092652797699, 0.10015860944986343], [0.08222824335098267, 0.1410413384437561, -0.18528307974338531, 0.263845294713974, 0.07522899657487869, 0.10062457621097565, 0.3060605227947235, -0.4955068826675415, 0.1383199542760849, -0.3352368474006653, 0.001496381708420813, -0.38585376739501953, -0.09357870370149612, 0.2216828465461731, -0.187700092792511, -0.4118092954158783, 0.10098253190517426, 0.14213573932647705, -0.03213391453027725, 0.025605419650673866, 0.20165742933750153, -0.05989924073219299, 0.201688751578331, 0.16087619960308075, 0.22847482562065125, -0.07898211479187012, 0.1709616631269455, 0.08308618515729904, 0.05996166169643402, 0.34353867173194885, 0.0564822219312191, -0.12088491767644882, -0.2088700830936432, 0.22994117438793182], [-0.15436798334121704, 0.258955180644989, -0.11095353960990906, -0.5382148027420044, -0.21973827481269836, 0.17278549075126648, -0.10211775451898575, 0.46695977449417114, 0.4184017479419708, 0.15736445784568787, -0.034504588693380356, -0.3253405690193176, 0.021979469805955887, 0.1398644745349884, 0.3807094991207123, 0.24222543835639954, -0.26782673597335815, -0.1460489183664322, 0.17272187769412994, 0.22693359851837158, -0.06774018704891205, -0.015314212068915367, 0.3894672691822052, -0.08778277784585953, -0.05801878124475479, 0.3133516311645508, 0.33350831270217896, 0.03682556748390198, 0.012755423784255981, -0.09292728453874588, -0.2808115780353546, 0.5070715546607971, -0.280604749917984, 0.11054135859012604], [-0.07581736892461777, -0.1602502465248108, 0.14422044157981873, -0.24691659212112427, 0.35096389055252075, -0.20687086880207062, -0.08909681439399719, -0.08563566952943802, 0.14730112254619598, -0.03517412394285202, 0.013061278499662876, -0.29444584250450134, 0.22317242622375488, -0.18719883263111115, -0.03973574936389923, 0.19268184900283813, -0.06120559573173523, -0.15667954087257385, 0.14841271936893463, 0.09371689707040787, -0.10236810147762299, 0.1428549736738205, -0.10298869758844376, 0.11714750528335571, -0.06107204034924507, -0.32773399353027344, 0.12533660233020782, 0.5237447619438171, 0.21745611727237701, 0.601601243019104, -0.17462126910686493, 0.2175758183002472, 0.16266697645187378, 0.20229151844978333], [0.16818757355213165, 0.24619480967521667, -0.5639975666999817, 0.2501888573169708, -0.18660561740398407, -0.054475732147693634, 0.29024073481559753, -0.08772910386323929, 0.3149887025356293, 0.20123997330665588, -0.17172390222549438, -0.5281524062156677, -0.13562603294849396, -0.10262524336576462, 0.025209253653883934, 0.3306311070919037, 0.1340479850769043, -0.36743420362472534, -0.3336637616157532, 0.12293721735477448, 0.2661789059638977, 0.5370519757270813, -0.4806564450263977, 0.01113412156701088, -0.01587657816708088, 0.19720414280891418, 0.24785085022449493, 0.30285993218421936, 0.03887461870908737, 0.0297374464571476, -0.3197341561317444, 0.6324782371520996, -0.011241012252867222, 0.34467586874961853], [0.11327007412910461, 0.09917342662811279, 0.012467301450669765, 0.15155349671840668, -0.45585086941719055, 0.19059807062149048, 0.14482876658439636, 0.16432823240756989, 0.021192630752921104, -0.3399864435195923, -0.4756038188934326, -0.7225331664085388, -0.06807143986225128, 0.1933995634317398, -0.5867567658424377, -0.2609904408454895, -0.17782138288021088, 0.13397245109081268, -0.20241975784301758, -0.10225851833820343, 0.1765567660331726, -0.2269304394721985, -0.3412646949291229, 0.2639501690864563, 0.012242473661899567, -0.02908826246857643, -0.19500598311424255, -0.013243944384157658, -0.21535199880599976, -0.15219633281230927, 0.012764991261065006, -0.19177298247814178, -0.1509578973054886, -0.0750090554356575], [0.03311825171113014, -0.2894071936607361, 0.3026978075504303, 0.5409530997276306, 0.32842519879341125, -0.016434794291853905, -0.37988755106925964, -0.10461384803056717, 0.4791555404663086, 0.16049280762672424, -0.1194956973195076, 0.20678626000881195, -0.23082995414733887, -0.12594252824783325, -0.03753463923931122, 0.09176553785800934, 0.2993693947792053, -0.18021833896636963, -0.060496989637613297, -0.04488660767674446, 0.586507260799408, 0.4717375934123993, 0.04124022647738457, 0.0250270776450634, -0.17387613654136658, -0.6235755681991577, 0.2427961379289627, 0.1242339015007019, -0.03090682253241539, -0.2115107625722885, -0.2605453431606293, 0.010647598654031754, -0.2958102524280548, 0.524025022983551], [-0.06485898047685623, -0.0685255378484726, 0.1339094042778015, -0.16874410212039948, 0.300284743309021, 0.26562070846557617, -0.021646568551659584, 0.16153676807880402, 0.17455163598060608, -0.45608916878700256, 0.005470100790262222, 0.04732929915189743, -0.16814351081848145, -0.09194325655698776, -0.26058417558670044, 0.1912015825510025, -0.17361143231391907, 0.3219985365867615, -0.16364853084087372, 0.2738123834133148, 0.3533962070941925, 0.3180046081542969, 0.09618373960256577, -0.24200080335140228, 0.12011221051216125, -0.18396158516407013, -0.0973425954580307, -0.30439049005508423, -0.04001295939087868, 0.33179470896720886, -0.04193362593650818, 0.06142709404230118, -0.2961903512477875, -0.4791227877140045], [0.39702796936035156, 0.0585545115172863, 0.2312193065881729, -0.5222994089126587, -0.12229558825492859, 0.2554473578929901, 0.4164116382598877, -0.05872625112533569, 0.08767430484294891, -0.3681507110595703, -0.036600518971681595, 0.08802244067192078, 0.10279028862714767, 0.1700969636440277, 0.36608245968818665, -0.2967514395713806, -0.02059352397918701, -0.40599268674850464, -0.21751971542835236, 0.004792835563421249, -0.248847097158432, 0.14873839914798737, 0.10559485852718353, 0.10052356123924255, -0.26723381876945496, -0.37946975231170654, -0.18085554242134094, 0.18802158534526825, 0.1579071283340454, -0.005859822500497103, 0.09918398410081863, -0.2463727742433548, -0.148481085896492, 0.18913458287715912]], [[-0.08460955321788788, -0.2479454129934311, -0.36133167147636414, 0.11945527791976929, 0.3536447286605835, 0.07968661189079285, -0.010987991467118263, 0.17357401549816132, 0.40046435594558716, -0.21035517752170563, -0.05262012407183647, 0.11394862830638885, -0.1675054132938385, 0.2880331575870514, 0.10238664597272873, 0.343073308467865, 0.44675666093826294, -0.15217804908752441, 0.3567315340042114, -0.45259609818458557, 0.1500348448753357, 0.15855073928833008, -0.12347394973039627, 0.17374584078788757, -0.19260071218013763, 0.6900718212127686, -0.07380887120962143, 0.6333346962928772, -0.009017535485327244, 0.47888943552970886, -0.2637878656387329, 0.11190816015005112], [-0.019083844497799873, -0.17628970742225647, -0.012022987939417362, 0.03192094340920448, 0.03135018050670624, -0.02472522296011448, 0.22834917902946472, 0.29062211513519287, -0.08147038519382477, 0.6133454442024231, 0.06055457517504692, -0.1267119199037552, -0.18707197904586792, -0.3544754683971405, -0.2007502317428589, 0.08094444870948792, -0.17612573504447937, -0.16512741148471832, -0.21418249607086182, -0.14902399480342865, 0.3615090548992157, -0.05517828091979027, -0.19409465789794922, 0.01806093193590641, -0.17671449482440948, -0.08185892552137375, 0.0021976809948682785, -0.13124920427799225, -0.2334081083536148, 0.13991987705230713, 0.3752976953983307, -0.2029486447572708], [0.010020924732089043, -0.3354380130767822, -0.04384950175881386, -0.10525831580162048, -0.3133389949798584, 0.06298233568668365, 0.1154223307967186, 0.3169909119606018, 0.3067638576030731, 0.4351765811443329, 0.07527418434619904, 0.7457528710365295, 0.19299159944057465, 0.11225677281618118, 0.3915608823299408, 0.49877628684043884, -0.031990207731723785, 0.07225318998098373, -0.06391813606023788, -0.39036402106285095, 0.3706761300563812, 0.31590035557746887, 0.1784375011920929, 0.5113040804862976, 0.2553126811981201, 0.6866830587387085, -0.05841957777738571, 0.44019177556037903, 0.0849224403500557, 0.3252527713775635, 0.1559436321258545, -0.2611928880214691], [0.07490518689155579, 0.13541224598884583, -0.05521085858345032, -0.016051987186074257, -0.2078668773174286, -0.15632449090480804, 0.3581330478191376, 0.39323341846466064, -0.5213964581489563, 0.10459280014038086, -0.3021475374698639, -0.15699473023414612, 0.5957027673721313, 0.13774415850639343, 0.041294798254966736, 0.3097209632396698, -0.06514088064432144, -0.18705104291439056, -0.06472781300544739, -0.14233027398586273, -0.16756665706634521, -0.3435879051685333, -0.006745967082679272, 0.17848306894302368, 0.1549205482006073, -0.25887787342071533, -0.002614253666251898, 0.20440249145030975, 0.14364588260650635, 0.5406081676483154, -0.06895803660154343, 0.13661129772663116], [-0.36321815848350525, 0.11385726183652878, 0.04184046387672424, 0.02796342223882675, -0.42461076378822327, 0.17954064905643463, 0.27920451760292053, -0.011631492525339127, 0.5134733319282532, -0.1480381190776825, 0.2805040776729584, 0.18368209898471832, -0.2893052101135254, 0.13999563455581665, 0.23384083807468414, 0.4235355257987976, 0.17172639071941376, 0.09900589287281036, -0.21320851147174835, -0.018493356183171272, 0.4075702130794525, -0.38053908944129944, 0.05605005472898483, -0.0229890625923872, 0.17938952147960663, -0.20087318122386932, -0.503650426864624, 0.07085520774126053, 0.44642558693885803, -0.49802613258361816, -0.03655240684747696, -0.5833520293235779], [-0.2234838604927063, -0.06442335247993469, 0.06632454693317413, -0.267586350440979, 0.11133386939764023, 0.0012864117743447423, -0.1976025551557541, 0.2383503019809723, -0.05322897061705589, -0.2173670083284378, 0.4683935046195984, -0.008591417223215103, -0.07848897576332092, -0.05079250410199165, -0.15654076635837555, 0.18515963852405548, 0.39573898911476135, -0.6019386053085327, -0.071007139980793, -0.35177886486053467, 0.4930267930030823, 0.11902609467506409, 0.11286738514900208, 0.06339860707521439, 0.40830954909324646, 0.27507105469703674, -0.162795290350914, -0.019668828696012497, 0.14469794929027557, -0.2428237944841385, -0.35206642746925354, 0.015493998304009438], [0.0155442263931036, 0.03755289688706398, -0.05682724341750145, 0.3209238350391388, 0.05250478908419609, 0.07579129934310913, -0.1985892802476883, 0.3183148503303528, 0.05588965862989426, -0.3430693745613098, 0.33448293805122375, -0.1216905489563942, -0.33198946714401245, -0.4172614812850952, 0.1952863335609436, 0.004704388789832592, 0.09588727355003357, -0.3233485221862793, 0.2814927399158478, 0.20120376348495483, 0.09902331233024597, 0.19591622054576874, 0.03719090297818184, 0.20391115546226501, 0.3473309874534607, 0.13268548250198364, 0.09674765914678574, -0.1965397298336029, -0.08802379667758942, 0.16049757599830627, -0.07470085471868515, 0.08872561156749725], [-0.33453595638275146, 0.2623516321182251, 0.3185676634311676, 0.22790999710559845, 0.04867380112409592, -0.03216350078582764, -0.08128135651350021, 0.014554263092577457, -0.09362092614173889, -0.2534221112728119, 0.2273133099079132, 0.12807360291481018, -0.12221881002187729, -0.017138971015810966, 0.19347919523715973, 0.39300569891929626, 0.13770930469036102, -0.31720468401908875, -0.17988131940364838, -0.12874926626682281, -0.3684089481830597, 0.02821376919746399, -0.012265750207006931, 0.2516770660877228, -0.2940937876701355, -0.22918297350406647, 0.0006455063121393323, 0.13929148018360138, 0.20703566074371338, -0.3347504436969757, 0.12548765540122986, -0.24680165946483612], [-0.05734992399811745, -0.272066205739975, -0.06432096660137177, 0.01413468923419714, 0.26437655091285706, -0.14658896625041962, -0.1713680773973465, 0.3108396530151367, 0.001744545646943152, -0.5795854330062866, 0.049737025052309036, 0.036370083689689636, 0.41638296842575073, 0.031700655817985535, -0.28180843591690063, -0.08932947367429733, 0.3010604977607727, 0.13429372012615204, -0.053274426609277725, -0.489231139421463, 0.08197180181741714, -0.24349084496498108, 0.26203304529190063, 0.3283403217792511, 0.3481174409389496, 0.05311606451869011, -0.21365395188331604, 0.10385816544294357, 0.544196605682373, 0.08007076382637024, 0.08688488602638245, 0.1787407398223877], [0.05349954962730408, -0.02235497161746025, -0.017556942999362946, 0.23549020290374756, 0.3616306483745575, 0.18928655982017517, -0.4052264392375946, 0.20391112565994263, 0.045653872191905975, -0.3094598948955536, 0.36179813742637634, 0.12864530086517334, -0.25104114413261414, -0.4296344518661499, -0.00400899862870574, -0.3433694839477539, 0.21982458233833313, 0.03839204087853432, 0.23774626851081848, 0.27255913615226746, -0.05389324203133583, -0.15835069119930267, 0.3143479526042938, 0.09280712157487869, 0.17485587298870087, 0.23611335456371307, 0.3177132308483124, 0.2009640634059906, 0.2014017403125763, 0.6475937962532043, -0.31807807087898254, -0.0785355195403099], [0.021092168986797333, 0.01828351803123951, 0.14629673957824707, 0.2656306028366089, 0.30164551734924316, 0.5708684921264648, -0.4781305193901062, 0.17607440054416656, -0.021315274760127068, 0.5055142045021057, -0.3766348659992218, 0.2988262474536896, 0.16424472630023956, -0.41450953483581543, -0.05791822820901871, -0.13063263893127441, -0.3531315326690674, 0.2815825641155243, -0.20516183972358704, 0.2299783080816269, 0.0060899765230715275, -0.3053118884563446, 0.5955700278282166, 0.057058513164520264, -0.1651720255613327, 0.16069868206977844, 0.1411801427602768, 0.12755686044692993, -0.3775191605091095, 0.6176648139953613, 0.0618002712726593, 0.2250034064054489], [0.10780928283929825, 0.041164904832839966, -0.0684332624077797, 0.05826353281736374, -0.009679933078587055, -0.07050484418869019, -0.16481994092464447, 0.15846338868141174, -0.19017992913722992, -0.11930236220359802, -0.11760050803422928, 0.07132254540920258, 0.21317483484745026, 0.31417611241340637, -0.0869208574295044, -0.6646637916564941, 0.11703594028949738, -0.3297080993652344, 0.2787361145019531, 0.01653180457651615, -0.2881084084510803, -0.14171844720840454, -0.2754925787448883, 0.062205150723457336, -0.014620263129472733, -0.11016087979078293, -0.2575323283672333, 0.041092947125434875, -0.3274571895599365, -0.03126632422208786, 0.17088524997234344, -0.09001658856868744], [0.030505556613206863, 0.08414610475301743, 0.2152465581893921, -0.11866240948438644, 0.0281266737729311, 0.2986750304698944, 0.09301269054412842, -0.3191162049770355, 0.022192908450961113, -0.1336790770292282, 0.3256808817386627, 0.059359095990657806, -0.289159893989563, -0.14695443212985992, -0.2157735973596573, 0.0159472543746233, 0.026645470410585403, -0.37183019518852234, -0.029102617874741554, -0.053420159965753555, 0.0030399004463106394, -0.04470675811171532, -0.34524911642074585, 0.64510178565979, -0.09114458411931992, 0.042228829115629196, 0.015221834182739258, -0.24963924288749695, -0.3216104805469513, -0.01239771768450737, 0.16469351947307587, -0.03827463462948799], [-0.13978654146194458, -0.17879033088684082, 0.06312020123004913, 0.23681001365184784, -0.540254533290863, 0.07898499816656113, -0.1846773773431778, 0.004439189564436674, 0.09163195639848709, 0.21880897879600525, -0.21721991896629333, 0.23905418813228607, -0.401567667722702, -0.1406915932893753, -0.24732621014118195, -0.07820437103509903, -0.13876940310001373, 0.09568256884813309, -0.30201196670532227, -0.3163488507270813, 0.06793789565563202, 0.03455980867147446, 0.246365487575531, -0.5571386218070984, -0.11421608924865723, 0.02222543954849243, 0.12584148347377777, -0.14745889604091644, 0.2204693853855133, 0.24000395834445953, 0.012037371285259724, 0.10770056396722794], [0.19182106852531433, 0.08674388378858566, -0.4388940632343292, 0.5045974254608154, 0.42953288555145264, -0.30315929651260376, -0.1655026227235794, 0.058659814298152924, -0.08877557516098022, 0.20777957141399384, -0.18504615128040314, -0.2530129849910736, 0.479999303817749, -0.0619310662150383, 0.12447404861450195, -0.4667356610298157, 0.5486040711402893, 0.1920032948255539, 0.41976091265678406, 0.37384089827537537, 0.15921613574028015, -0.06093401461839676, 0.14545123279094696, -0.23953545093536377, 0.24842458963394165, -0.08721323311328888, -0.20471099019050598, 0.005238204728811979, 0.21045838296413422, -0.17987488210201263, -0.12167680263519287, -0.026520639657974243], [-0.13978703320026398, 0.13127726316452026, -0.18874645233154297, -0.17792905867099762, 0.2046370804309845, -0.4617651402950287, -0.2745513916015625, 0.12741734087467194, 0.17916527390480042, 0.2247156798839569, -0.20344431698322296, -0.2570391595363617, -0.23209254443645477, -0.16569578647613525, -0.023989850655198097, -0.12492270767688751, 0.6347137093544006, 0.1610303372144699, 0.2647934556007385, 0.004140174947679043, 0.07041817903518677, -0.07677361369132996, -0.02366209216415882, 0.1295509785413742, -0.2930288016796112, -0.08588802069425583, 0.13976626098155975, -0.14723320305347443, -0.39208778738975525, 0.1238064244389534, 0.3860102593898773, -0.2938099801540375], [0.0267267357558012, 0.28790751099586487, 0.1269158124923706, 0.020327409729361534, 0.15439580380916595, -0.07246175408363342, 0.45014819502830505, -0.1922958940267563, -0.1171872615814209, 0.0026072508189827204, -0.013907479122281075, 0.240427166223526, 0.42000284790992737, -0.10987142473459244, 0.6179056167602539, -0.03568427264690399, 0.3836410641670227, 0.1580708920955658, -0.22297103703022003, -0.36734211444854736, -0.40110597014427185, 0.6570366621017456, 0.11112436652183533, 0.02865605801343918, -0.1111314594745636, -0.23199497163295746, 0.3356950581073761, 0.12686944007873535, 0.3338831663131714, -0.13824409246444702, 0.15924085676670074, 0.1507728099822998], [-0.32469987869262695, 0.08735255897045135, 0.21463412046432495, -0.0664311945438385, -0.23093736171722412, 0.26674532890319824, 0.007474514190107584, -0.16616027057170868, -0.05802244320511818, 0.016470912843942642, -0.009746448136866093, 0.0022814441472291946, -0.4152566194534302, 0.09983029961585999, -0.4224134087562561, -0.0914749726653099, -0.1907218098640442, 0.2077452540397644, -0.17947012186050415, -0.0024020185228437185, -0.119737409055233, -0.050601959228515625, -0.0355621874332428, -0.085181325674057, -0.08673901855945587, -0.059717513620853424, -0.09965057671070099, -0.6689983606338501, 0.13346606492996216, -0.3119812607765198, 0.22484628856182098, -0.19901075959205627], [-0.02662017196416855, -0.09955485165119171, 0.13347432017326355, 0.050867386162281036, -0.21603097021579742, -0.12405245751142502, -0.29439887404441833, -0.041665710508823395, 0.005327858030796051, -0.22180111706256866, -0.030225703492760658, -0.19548234343528748, 0.23955310881137848, -0.06762871146202087, 0.2839861810207367, 0.09534800052642822, -0.05030243471264839, 0.03180018812417984, 0.27428358793258667, -0.1456182897090912, -0.16990122199058533, -0.23690612614154816, 0.30126717686653137, -0.106855109333992, -0.18749310076236725, 0.021278850734233856, 0.3032873570919037, 0.15979638695716858, 0.6630005240440369, -0.31578734517097473, -0.019791949540376663, -0.3033643662929535], [-0.042707428336143494, -0.08079596608877182, 0.1566697359085083, 0.23635748028755188, -0.17562974989414215, 0.28960952162742615, 0.04395806044340134, -0.059786636382341385, 0.04443714767694473, -0.24264134466648102, -0.05990084633231163, -0.10703378915786743, -0.09907367080450058, 0.13417263329029083, 0.012445855885744095, 0.20391781628131866, -0.14018382132053375, 0.12491725385189056, 0.008280563168227673, 0.1137317642569542, -0.14302213490009308, 0.1634788066148758, -0.14868846535682678, 0.40626442432403564, 0.06992941349744797, 0.0493219755589962, -0.011080587282776833, -0.3801605701446533, 0.23675334453582764, -0.2413061559200287, -0.13834524154663086, -0.3092193305492401], [-0.013055269606411457, 0.18506914377212524, -0.1286950409412384, 0.26719990372657776, 0.4025415778160095, 0.21089662611484528, -0.013361454010009766, -0.04448302090167999, 0.2708529829978943, 0.15805299580097198, -0.029646610841155052, 0.031597040593624115, 0.29818663001060486, 0.05125310644507408, -0.08594290912151337, -0.13667510449886322, 0.27900978922843933, 0.41382086277008057, 0.14724799990653992, -0.07934628427028656, -0.14270393550395966, 0.24681590497493744, 0.39875921607017517, -0.13616721332073212, 0.007845425978302956, 0.4653797447681427, 0.5959053635597229, 0.5733532309532166, -0.2610807716846466, 0.08521289378404617, -0.11587940156459808, -0.03750470280647278], [0.29203903675079346, -0.2492215931415558, -0.1508307009935379, 0.27958419919013977, 0.009387596510350704, 0.3014143705368042, -0.2542193531990051, -0.5347265601158142, -0.3357454240322113, 0.1965712010860443, 0.09932798147201538, -0.08337119221687317, -0.34635576605796814, 0.3482920527458191, 0.026277417317032814, -0.16931475698947906, 0.07891007512807846, -0.08889518678188324, -0.7809438705444336, -0.12490136921405792, -0.4744766056537628, 0.3174082338809967, 0.06808724999427795, -0.3412695527076721, -0.32438185811042786, 0.3463813364505768, -0.34890809655189514, 0.8550106287002563, -0.06571432203054428, -0.009913885034620762, -0.09430646151304245, 0.266663521528244], [-0.22751030325889587, 0.11725074797868729, 0.21500860154628754, 0.4778953492641449, 0.18675410747528076, -0.03440267592668533, -0.10495102405548096, 0.40106186270713806, 0.17504063248634338, -0.3022472858428955, 0.3151145279407501, 0.13049209117889404, -0.25246956944465637, 0.2999667227268219, -0.24379242956638336, -0.2923515737056732, -0.1549021303653717, 0.02777172438800335, -0.32103627920150757, -0.3785690665245056, 0.46637943387031555, 0.03468907251954079, 0.011762786656618118, 0.016440417617559433, -0.021828560158610344, -0.0627642273902893, -0.10933679342269897, -0.29325583577156067, -0.19326899945735931, -0.1288485825061798, -0.30967235565185547, 0.08267495036125183], [-0.020294439047574997, 0.09772525727748871, 0.07018812000751495, -0.3196706175804138, 0.1291089802980423, 0.029606783762574196, -0.44178950786590576, -0.1156238541007042, -0.4125364422798157, 0.24050606787204742, -0.24647516012191772, -0.18019478023052216, -0.4405394196510315, -0.44062453508377075, 0.29075315594673157, -0.31335213780403137, -0.06139415130019188, -0.0284868273884058, -0.13459745049476624, 0.07353214174509048, -0.3218994736671448, -0.19835001230239868, 0.11943025141954422, 0.23284050822257996, -0.5212735533714294, -0.22581066191196442, -0.26410266757011414, 0.17258940637111664, -0.3336677849292755, -0.0475747212767601, 0.11603681743144989, -0.2366359978914261]], [[0.7630748748779297, -0.2333332896232605, 0.4334595203399658, 0.09223636984825134, -0.25633856654167175, 0.274579256772995, -0.16249114274978638, -0.4112013578414917, 0.046473320573568344, 0.42868754267692566, 0.41905322670936584, -0.39244070649147034, 0.23506326973438263, 0.2671526372432709, -0.09561201184988022, -0.08653593808412552, 0.0915207639336586, 0.7893136143684387, 0.04142480343580246, -0.423614501953125, 0.5403388738632202, -0.06304473429918289, 0.46863892674446106, 0.12380590289831161], [0.7162116169929504, -0.5066671371459961, 0.49629098176956177, 0.01675400696694851, 0.2874876856803894, -0.3029839098453522, 0.10532166063785553, 0.009682482108473778, -0.32348379492759705, 0.39504361152648926, 0.5174773335456848, 0.4567921757698059, -0.28382909297943115, 0.32129180431365967, -0.12251085788011551, -0.05756455659866333, 0.1424923539161682, -0.1719851940870285, -0.5392356514930725, 0.11982101202011108, 0.4018450081348419, 0.06915571540594101, -0.09827077388763428, -0.0286199189722538]]], "biases": [[-0.009082223288714886, -0.09642652422189713, -0.06315259635448456, 0.09467436373233795, 0.13603009283542633, 0.12774792313575745, -0.19413167238235474, 0.047370992600917816, 0.07654167711734772, 0.05299482122063637, -0.024342862889170647, 0.27056339383125305, -0.024371467530727386, -0.14065520465373993, -0.012453095056116581, -0.010333765298128128, -0.007829715497791767, 0.07344091683626175, -0.005055438261479139, 0.18048296868801117, 0.022348709404468536, -0.06242119148373604, 0.11179162561893463, 0.03376863896846771, -0.048009488731622696, 0.25410524010658264, 0.2614312469959259, 0.2266654372215271, -0.01221485622227192, 0.504260241985321, -0.05956725776195526, 0.006464434787631035], [0.31132936477661133, -0.05060947313904762, 0.1261519491672516, 0.0036909012123942375, -0.0259244441986084, -0.033138588070869446, -0.040832772850990295, -0.03590473160147667, -0.11275885999202728, 0.2888037860393524, 0.31941497325897217, -0.09468916058540344, 0.012087628245353699, 0.05132272467017174, -0.06734709441661835, -0.040724486112594604, 0.01962597854435444, 0.002371198730543256, -0.1257537305355072, -0.029223259538412094, 0.18398362398147583, -0.061842404305934906, 0.06679058820009232, -0.005851512309163809], [0.5056601166725159, 0.2356460988521576]]}, "epsilon": 0.04999916370086185, "steps": 102169, "total_collisions": 1352}