{"q_net": {"layer_sizes": [34, 32, 24, 2], "weights": [[[-0.5543704628944397, 0.2368859201669693, -0.4037020206451416, -0.14330679178237915, 0.49823638796806335, -0.014640872366726398, 0.17066656053066254, -0.6031584739685059, 0.0922166183590889, 0.10486311465501785, 0.15810200572013855, 0.03324984014034271, 0.4129939079284668, 0.04610166698694229, -0.13955312967300415, 0.2630290389060974, 0.1883215755224228, 0.11948949843645096, -0.03217194229364395, -0.04474383965134621, -0.22160941362380981, -0.48946210741996765, 0.2688717842102051, 0.3792353570461273, -0.06422766298055649, 0.30742770433425903, 0.026327211409807205, 0.2607469856739044, 0.3405272662639618, -0.22739598155021667, 0.10428863018751144, -0.4844852387905121, -0.1541910469532013, 0.2746667265892029], [-0.1259767711162567, -0.24993599951267242, 0.07755129784345627, 0.1612834632396698, 0.1786389797925949, 0.19653084874153137, -0.4497494399547577, 0.028946150094270706, 0.11068180948495865, 0.07397833466529846, -0.4032265841960907, 0.20544761419296265, -0.5804703235626221, 0.061552200466394424, -0.3388833999633789, -0.37531140446662903, 0.2527157664299011, -0.3695948123931885, 0.08765195310115814, 0.1862124502658844, 0.006748697254806757, 0.14924262464046478, -0.31756073236465454, 0.149492084980011, -0.1490180343389511, 0.28874140977859497, 0.32840409874916077, 0.39932671189308167, -0.1877191960811615, -0.030340218916535378, 0.20731189846992493, -0.2931048572063446, 0.2955474555492401, 0.2985853850841522], [-0.10702876001596451, -0.0558796152472496, -0.43868303298950195, -0.05146566033363342, 0.047573521733284, -0.417066365480423, 0.020942535251379013, -0.18710210919380188, -0.04859941080212593, -0.6281333565711975, -0.029488669708371162, -0.14702261984348297, 0.2250392585992813, 0.2265893667936325, -0.44346413016319275, 0.2734423875808716, -0.2197001427412033, 0.24990695714950562, -0.30371764302253723, 0.024622494354844093, 0.012767739593982697, -0.21625226736068726, -0.3074125647544861, 0.29979807138442993, -0.038890063762664795, -0.21769964694976807, 0.2487781047821045, -0.12002027779817581, 0.01239454373717308, 0.12863977253437042, -0.09285017848014832, 0.4313746988773346, 0.07986283302307129, 0.25352394580841064], [0.2573612332344055, -0.39261576533317566, 0.03818315267562866, 0.31426501274108887, -0.12102127820253372, -0.36702021956443787, -0.3266746997833252, 0.2540181875228882, 0.28246432542800903, -0.19251346588134766, 0.13661333918571472, -0.24977748095989227, -0.12383861094713211, -0.22790740430355072, -0.010303490795195103, -0.18366314470767975, 0.07653813064098358, 0.42258238792419434, -0.16962362825870514, -0.2586309015750885, 0.5090006589889526, 0.07218964397907257, 0.07839007675647736, -0.3098244369029999, -0.30090996623039246, -0.09270263463258743, 0.14160607755184174, 0.0851994976401329, -0.06053255498409271, 0.17191393673419952, -0.09219659119844437, -0.008905788883566856, 0.13704626262187958, -0.030532965436577797], [0.45974525809288025, 0.07613854855298996, 0.49814480543136597, 0.22858379781246185, -0.2652454972267151, -0.021748486906290054, -0.04321781173348427, -0.11419649422168732, 0.28970956802368164, -0.21186350286006927, 0.19139763712882996, -0.16609537601470947, 0.08004689961671829, 0.2936016321182251, 0.17169708013534546, -0.23481781780719757, 0.05638014152646065, -0.004149784799665213, -0.02940317988395691, 0.0045189582742750645, 0.4002869725227356, -0.1879425048828125, 0.1602921187877655, 0.17109884321689606, 0.06421907991170883, 0.22631974518299103, 0.31424662470817566, -0.05884066969156265, -0.12551812827587128, -0.009018498472869396, -0.3678482174873352, -0.14765924215316772, -0.05588708072900772, 0.20512528717517853], [-0.5447369813919067, -0.24035872519016266, 0.4460723400115967, -0.03657972067594528, 0.14010480046272278, -0.26800861954689026, -0.2201760858297348, -0.03984854742884636, -0.606765627861023, 0.20734895765781403, 0.05022907257080078, -0.0035558617673814297, -0.17798453569412231, 0.10765060037374496, 0.22006726264953613, -0.12169764190912247, -0.14719054102897644, -0.21169447898864746, -0.3585347831249237, -0.05968719348311424, -0.168157160282135, -0.09207179397344589, -0.5110896825790405, -0.014645175077021122, -0.16305701434612274, 0.1655832976102829, 0.014720281586050987, -0.13862267136573792, 0.06907614320516586, 0.02718726173043251, -0.03603597357869148, 0.4605715572834015, 0.11683804541826248, -0.4857344329357147], [-0.048902399837970734, 0.1839527189731598, -0.2021881639957428, -0.4066290259361267, -0.10296603292226791, -0.1933656930923462, 0.1813950538635254, 0.19392962753772736, 0.08445491641759872, -0.1061115562915802, -0.45314744114875793, 0.06935646384954453, 0.49233487248420715, 0.11083316057920456, 0.3447822034358978, 0.18531811237335205, -0.20602071285247803, 0.16613808274269104, -0.10591387003660202, 0.12445446103811264, -0.021449770778417587, -0.284238338470459, -0.2371138334274292, 0.3010914623737335, 0.00813235342502594, -0.04057900980114937, -0.1019885316491127, 0.03220415860414505, -0.17052505910396576, -0.02520419843494892, -0.2121928334236145, -0.3868590295314789, -0.42615652084350586, 0.08627358824014664], [0.1725192815065384, 0.06020525097846985, -0.04419485852122307, -0.48292410373687744, -0.1455363780260086, -0.05437850579619408, -0.22504928708076477, -0.11964920908212662, 0.10453727841377258, -0.31895753741264343, -0.19173088669776917, -0.25283971428871155, 0.376985102891922, -0.09075921773910522, -0.05425526574254036, -0.14173679053783417, -0.1996603161096573, -0.023740390315651894, 0.04809371009469032, 0.04397072643041611, 0.06605906784534454, -0.14246104657649994, 0.09892075508832932, -0.20529575645923615, 0.12009410560131073, 0.0687137022614479, 0.13036894798278809, 0.35393640398979187, -0.25382712483406067, 0.5433338284492493, -0.16604864597320557, -0.39543044567108154, -0.21081124246120453, 0.0909690335392952], [0.08806519210338593, -0.0302518792450428, -0.012057549320161343, 0.24721412360668182, -0.3386476933956146, -0.08359117060899734, 0.3780765235424042, 0.09823437035083771, -0.18574072420597076, -0.3396628201007843, 0.31587812304496765, 0.23005184531211853, 0.5415517687797546, -0.013095458969473839, 0.22617699205875397, -0.11395025253295898, -0.2097536027431488, 0.023205140605568886, 0.1297781765460968, -0.5052341818809509, -0.04753886163234711, 0.14357209205627441, -0.0870271697640419, -0.17447885870933533, 0.17409095168113708, -0.027440780773758888, -0.09285706281661987, -0.4377134442329407, 0.39535367488861084, -0.09323664009571075, 0.03068183735013008, -0.07505501806735992, -0.25218382477760315, -0.3853289484977722], [0.0809575766324997, 0.018498333171010017, 0.18753215670585632, -0.13734827935695648, -0.28009945154190063, -0.030199142172932625, -0.5072548389434814, -0.3431682884693146, -0.2743978798389435, -0.3065389394760132, -0.09136567264795303, -0.209404855966568, 0.42647337913513184, -0.2568055987358093, 0.2457861751317978, -0.42474499344825745, 0.3942053020000458, -0.12169549614191055, 0.19107553362846375, 0.13554659485816956, -0.29982107877731323, -0.17441873252391815, -0.07851865887641907, 0.0783037394285202, 0.1774015873670578, 0.17703625559806824, 0.27589771151542664, -0.026145972311496735, -0.15507476031780243, 0.4230167269706726, 0.2044871300458908, 0.40414005517959595, 0.022751156240701675, 0.1432408094406128], [-0.18776334822177887, 0.20553253591060638, -0.15095600485801697, -0.1812753677368164, 0.23062974214553833, -0.08737590163946152, -0.35335367918014526, 0.3467496335506439, 0.0060563599690794945, 0.06292778253555298, 0.40227431058883667, -0.3811609148979187, 0.049239382147789, 0.2131144106388092, 0.14666971564292908, -0.2756752073764801, 0.18047767877578735, -0.14716412127017975, -0.053024113178253174, 0.032433703541755676, -0.036885347217321396, 0.03328459709882736, 0.011106632649898529, -0.24563847482204437, -0.05916785076260567, -0.0753844603896141, -0.2379837930202484, -0.0033359299413859844, -0.07340824604034424, 0.21746397018432617, -0.18334217369556427, -0.183003231883049, 0.204661026597023, -0.3869014382362366], [-0.13068975508213043, -0.0775608941912651, 0.02811971865594387, -0.07876676321029663, 0.0030549766961485147, 0.4769378900527954, 0.08297322690486908, -0.14520204067230225, 0.2565805912017822, 0.300388365983963, 0.041131507605314255, -0.0026610379572957754, -0.0013665001606568694, -0.005508358124643564, 0.268676221370697, 0.27109360694885254, -0.020718295127153397, -0.4293889105319977, 0.3213338255882263, -0.28713491559028625, 0.10715258866548538, -0.18446700274944305, 0.3122483789920807, -0.4220926761627197, 0.09589143097400665, -0.16654355823993683, 0.251400351524353, -0.07031163573265076, 0.056553296744823456, -0.5331648588180542, -0.07283395528793335, 0.07491007447242737, -0.1001451388001442, 0.09678459167480469], [-0.18254265189170837, 0.23553010821342468, 0.40213584899902344, 0.11161473393440247, 0.032725829631090164, 0.03603443130850792, -0.05280157923698425, 0.17970936000347137, -0.3077147603034973, -0.15933158993721008, -0.11094549298286438, 0.19820407032966614, -0.13933654129505157, 0.12002633512020111, -0.06400196999311447, -0.16280953586101532, 0.34287405014038086, -0.11493274569511414, -0.193527951836586, -0.16119302809238434, -0.06006845831871033, -0.3805537819862366, -0.32473018765449524, 0.05692237243056297, -0.04465494304895401, 0.3705804646015167, 0.16179519891738892, -0.4659474492073059, -0.05706731975078583, -0.2624373733997345, -0.03183186426758766, -0.18921323120594025, -0.38677263259887695, -0.04336284473538399], [-0.06360907107591629, -0.01731894724071026, 0.06593752652406693, -0.073982372879982, -0.4627695679664612, 0.08230756968259811, 0.21387875080108643, 0.0155553063377738, -0.1446949988603592, 0.2704057991504669, -0.37205496430397034, -0.20391300320625305, 0.3321123719215393, -0.3263961374759674, -0.2143341600894928, -0.2312842458486557, -0.060919132083654404, 0.37502288818359375, -0.47094303369522095, 0.005227862857282162, -0.04167865961790085, -0.34436219930648804, 0.15246982872486115, -0.15814152359962463, 0.08603987097740173, -0.35267168283462524, -0.2554483711719513, 0.06463660299777985, 0.15021251142024994, 0.11563295871019363, 0.048186834901571274, 0.3772420585155487, 0.09684274345636368, -0.0038533590268343687], [0.24242433905601501, 0.13918408751487732, 0.04247874394059181, -0.22469986975193024, -0.30872926115989685, 0.25148409605026245, -0.05342764034867287, -0.2859228849411011, -0.3155527710914612, -0.5154182314872742, 0.11971581727266312, 0.23200193047523499, -0.0714840441942215, -0.34666475653648376, 0.14572562277317047, -0.1552002876996994, -0.14299581944942474, 0.05456237494945526, -0.03273232653737068, 0.04611311852931976, 0.2940627336502075, -0.39997485280036926, 0.12057644873857498, 0.021345244720578194, -0.03256281092762947, 0.15985094010829926, 0.2898136079311371, 0.2854299247264862, -0.20621585845947266, -0.05265791341662407, -0.3126932680606842, 0.25397366285324097, -0.07585819065570831, 0.5404284596443176], [0.20470541715621948, -0.45566561818122864, -0.4980332553386688, -0.19953827559947968, 0.13075041770935059, 0.018167266622185707, 0.19920803606510162, 0.18955519795417786, -0.04902996867895126, 0.3257998824119568, 0.3083988428115845, -0.24748536944389343, -0.09070319682359695, 0.0359199158847332, -0.25429022312164307, 0.02200608141720295, -0.4032246172428131, -0.2423665076494217, -0.12722943723201752, 0.0891302153468132, 0.1315440535545349, -0.13881541788578033, -0.32472777366638184, 0.4697705805301666, 0.1606999784708023, -0.28458595275878906, -0.03478352725505829, -0.2654832899570465, 0.08635783940553665, -0.15704990923404694, -0.0969882532954216, 0.09453487396240234, 0.15623189508914948, -0.355285108089447], [-0.23947685956954956, -0.8131876587867737, -0.2617260813713074, 0.19205577671527863, -0.09200729429721832, -0.24235770106315613, 0.38537514209747314, -0.27550530433654785, 0.031168103218078613, -0.3657803535461426, -0.13909196853637695, 0.1763281375169754, -0.6101645231246948, -0.09767499566078186, 0.05602317303419113, -0.12157516181468964, -0.457527220249176, -0.31905701756477356, -0.1577826738357544, -0.04436526075005531, 0.0599534809589386, 0.037755709141492844, -0.19985191524028778, 0.04779275134205818, -0.2557929754257202, 0.11167682707309723, 0.20756137371063232, -0.32288968563079834, 0.07630227506160736, 0.1881977915763855, -0.47116902470588684, -0.28885650634765625, -0.0687922015786171, 0.09993158280849457], [-0.02106250636279583, -0.021313956007361412, 0.1458081305027008, 0.12423714995384216, 0.36956462264060974, -0.08270425349473953, 0.21979305148124695, -0.341386079788208, -0.1963902860879898, 0.2834569215774536, 0.6498262286186218, -0.1276024430990219, -0.34951096773147583, 0.29011499881744385, 0.09841983765363693, 0.022185690701007843, -0.03263768181204796, -0.10750486701726913, -0.11282206326723099, -0.07439355552196503, 0.0016567237908020616, -0.6174748539924622, -0.4658872187137604, -0.5579501986503601, -0.18818622827529907, 0.3959507346153259, 0.4144020676612854, -0.3801889419555664, -0.12218198925256729, 0.1323385089635849, -0.14192534983158112, -0.29810214042663574, -0.13567598164081573, 0.2598794400691986], [-0.3099713623523712, 0.2110176980495453, 0.031121354550123215, -0.20676933228969574, -0.28339555859565735, 0.03688603267073631, 0.275827020406723, 0.35144105553627014, 0.13539506494998932, -0.0029229887295514345, 0.3476920425891876, 0.5414672493934631, 0.16726574301719666, 0.3166971206665039, -0.24899457395076752, 0.06263308227062225, 0.23669204115867615, 0.28224754333496094, -0.010825373232364655, 0.31494849920272827, -0.10718546062707901, -0.0861138179898262, -0.5637815594673157, 0.3626053035259247, 0.029508883133530617, -0.026308223605155945, -0.024788416922092438, 0.6038587689399719, -0.3869267702102661, 0.10127028077840805, -0.11130452901124954, -0.2329583466053009, -0.41001254320144653, 0.1869923174381256], [0.17712903022766113, 0.1504562944173813, 0.2450348287820816, 0.043771374970674515, -0.030456913635134697, 0.35370323061943054, 0.14078055322170258, 0.012151756323873997, 0.4884926676750183, 0.43836551904678345, 0.193708598613739, -0.22747944295406342, 0.23249171674251556, 0.07893495261669159, -0.12335469573736191, -0.02907671593129635, -0.07448794692754745, 0.19611003994941711, 0.06369224190711975, 0.21600568294525146, 0.3032904863357544, -0.13542158901691437, -0.011052158661186695, 0.3883645832538605, 0.18012800812721252, 0.1727958470582962, -0.09724488109350204, 0.2497984617948532, 0.2225584089756012, 0.4159499704837799, 0.45953306555747986, -0.22129270434379578, 0.6069779992103577, 0.24789592623710632], [-0.1086437851190567, 0.12001713365316391, -0.10607989877462387, 0.5018658638000488, 0.023891782388091087, 0.12024832516908646, -0.23418700695037842, 0.5582670569419861, -0.0954393520951271, 0.09193406254053116, 0.03168237581849098, 0.15289582312107086, -0.40731027722358704, -0.0033802222460508347, 0.34694743156433105, -0.043886274099349976, 0.20782406628131866, -0.20288637280464172, -0.16215413808822632, -0.5130650997161865, -0.22978055477142334, 0.09808502346277237, 0.1055578738451004, -0.10545225441455841, 0.028819911181926727, -0.0840834379196167, 0.04332635924220085, -0.24410732090473175, -0.0799446552991867, -0.40667054057121277, 0.26267683506011963, -0.08592814207077026, -0.32835909724235535, -0.00782399158924818], [0.20833270251750946, 0.1542682945728302, -0.09096032381057739, -0.037352029234170914, -0.029351364821195602, -0.12434525787830353, 0.009581821039319038, 0.20740830898284912, -0.18598505854606628, -0.272429883480072, -0.3728926181793213, -0.02272961474955082, -0.1608278602361679, 0.19418612122535706, 0.3619866371154785, 0.03293578326702118, -0.20487938821315765, -0.4425598382949829, 0.13870538771152496, 0.37143856287002563, -0.09484263509511948, -0.013242975808680058, 0.22220440208911896, 0.35054290294647217, -0.05321468785405159, 0.20846131443977356, -0.40362080931663513, 0.09466655552387238, -0.08416828513145447, 0.025056974962353706, 0.04563990607857704, -0.18974001705646515, 0.5439350008964539, 0.4380146563053131], [-0.01185058243572712, -0.11527508497238159, -0.03820917755365372, 0.42432448267936707, 0.10187416523694992, -0.36235305666923523, 0.280775249004364, -0.30485430359840393, -0.5263323187828064, 0.49793508648872375, -0.10770902037620544, -0.02117650769650936, 0.2584220767021179, 0.020542751997709274, 0.3705655038356781, 0.15656960010528564, -0.4675581455230713, 0.3607995808124542, 0.10544383525848389, -0.10399491339921951, 0.23997396230697632, -0.09628365933895111, -0.07385578006505966, 0.10233817249536514, 0.5546938180923462, 0.05195803567767143, -0.2680531144142151, -0.2100088745355606, -0.08458545058965683, -0.11394084244966507, -0.19412687420845032, 0.23691454529762268, 0.14142444729804993, 0.2153121680021286], [-1.987602809094824e-05, -0.22819726169109344, 0.38663962483406067, -0.0764891505241394, 0.22894875705242157, 0.024251749739050865, 0.18936030566692352, 0.06395746022462845, -0.16553187370300293, 0.07454698532819748, 0.13022203743457794, -0.042331259697675705, 0.08590912073850632, 0.19943609833717346, -0.19433745741844177, -0.4530819356441498, -0.09026001393795013, -0.17344796657562256, -0.3105124235153198, 0.50112384557724, 0.0585712231695652, -0.268128365278244, 0.21666787564754486, 0.2397637814283371, -0.04719265550374985, 0.3568519055843353, -0.20505696535110474, 0.03179509937763214, 0.065731480717659, -0.06539031863212585, -0.10695098340511322, -0.3292607367038727, -0.3494783043861389, 0.09784366935491562], [0.08187290281057358, 0.14084948599338531, -0.18514133989810944, 0.2640884816646576, 0.07521460950374603, 0.10051117837429047, 0.3067689836025238, -0.496263712644577, 0.13826128840446472, -0.3351253271102905, 0.0016052710125222802, -0.3861354887485504, -0.0944518968462944, 0.21939611434936523, -0.1874750554561615, -0.41175323724746704, 0.10085999220609665, 0.14300237596035004, -0.03151557967066765, 0.024111231788992882, 0.20175781846046448, -0.06026293709874153, 0.2019508183002472, 0.16173668205738068, 0.22878938913345337, -0.07961080223321915, 0.17080451548099518, 0.08320100605487823, 0.05999190732836723, 0.34305503964424133, 0.05522200092673302, -0.12076929956674576, -0.20930388569831848, 0.230098694562912], [-0.16096146404743195, 0.2639292776584625, -0.10693702101707458, -0.5370176434516907, -0.22033020853996277, 0.18215328454971313, -0.09675508737564087, 0.4667819142341614, 0.4253043234348297, 0.16215267777442932, -0.034091830253601074, -0.32214072346687317, 0.032086633145809174, 0.12858884036540985, 0.38892146944999695, 0.25727880001068115, -0.2662256360054016, -0.14684617519378662, 0.19655486941337585, 0.23329417407512665, -0.06067855656147003, -0.00240121316164732, 0.39513713121414185, -0.08525595813989639, -0.05707574635744095, 0.3143506944179535, 0.3421538174152374, 0.04668433591723442, 0.011361836455762386, -0.0893440842628479, -0.24565567076206207, 0.4970691502094269, -0.2750484049320221, 0.10570041090250015], [-0.07632866501808167, -0.15990565717220306, 0.14057184755802155, -0.2507818639278412, 0.35186025500297546, -0.20509320497512817, -0.09061774611473083, -0.08136390149593353, 0.14505524933338165, -0.037123989313840866, 0.011849646456539631, -0.294036328792572, 0.22398598492145538, -0.18523964285850525, -0.04167895019054413, 0.19438211619853973, -0.05953647941350937, -0.15873023867607117, 0.15469405055046082, 0.09792512655258179, -0.10557673126459122, 0.14665503799915314, -0.10320182144641876, 0.11304642260074615, -0.05746198818087578, -0.3296177089214325, 0.12479424476623535, 0.5246537327766418, 0.21731309592723846, 0.6048659682273865, -0.16975848376750946, 0.21628624200820923, 0.16545625030994415, 0.20279179513454437], [0.16480153799057007, 0.2480555921792984, -0.5663731098175049, 0.24804329872131348, -0.18502826988697052, -0.049416594207286835, 0.30183008313179016, -0.08901109546422958, 0.31672167778015137, 0.20106004178524017, -0.17351467907428741, -0.5248433351516724, -0.12538191676139832, -0.10053501278162003, 0.026935497298836708, 0.33959922194480896, 0.139086052775383, -0.37245622277259827, -0.3238627314567566, 0.12274517118930817, 0.26573896408081055, 0.5506011247634888, -0.48175936937332153, 0.003107171505689621, -0.002142718993127346, 0.19974671304225922, 0.2519764006137848, 0.30695199966430664, 0.03814996778964996, 0.03591688349843025, -0.2936350703239441, 0.6276782155036926, -0.004290028940886259, 0.3391805589199066], [0.11343362927436829, 0.09904169291257858, 0.012522711418569088, 0.15155868232250214, -0.45584946870803833, 0.19037815928459167, 0.14445410668849945, 0.16407160460948944, 0.021255498751997948, -0.33977288007736206, -0.4756062924861908, -0.7225331664085388, -0.06870592385530472, 0.19319939613342285, -0.5867093801498413, -0.2612778842449188, -0.17782911658287048, 0.13402536511421204, -0.20293493568897247, -0.10256893932819366, 0.176662877202034, -0.22686581313610077, -0.34126535058021545, 0.2643200755119324, 0.011618498712778091, -0.029222238808870316, -0.19494324922561646, -0.01305939257144928, -0.21537341177463531, -0.1521712839603424, 0.012251577340066433, -0.19167090952396393, -0.15087999403476715, -0.07476535439491272], [0.03307527303695679, -0.2900940477848053, 0.30002593994140625, 0.5373022556304932, 0.33123770356178284, -0.009181059896945953, -0.3717648684978485, -0.10041830688714981, 0.4810238480567932, 0.15813729166984558, -0.1222294345498085, 0.212640181183815, -0.22605012357234955, -0.11906931549310684, -0.03646117448806763, 0.09970559924840927, 0.3050782382488251, -0.18466265499591827, -0.049743086099624634, -0.041277915239334106, 0.5854610800743103, 0.48511454463005066, 0.042180292308330536, 0.01777304708957672, -0.16550493240356445, -0.6223805546760559, 0.24618832767009735, 0.1285785287618637, -0.031134065240621567, -0.20397955179214478, -0.2315140664577484, 0.003703515511006117, -0.28733503818511963, 0.5197622179985046], [-0.063404880464077, -0.06967604905366898, 0.13284912705421448, -0.16909678280353546, 0.299674928188324, 0.2642245292663574, -0.023885253816843033, 0.15866823494434357, 0.17281188070774078, -0.4575134217739105, 0.00598168233409524, 0.04643269255757332, -0.17114539444446564, -0.09328193962574005, -0.2619992196559906, 0.18823827803134918, -0.17512919008731842, 0.3227619230747223, -0.1662907749414444, 0.27553361654281616, 0.35238397121429443, 0.3140712082386017, 0.09639788419008255, -0.24187953770160675, 0.12051943689584732, -0.18359757959842682, -0.09951711446046829, -0.3063881993293762, -0.04021976515650749, 0.3288867771625519, -0.04563058912754059, 0.06368851661682129, -0.2998359799385071, -0.4788393974304199], [0.39685553312301636, 0.0585387758910656, 0.2315106838941574, -0.521907389163971, -0.12222778052091599, 0.25601527094841003, 0.4169856905937195, -0.057613588869571686, 0.08806343376636505, -0.36831095814704895, -0.0366235077381134, 0.08854261040687561, 0.10265039652585983, 0.17098505795001984, 0.36637189984321594, -0.29645347595214844, -0.020424092188477516, -0.40594688057899475, -0.21715021133422852, 0.005283966660499573, -0.24858975410461426, 0.14916503429412842, 0.10555203258991241, 0.10049359500408173, -0.2674098610877991, -0.37915241718292236, -0.18047432601451874, 0.18831869959831238, 0.15794013440608978, -0.005392760504037142, 0.10003047436475754, -0.24633575975894928, -0.1477501094341278, 0.18913373351097107]], [[-0.09220370650291443, -0.24893653392791748, -0.3644125163555145, 0.11193015426397324, 0.34456440806388855, 0.0741913765668869, -0.01352499146014452, 0.17600806057453156, 0.40640130639076233, -0.20579582452774048, -0.05446583405137062, 0.11915024369955063, -0.16754962503910065, 0.28204286098480225, 0.10245100408792496, 0.3418384790420532, 0.4476636052131653, -0.14865081012248993, 0.3605007827281952, -0.4297903776168823, 0.1529441922903061, 0.15466953814029694, -0.12354034185409546, 0.17297270894050598, -0.1954064518213272, 0.6944873332977295, -0.06932088732719421, 0.6334987878799438, -0.009182902984321117, 0.4695832133293152, -0.26438024640083313, 0.11365140229463577], [-0.018687669187784195, -0.1753634363412857, -0.01156881544739008, 0.03765716031193733, 0.031998537480831146, -0.021433886140584946, 0.2283870130777359, 0.29041874408721924, -0.0816333144903183, 0.6140982508659363, 0.060458991676568985, -0.12606383860111237, -0.18703778088092804, -0.35342472791671753, -0.2003338485956192, 0.08080974221229553, -0.17563121020793915, -0.1650177389383316, -0.2144526243209839, -0.1516335904598236, 0.36297228932380676, -0.05566662922501564, -0.1946120411157608, 0.01810644567012787, -0.17663946747779846, -0.08216845244169235, 0.003876728704199195, -0.13006526231765747, -0.2333790361881256, 0.14694185554981232, 0.3760904371738434, -0.20293906331062317], [0.0057509345933794975, -0.33577048778533936, -0.04588881507515907, -0.10961518436670303, -0.3184910714626312, 0.0595584511756897, 0.11397487670183182, 0.31848618388175964, 0.3104654550552368, 0.43820109963417053, 0.07412054389715195, 0.7492790222167969, 0.19287200272083282, 0.10862524807453156, 0.3922226130962372, 0.4981275498867035, -0.031662262976169586, 0.0739438384771347, -0.06180272996425629, -0.3763371706008911, 0.3719930350780487, 0.31395846605300903, 0.17874518036842346, 0.5109701752662659, 0.25362956523895264, 0.6895396113395691, -0.05609777569770813, 0.43971291184425354, 0.08482614159584045, 0.319644570350647, 0.1557699590921402, -0.2603893280029297], [0.07384175062179565, 0.13598254323005676, -0.05548880249261856, -0.016503073275089264, -0.2084682732820511, -0.15646763145923615, 0.35798656940460205, 0.393390417098999, -0.5210580229759216, 0.10487132519483566, -0.30204376578330994, -0.1568470001220703, 0.5957635641098022, 0.13740575313568115, 0.040778737515211105, 0.309630811214447, -0.06494881957769394, -0.18650420010089874, -0.06446661055088043, -0.1403013914823532, -0.16704218089580536, -0.3433520793914795, -0.0064961276948452, 0.178518608212471, 0.15449278056621552, -0.2577890455722809, -0.0015388773754239082, 0.2055061012506485, 0.1435835361480713, 0.5405020713806152, -0.06909239292144775, 0.1365228146314621], [-0.3630323112010956, 0.11350595951080322, 0.04180549830198288, 0.027834884822368622, -0.4246909022331238, 0.1792890429496765, 0.279227077960968, -0.01165852788835764, 0.5149375200271606, -0.14762577414512634, 0.2805454134941101, 0.1845216304063797, -0.28946757316589355, 0.14042945206165314, 0.23391024768352509, 0.42361897230148315, 0.1713520735502243, 0.09858176112174988, -0.21320508420467377, -0.01709721051156521, 0.4069061875343323, -0.38057413697242737, 0.05803476274013519, -0.02296212874352932, 0.17950496077537537, -0.20073391497135162, -0.502979040145874, 0.07080632448196411, 0.4464283883571625, -0.49804621934890747, -0.03660251572728157, -0.5833796262741089], [-0.22346867620944977, -0.0642891675233841, 0.06634952127933502, -0.26720625162124634, 0.11108673363924026, 0.0017362202052026987, -0.19763992726802826, 0.23834480345249176, -0.05332205817103386, -0.21739855408668518, 0.4683922231197357, -0.00845760852098465, -0.07824410498142242, -0.05074090138077736, -0.15651659667491913, 0.18522441387176514, 0.395962119102478, -0.6018551588058472, -0.07102465629577637, -0.35171473026275635, 0.4939042925834656, 0.11886842548847198, 0.11293982714414597, 0.06336912512779236, 0.40830209851264954, 0.2748977839946747, -0.16269047558307648, -0.019354088231921196, 0.14474520087242126, -0.24206843972206116, -0.35208454728126526, 0.015504621900618076], [0.017218098044395447, 0.038362517952919006, -0.056630104780197144, 0.3223438858985901, 0.0536210872232914, 0.07590847462415695, -0.1981588900089264, 0.317806214094162, 0.055457036942243576, -0.34411635994911194, 0.3344844877719879, -0.12181800603866577, -0.33226945996284485, -0.41700971126556396, 0.19648896157741547, 0.0051322272047400475, 0.09529604017734528, -0.32493773102760315, 0.2802554666996002, 0.19678783416748047, 0.09747407585382462, 0.19712582230567932, 0.03718053549528122, 0.20426788926124573, 0.34791070222854614, 0.13203981518745422, 0.09495151787996292, -0.19916075468063354, -0.0880042314529419, 0.16145732998847961, -0.07435960322618484, 0.08825820684432983], [-0.33454251289367676, 0.2626631557941437, 0.31844502687454224, 0.22852644324302673, 0.04923047125339508, -0.032015152275562286, -0.08127254992723465, 0.014548693783581257, -0.09368418157100677, -0.25343653559684753, 0.2273152470588684, 0.12776139378547668, -0.12217763811349869, -0.01736297458410263, 0.19356103241443634, 0.39299947023391724, 0.13786719739437103, -0.31709057092666626, -0.17984738945960999, -0.12841415405273438, -0.36823418736457825, 0.028336510062217712, -0.01238785870373249, 0.2518191337585449, -0.2941347658634186, -0.22905462980270386, 0.0006182636716403067, 0.13971255719661713, 0.20705796778202057, -0.3343254625797272, 0.12551897764205933, -0.24688591063022614], [-0.05739143118262291, -0.2713942229747772, -0.06419450789690018, 0.015465508215129375, 0.26507899165153503, -0.14559707045555115, -0.17138415575027466, 0.3108486831188202, 0.0020153457298874855, -0.5795375108718872, 0.04980097711086273, 0.03724294528365135, 0.41658663749694824, 0.03200732544064522, -0.2816835343837738, -0.08917146921157837, 0.30189356207847595, 0.13490495085716248, -0.05312848091125488, -0.48851197957992554, 0.08301693946123123, -0.24333947896957397, 0.2625736892223358, 0.3285105526447296, 0.3482591211795807, 0.053830064833164215, -0.21283163130283356, 0.10595889389514923, 0.5442189574241638, 0.08287313580513, 0.08698838949203491, 0.1790127158164978], [0.049084074795246124, -0.02287878282368183, -0.019327882677316666, 0.2312699854373932, 0.3566739559173584, 0.18621036410331726, -0.4066774249076843, 0.20537838339805603, 0.048938900232315063, -0.30670663714408875, 0.36078137159347534, 0.13160653412342072, -0.2510461211204529, -0.4330989420413971, -0.0038813776336610317, -0.3440741002559662, 0.22036686539649963, 0.0404052734375, 0.24002067744731903, 0.285976767539978, -0.05214739590883255, -0.16050058603286743, 0.3143741190433502, 0.09234439581632614, 0.17323000729084015, 0.2387298345565796, 0.3202941119670868, 0.2011808156967163, 0.20131103694438934, 0.6424749493598938, -0.318319171667099, -0.07753045856952667], [0.01690589264035225, 0.018083622679114342, 0.14434082806110382, 0.2614448666572571, 0.2964916527271271, 0.5673856735229492, -0.4796108603477478, 0.17753861844539642, -0.01750839129090309, 0.5084537267684937, -0.37783145904541016, 0.3025369942188263, 0.1640891581773758, -0.4181888997554779, -0.05707119405269623, -0.13123708963394165, -0.35281065106391907, 0.28318166732788086, -0.20312286913394928, 0.2439696490764618, 0.007361935451626778, -0.30722567439079285, 0.5959897637367249, 0.056714627891778946, -0.1667066365480423, 0.16353997588157654, 0.1435546875, 0.12692278623580933, -0.3776179254055023, 0.6125286221504211, 0.06171998009085655, 0.22600704431533813], [0.10862168669700623, 0.04103894904255867, -0.06837214529514313, 0.05906650424003601, -0.010041126981377602, -0.07013651728630066, -0.16484160721302032, 0.15843893587589264, -0.19020362198352814, -0.11928095668554306, -0.1176786720752716, 0.07150980830192566, 0.21301408112049103, 0.3147631287574768, -0.08675121515989304, -0.6646504998207092, 0.11736228317022324, -0.3297214210033417, 0.2786279022693634, 0.01697465591132641, -0.2881327271461487, -0.14213821291923523, -0.275190144777298, 0.062449704855680466, -0.014450745657086372, -0.1104714646935463, -0.2568540573120117, 0.041512809693813324, -0.3274683952331543, -0.03033682145178318, 0.17146287858486176, -0.09008122235536575], [0.030024521052837372, 0.08424361795186996, 0.21527910232543945, -0.11813405156135559, 0.027808986604213715, 0.29804036021232605, 0.092898890376091, -0.31910914182662964, 0.0222228541970253, -0.13386350870132446, 0.3258388042449951, 0.06011876463890076, -0.2892950177192688, -0.1470237523317337, -0.21601076424121857, 0.016018826514482498, 0.02712458185851574, -0.37182366847991943, -0.02913014218211174, -0.05399349704384804, 0.003938758280128241, -0.04509831964969635, -0.3453671634197235, 0.6449570059776306, -0.0911334753036499, 0.04201674088835716, 0.015879757702350616, -0.2499258667230606, -0.32156771421432495, -0.011031193658709526, 0.1645052433013916, -0.03800138086080551], [-0.14165036380290985, -0.1780780404806137, 0.06253201514482498, 0.23389987647533417, -0.5414941906929016, 0.0781768411397934, -0.18480391800403595, 0.0047289240173995495, 0.09251569956541061, 0.21837885677814484, -0.21715380251407623, 0.23914308845996857, -0.40163877606391907, -0.14222559332847595, -0.24826908111572266, -0.07828570157289505, -0.1389552801847458, 0.09588672965765, -0.30164358019828796, -0.31240832805633545, 0.06810098141431808, 0.03531798720359802, 0.24685020744800568, -0.5571542382240295, -0.11502981930971146, 0.025507846847176552, 0.12783436477184296, -0.14518935978412628, 0.22047299146652222, 0.2381252646446228, 0.01211229432374239, 0.10810498148202896], [0.19240151345729828, 0.08678170293569565, -0.43870216608047485, 0.5056893825531006, 0.43065083026885986, -0.30267468094825745, -0.16521982848644257, 0.05828027427196503, -0.0895036980509758, 0.20703019201755524, -0.18481865525245667, -0.2533460259437561, 0.480031281709671, -0.06138906627893448, 0.12432520091533661, -0.4666641056537628, 0.5488774180412292, 0.19165484607219696, 0.41924425959587097, 0.370538592338562, 0.15889659523963928, -0.060444314032793045, 0.14574944972991943, -0.23948559165000916, 0.24856333434581757, -0.08774670213460922, -0.204868346452713, 0.005750359036028385, 0.21048188209533691, -0.17817674577236176, -0.12175048887729645, -0.026819996535778046], [-0.13972099125385284, 0.13154244422912598, -0.18872658908367157, -0.1778346598148346, 0.2050134837627411, -0.46171221137046814, -0.2744540572166443, 0.1272181123495102, 0.17882415652275085, 0.22430989146232605, -0.20347052812576294, -0.2571839392185211, -0.23208530247211456, -0.16587518155574799, -0.024004681035876274, -0.12493892014026642, 0.635059654712677, 0.1609470546245575, 0.26431602239608765, 0.001618737354874611, 0.07012240588665009, -0.07658112794160843, -0.02395283244550228, 0.12957894802093506, -0.29309964179992676, -0.08654353767633438, 0.1389465034008026, -0.14804814755916595, -0.3920707404613495, 0.12383288145065308, 0.3857930600643158, -0.29402491450309753], [0.025761138647794724, 0.28760626912117004, 0.12658055126667023, 0.019747458398342133, 0.15235209465026855, -0.07221584767103195, 0.44986218214035034, -0.19235070049762726, -0.11710814386606216, 0.002358802827075124, -0.014132319018244743, 0.23974335193634033, 0.4198536276817322, -0.11043119430541992, 0.6182260513305664, -0.0358208529651165, 0.38357821106910706, 0.15803620219230652, -0.22351783514022827, -0.36956915259361267, -0.4013660252094269, 0.6565194725990295, 0.11050304770469666, 0.02851625345647335, -0.11173480749130249, -0.23194964230060577, 0.3353290259838104, 0.12661896646022797, 0.33379048109054565, -0.14012739062309265, 0.15918061137199402, 0.1503981649875641], [-0.32469987869262695, 0.08735255897045135, 0.21463412046432495, -0.0664311945438385, -0.23093736171722412, 0.26674532890319824, 0.007474514190107584, -0.16616027057170868, -0.05802244320511818, 0.016470912843942642, -0.009746448136866093, 0.0022814441472291946, -0.4152566194534302, 0.09983029961585999, -0.4224134087562561, -0.0914749726653099, -0.1907218098640442, 0.2077452540397644, -0.17947012186050415, -0.0024020185228437185, -0.119737409055233, -0.050601959228515625, -0.0355621874332428, -0.085181325674057, -0.08673901855945587, -0.059717513620853424, -0.09965057671070099, -0.6689983606338501, 0.13346606492996216, -0.3119812607765198, 0.22484628856182098, -0.19901075959205627], [-0.026590557768940926, -0.09953159093856812, 0.133519247174263, 0.0509425587952137, -0.21556754410266876, -0.12400107085704803, -0.29432713985443115, -0.04164409637451172, 0.005454312544316053, -0.22156015038490295, -0.030178075656294823, -0.19507965445518494, 0.23955665528774261, -0.06748107820749283, 0.2841789126396179, 0.09539999067783356, -0.05028789862990379, 0.031809378415346146, 0.2748115658760071, -0.144317626953125, -0.16992343962192535, -0.2366563230752945, 0.3021317720413208, -0.10681960731744766, -0.18742768466472626, 0.02240588888525963, 0.30395105481147766, 0.1610470861196518, 0.6630006432533264, -0.3153039216995239, -0.019680967554450035, -0.3033510446548462], [-0.042471494525671005, -0.0795288160443306, 0.15673768520355225, 0.23801708221435547, -0.17582444846630096, 0.2911568582057953, 0.04383645951747894, -0.05977601557970047, 0.044176407158374786, -0.24229787290096283, -0.059423670172691345, -0.10719984769821167, -0.09884326159954071, 0.13453446328639984, 0.01244268473237753, 0.20392684638500214, -0.14025786519050598, 0.12535277009010315, 0.0075168670155107975, 0.11365281045436859, -0.14223326742649078, 0.16394969820976257, -0.148814395070076, 0.40641409158706665, 0.06996353715658188, 0.049639806151390076, -0.01024586334824562, -0.3795988857746124, 0.2367004156112671, -0.23922866582870483, -0.13822273910045624, -0.30942440032958984], [-0.0187260489910841, 0.18415604531764984, -0.1307610720396042, 0.2619665563106537, 0.3964920938014984, 0.2073589414358139, -0.015148277394473553, -0.04265853762626648, 0.27457180619239807, 0.1613379716873169, -0.030784178525209427, 0.034724149852991104, 0.29828861355781555, 0.04711507633328438, -0.08631237596273422, -0.13763731718063354, 0.27985042333602905, 0.41664549708366394, 0.15021444857120514, -0.06307912617921829, -0.1401689648628235, 0.24394334852695465, 0.39852374792099, -0.13684140145778656, 0.005771292373538017, 0.46842122077941895, 0.5992951989173889, 0.5742523074150085, -0.261184960603714, 0.07887673377990723, -0.11628660559654236, -0.0362386479973793], [0.2922961413860321, -0.24826680123806, -0.15075422823429108, 0.28028613328933716, 0.009769531898200512, 0.3014737367630005, -0.25415295362472534, -0.5348753333091736, -0.3366599977016449, 0.19614838063716888, 0.09945850819349289, -0.08449981361627579, -0.34646883606910706, 0.34838590025901794, 0.02689271606504917, -0.169315904378891, 0.07840051501989365, -0.08958126604557037, -0.7813122272491455, -0.125942200422287, -0.4745675027370453, 0.3180580735206604, 0.06645938754081726, -0.34122008085250854, -0.3244090676307678, 0.3468535542488098, -0.35008564591407776, 0.8543686866760254, -0.06569944322109222, -0.010069538839161396, -0.09405335783958435, 0.2666558027267456], [-0.22793163359165192, 0.11675860732793808, 0.2151387482881546, 0.4726846516132355, 0.18441307544708252, -0.03552171215415001, -0.10499066114425659, 0.40101945400238037, 0.17479969561100006, -0.30360475182533264, 0.31463637948036194, 0.12906832993030548, -0.25283458828926086, 0.29940006136894226, -0.2450740486383438, -0.2919286787509918, -0.15354152023792267, 0.02759001962840557, -0.3212728798389435, -0.3796679675579071, 0.4673880636692047, 0.034016240388154984, 0.010747367516160011, 0.015973472967743874, -0.022113777697086334, -0.06459759175777435, -0.11114882677793503, -0.29499003291130066, -0.19345800578594208, -0.13455909490585327, -0.3105180859565735, 0.08212261646986008], [-0.020035607740283012, 0.09775327891111374, 0.07015589624643326, -0.3200097382068634, 0.12919051945209503, 0.029579702764749527, -0.4417800307273865, -0.11548162251710892, -0.41240495443344116, 0.24089671671390533, -0.24647659063339233, -0.17987728118896484, -0.440511018037796, -0.44065219163894653, 0.2907412052154541, -0.3133772909641266, -0.06130067631602287, -0.028310278430581093, -0.13440217077732086, 0.07463877648115158, -0.3219113349914551, -0.19830727577209473, 0.11986833065748215, 0.23299653828144073, -0.5210998058319092, -0.22570177912712097, -0.26393792033195496, 0.17295576632022858, -0.3336656987667084, -0.04772231727838516, 0.11596306413412094, -0.23661524057388306]], [[0.7543062567710876, -0.2367381751537323, 0.42950439453125, 0.08315236121416092, -0.2562887370586395, 0.2744409441947937, -0.1654312014579773, -0.41124534606933594, 0.046143800020217896, 0.4325644075870514, 0.4232337772846222, -0.3921043872833252, 0.23396442830562592, 0.2625545263290405, -0.08640024065971375, -0.08713305741548538, 0.08663421124219894, 0.7893136143684387, 0.041271764785051346, -0.4237249195575714, 0.544813334941864, -0.07718390226364136, 0.4671119451522827, 0.1246194913983345], [0.7095425128936768, -0.5088502168655396, 0.5006505250930786, 0.012371810153126717, 0.28854259848594666, -0.3032875955104828, 0.10910525918006897, 0.009948675520718098, -0.3249022662639618, 0.39388507604599, 0.5194879174232483, 0.4575146436691284, -0.2846052646636963, 0.3221300542354584, -0.12257113307714462, -0.05774534121155739, 0.1458648443222046, -0.1719851940870285, -0.5394710898399353, 0.12023627012968063, 0.3970845937728882, 0.07090288400650024, -0.10208616405725479, -0.028881747275590897]]], "biases": [[-0.00870661810040474, -0.09756698459386826, -0.06202174723148346, 0.09266716241836548, 0.13793396949768066, 0.12255647033452988, -0.1927274912595749, 0.04890177398920059, 0.08189184218645096, 0.05480966717004776, -0.024294085800647736, 0.270815908908844, -0.02408776991069317, -0.14070405066013336, -0.013344536535441875, -0.011454103514552116, -0.008447499945759773, 0.07140747457742691, -0.005469323135912418, 0.18240328133106232, 0.022088438272476196, -0.06065163016319275, 0.11546462774276733, 0.03308643400669098, -0.04790776968002319, 0.2652929425239563, 0.2555501461029053, 0.226032555103302, -0.012029550969600677, 0.5012246966362, -0.06175136938691139, 0.006901010405272245], [0.312323659658432, -0.04885736480355263, 0.12681995332241058, 0.0039536720141768456, -0.025453299283981323, -0.03298478573560715, -0.04198251664638519, -0.035614293068647385, -0.11152222752571106, 0.28961074352264404, 0.3201187252998352, -0.09438192844390869, 0.01196813490241766, 0.05080293491482735, -0.0676480382680893, -0.041525084525346756, 0.017683858051896095, 0.002371198730543256, -0.12504719197750092, -0.028508607298135757, 0.18507790565490723, -0.062145743519067764, 0.06356018036603928, -0.005477109923958778], [0.5082041621208191, 0.2349167913198471]]}, "target_net": {"layer_sizes": [34, 32, 24, 2], "weights": [[[-0.5543966293334961, 0.23689213395118713, -0.40367844700813293, -0.14330323040485382, 0.49823832511901855, -0.014628794975578785, 0.17066791653633118, -0.6031607985496521, 0.0922369733452797, 0.1048799678683281, 0.1581028699874878, 0.03325609490275383, 0.4130156636238098, 0.046107616275548935, -0.13953158259391785, 0.26303812861442566, 0.18831917643547058, 0.11949940770864487, -0.032194215804338455, -0.04473121836781502, -0.22158995270729065, -0.4894523620605469, 0.2688693106174469, 0.3792337477207184, -0.06424525380134583, 0.3074365258216858, 0.026349719613790512, 0.26075929403305054, 0.34052950143814087, -0.2273980677127838, 0.10431870073080063, -0.4844745695590973, -0.15418070554733276, 0.2746718227863312], [-0.12594570219516754, -0.24989552795886993, 0.07760077714920044, 0.1612434983253479, 0.17863231897354126, 0.19657254219055176, -0.44971364736557007, 0.029107078909873962, 0.11068335920572281, 0.07396787405014038, -0.40324580669403076, 0.20535273849964142, -0.5803868174552917, 0.06178148090839386, -0.3388928174972534, -0.3753591477870941, 0.2526998817920685, -0.3697172999382019, 0.08788491040468216, 0.18624481558799744, 0.006779651623219252, 0.14915046095848083, -0.3175642192363739, 0.14949838817119598, -0.14880479872226715, 0.2887553572654724, 0.32842037081718445, 0.3992995619773865, -0.1877051442861557, -0.03038397803902626, 0.20740261673927307, -0.2931717336177826, 0.2955082952976227, 0.2986077070236206], [-0.10699592530727386, -0.05586547777056694, -0.4386661648750305, -0.051505234092473984, 0.047567591071128845, -0.4170650839805603, 0.02101186104118824, -0.1871006190776825, -0.04859752953052521, -0.6281355619430542, -0.029491692781448364, -0.14703430235385895, 0.2251017838716507, 0.22656597197055817, -0.44345033168792725, 0.27341437339782715, -0.21969881653785706, 0.24991485476493835, -0.3037828505039215, 0.02460668981075287, 0.012776662595570087, -0.2162703573703766, -0.3074133098125458, 0.29981663823127747, -0.038889866322278976, -0.21772976219654083, 0.2487812042236328, -0.11999446898698807, 0.012398183345794678, 0.12860648334026337, -0.09286439418792725, 0.43137842416763306, 0.07986187934875488, 0.25350263714790344], [0.25732892751693726, -0.39255812764167786, 0.03804706409573555, 0.3143501877784729, -0.1210220456123352, -0.367056280374527, -0.326752245426178, 0.25384002923965454, 0.28242722153663635, -0.19253863394260406, 0.13663338124752045, -0.24959512054920197, -0.1239762082695961, -0.2282184660434723, -0.010354953818023205, -0.1836724430322647, 0.07657331228256226, 0.42283836007118225, -0.1698843240737915, -0.25858837366104126, 0.5088847875595093, 0.07229042798280716, 0.07840611785650253, -0.30982470512390137, -0.30109354853630066, -0.09265618026256561, 0.14151334762573242, 0.08523116260766983, -0.060550838708877563, 0.17194156348705292, -0.092460036277771, -0.008861753158271313, 0.13712023198604584, -0.030510883778333664], [0.4595734477043152, 0.0760919377207756, 0.4978402554988861, 0.22860032320022583, -0.2652641236782074, -0.021908773109316826, -0.04336939752101898, -0.11464708298444748, 0.2895130515098572, -0.21195393800735474, 0.19141212105751038, -0.1659519225358963, 0.07988589257001877, 0.29314714670181274, 0.17150723934173584, -0.2348877638578415, 0.05637678876519203, -0.003934768959879875, -0.029481027275323868, 0.0043686674907803535, 0.40004396438598633, -0.18791989982128143, 0.1602974534034729, 0.17108239233493805, 0.06412966549396515, 0.22612892091274261, 0.3140254616737366, -0.05891011655330658, -0.12559320032596588, -0.008972592651844025, -0.3681640028953552, -0.14763832092285156, -0.05597732588648796, 0.20513278245925903], [-0.5446778535842896, -0.24038931727409363, 0.4459620416164398, -0.03640442714095116, 0.14010804891586304, -0.2680698335170746, -0.2201203852891922, -0.04001583158969879, -0.6067551970481873, 0.20735952258110046, 0.050272777676582336, -0.003381614573299885, -0.17814254760742188, 0.10742755234241486, 0.22006158530712128, -0.12160828709602356, -0.14715854823589325, -0.21148335933685303, -0.3586668372154236, -0.059659749269485474, -0.16820943355560303, -0.09183806926012039, -0.5111017227172852, -0.014688649214804173, -0.1632349193096161, 0.16564825177192688, 0.014684903435409069, -0.1385549157857895, 0.06906120479106903, 0.027250254526734352, -0.03611830994486809, 0.4606897532939911, 0.11696593463420868, -0.4857384264469147], [-0.048923149704933167, 0.1839953064918518, -0.20213907957077026, -0.4066179692745209, -0.1029607355594635, -0.1933751106262207, 0.1814388930797577, 0.19396892189979553, 0.0845002681016922, -0.10607046633958817, -0.4531518220901489, 0.0693540871143341, 0.4924188554286957, 0.11080987006425858, 0.3448377549648285, 0.18535690009593964, -0.20601266622543335, 0.16615353524684906, -0.10594246536493301, 0.1244809702038765, -0.021406034007668495, -0.28422003984451294, -0.23711487650871277, 0.30108746886253357, 0.00814779382199049, -0.04057963192462921, -0.10194141417741776, 0.032236095517873764, -0.17052467167377472, -0.0252084881067276, -0.21215014159679413, -0.38684505224227905, -0.4261329174041748, 0.08625855296850204], [0.17245550453662872, 0.06016521900892258, -0.04427531361579895, -0.48294898867607117, -0.1455409973859787, -0.05438743904232979, -0.2250203639268875, -0.11969587206840515, 0.10444982349872589, -0.3189995288848877, -0.191732257604599, -0.25285103917121887, 0.37685710191726685, -0.09073827415704727, -0.054333049803972244, -0.14177969098091125, -0.19967572391033173, -0.02377413772046566, 0.04803498834371567, 0.04392645135521889, 0.06597664952278137, -0.14250870048999786, 0.09893050789833069, -0.2053178995847702, 0.12005645036697388, 0.06869155913591385, 0.130292609333992, 0.3538857102394104, -0.2538360059261322, 0.5433266162872314, -0.1661248654127121, -0.3954729437828064, -0.21085651218891144, 0.09098350256681442], [0.0879984200000763, -0.030321834608912468, -0.012194725684821606, 0.24730181694030762, -0.338682621717453, -0.08360695838928223, 0.3779512643814087, 0.09818553924560547, -0.1858382523059845, -0.3396724462509155, 0.3159046471118927, 0.23013809323310852, 0.5413406491279602, -0.013088672421872616, 0.22607527673244476, -0.11397901177406311, -0.2097744196653366, 0.023294860497117043, 0.12980975210666656, -0.5052153468132019, -0.04765566438436508, 0.14350302517414093, -0.08700793981552124, -0.17446942627429962, 0.17410022020339966, -0.02737707644701004, -0.0929822325706482, -0.43778252601623535, 0.3953339159488678, -0.09326883405447006, 0.03058980219066143, -0.07501288503408432, -0.25212711095809937, -0.3853149116039276], [0.08092192560434341, 0.018514154478907585, 0.18748769164085388, -0.13731777667999268, -0.28009873628616333, -0.030211828649044037, -0.507296085357666, -0.34318068623542786, -0.274431049823761, -0.30653390288352966, -0.09136365354061127, -0.20937590301036835, 0.42636656761169434, -0.2568104863166809, 0.24574951827526093, -0.4247332513332367, 0.3942042589187622, -0.12167330086231232, 0.1910923272371292, 0.13552778959274292, -0.29986053705215454, -0.17438307404518127, -0.07850028574466705, 0.0782831609249115, 0.17741897702217102, 0.17701135575771332, 0.27586477994918823, -0.02615317329764366, -0.15508705377578735, 0.4230363667011261, 0.2044072300195694, 0.4041614830493927, 0.022744694724678993, 0.14328688383102417], [-0.18776124715805054, 0.20552724599838257, -0.15096278488636017, -0.18128320574760437, 0.23062850534915924, -0.08737537264823914, -0.3533431589603424, 0.3467412292957306, 0.0060492693446576595, 0.06292383372783661, 0.4022713899612427, -0.3811611831188202, 0.0492507740855217, 0.21311558783054352, 0.14666210114955902, -0.2756807208061218, 0.18047595024108887, -0.14716531336307526, -0.05301912873983383, 0.032436396926641464, -0.036893054842948914, 0.03327910229563713, 0.011103999800980091, -0.2456391602754593, -0.05916380137205124, -0.07538682967424393, -0.23799197375774384, -0.0033355182968080044, -0.07340873032808304, 0.21745319664478302, -0.1833394318819046, -0.18301589787006378, 0.20465290546417236, -0.38690629601478577], [-0.13075488805770874, -0.07757363468408585, 0.02763529308140278, -0.07880932837724686, 0.003051245119422674, 0.47679588198661804, 0.08284072577953339, -0.1454012542963028, 0.25620120763778687, 0.30027076601982117, 0.04118337109684944, -0.0026388978585600853, -0.0012276081833988428, -0.005780267994850874, 0.2683050334453583, 0.27104806900024414, -0.020720629021525383, -0.42928752303123474, 0.3213558793067932, -0.2871825397014618, 0.10673147439956665, -0.1845264732837677, 0.3122899830341339, -0.42211422324180603, 0.0959257259964943, -0.1664402335882187, 0.2509974241256714, -0.07058357447385788, 0.056517694145441055, -0.5331128239631653, -0.07349222153425217, 0.07485166192054749, -0.10026536881923676, 0.09675677120685577], [-0.18253116309642792, 0.23552578687667847, 0.40211042761802673, 0.11160282045602798, 0.03272581845521927, 0.03601119667291641, -0.05279306322336197, 0.1796959787607193, -0.3077370822429657, -0.15934479236602783, -0.11094586551189423, 0.19818106293678284, -0.13931778073310852, 0.12000148743391037, -0.06402222067117691, -0.16282227635383606, 0.3428754508495331, -0.11494040489196777, -0.19351284205913544, -0.16121990978717804, -0.060088299214839935, -0.3805582821369171, -0.32473039627075195, 0.05691247805953026, -0.044646259397268295, 0.37054163217544556, 0.16177575290203094, -0.46595486998558044, -0.0570727102458477, -0.26243826746940613, -0.03184594586491585, -0.1892237663269043, -0.38678792119026184, -0.0433809719979763], [-0.06360140442848206, -0.017291486263275146, 0.06595075130462646, -0.07397788017988205, -0.46276941895484924, 0.08230315893888474, 0.2138974815607071, 0.0155782550573349, -0.144680455327034, 0.27041375637054443, -0.37205472588539124, -0.20392200350761414, 0.33211272954940796, -0.32643815875053406, -0.21431459486484528, -0.23128843307495117, -0.0609150156378746, 0.3750567138195038, -0.4709828197956085, 0.005197649355977774, -0.041665077209472656, -0.34434783458709717, 0.1524709314107895, -0.15812791883945465, 0.08602356910705566, -0.3527097702026367, -0.25543299317359924, 0.06465555727481842, 0.1502099335193634, 0.11563058197498322, 0.0482063926756382, 0.37726396322250366, 0.09685032814741135, -0.003849389497190714], [0.24241633713245392, 0.13918545842170715, 0.042447660118341446, -0.22466257214546204, -0.30873188376426697, 0.25144636631011963, -0.05346298590302467, -0.28595060110092163, -0.31556451320648193, -0.5154252648353577, 0.1197146624326706, 0.23202350735664368, -0.07148794084787369, -0.34671181440353394, 0.14572227001190186, -0.1552053540945053, -0.14299988746643066, 0.05460067465901375, -0.03273503854870796, 0.046090420335531235, 0.2940385937690735, -0.39994075894355774, 0.12058822810649872, 0.021342134103178978, -0.032567061483860016, 0.15981033444404602, 0.289795458316803, 0.28547146916389465, -0.2062166929244995, -0.05266575515270233, -0.31270748376846313, 0.2539626955986023, -0.0758315697312355, 0.5404213666915894], [0.20468828082084656, -0.455658882856369, -0.49804916977882385, -0.19954058527946472, 0.13075269758701324, 0.018173160031437874, 0.1991785317659378, 0.1896069347858429, -0.04904770851135254, 0.32581663131713867, 0.3084218502044678, -0.24749214947223663, -0.09070184081792831, 0.03592840954661369, -0.25430238246917725, 0.022024327889084816, -0.4032249450683594, -0.24237947165966034, -0.12724697589874268, 0.08915261924266815, 0.13152261078357697, -0.13881219923496246, -0.32472848892211914, 0.4697515666484833, 0.16064737737178802, -0.28451329469680786, -0.03479913994669914, -0.26551488041877747, 0.08635669946670532, -0.15705762803554535, -0.09697750210762024, 0.09452337771654129, 0.15623164176940918, -0.355283260345459], [-0.23944072425365448, -0.813186764717102, -0.26175954937934875, 0.19211484491825104, -0.09200066328048706, -0.24239708483219147, 0.3853116035461426, -0.2755807042121887, 0.03117554448544979, -0.36575642228126526, -0.13907413184642792, 0.17640656232833862, -0.6101617813110352, -0.09777694940567017, 0.05602660030126572, -0.12152022868394852, -0.4575084447860718, -0.31898990273475647, -0.15789954364299774, -0.04433026164770126, 0.05993855744600296, 0.0378420427441597, -0.199858620762825, 0.047768402844667435, -0.2558632493019104, 0.11169576644897461, 0.20755021274089813, -0.32285913825035095, 0.07630924135446548, 0.18823707103729248, -0.471168577671051, -0.28885477781295776, -0.06874272227287292, 0.09989643096923828], [-0.02107078954577446, -0.021319089457392693, 0.14574456214904785, 0.12428002059459686, 0.3695729970932007, -0.08277358114719391, 0.21976257860660553, -0.34145495295524597, -0.19641989469528198, 0.2834380567073822, 0.6498552560806274, -0.12757793068885803, -0.3494926691055298, 0.29000410437583923, 0.09839832782745361, 0.02222476713359356, -0.032627902925014496, -0.10745018720626831, -0.1129179373383522, -0.07438862323760986, 0.0016033517895266414, -0.6174008250236511, -0.4658910632133484, -0.5579761862754822, -0.18823887407779694, 0.3959273397922516, 0.4143758714199066, -0.38017308712005615, -0.12219693511724472, 0.132385715842247, -0.14196448028087616, -0.2980968952178955, -0.13566027581691742, 0.2598508298397064], [-0.31002309918403625, 0.2109687775373459, 0.03103562258183956, -0.20677247643470764, -0.28340721130371094, 0.03685813769698143, 0.275802880525589, 0.351299911737442, 0.13532762229442596, -0.0029277552384883165, 0.3476945459842682, 0.541468620300293, 0.16716597974300385, 0.3165714144706726, -0.2490549087524414, 0.06261730939149857, 0.23668272793293, 0.2822705805301666, -0.010880785994231701, 0.31487008929252625, -0.10725347697734833, -0.08610524237155914, -0.5637844800949097, 0.3626072108745575, 0.029427573084831238, -0.026328347623348236, -0.024846216663718224, 0.6038165092468262, -0.3869563639163971, 0.10130555927753448, -0.11137466132640839, -0.23294591903686523, -0.41004887223243713, 0.18700945377349854], [0.1771581470966339, 0.15045231580734253, 0.24529245495796204, 0.04367144778370857, -0.03045225888490677, 0.3537885248661041, 0.1409105658531189, 0.0124510508030653, 0.48862653970718384, 0.4384305775165558, 0.19368690252304077, -0.2276948094367981, 0.23258273303508759, 0.07936684042215347, -0.12321152538061142, -0.02904103882610798, -0.07450404763221741, 0.19581623375415802, 0.06391847133636475, 0.21601726114749908, 0.3035103678703308, -0.13554604351520538, -0.011075020767748356, 0.3884160816669464, 0.1803463101387024, 0.17280927300453186, -0.09705944359302521, 0.24980726838111877, 0.2225913405418396, 0.4159046411514282, 0.4598577320575714, -0.22129714488983154, 0.6069164276123047, 0.247896209359169], [-0.1086396649479866, 0.1200430691242218, -0.10612248629331589, 0.501903235912323, 0.023886295035481453, 0.12024060636758804, -0.23424004018306732, 0.5581951141357422, -0.09543748944997787, 0.09193909913301468, 0.03170071542263031, 0.15297569334506989, -0.40735024213790894, -0.0035543646663427353, 0.3469569683074951, -0.04388543963432312, 0.20783597230911255, -0.20272494852542877, -0.16233178973197937, -0.5130131840705872, -0.22981072962284088, 0.09816188365221024, 0.10556637495756149, -0.10544267296791077, 0.028621697798371315, -0.08402862399816513, 0.043305136263370514, -0.24407322704792023, -0.07995617389678955, -0.40666553378105164, 0.26262304186820984, -0.08587546646595001, -0.32831302285194397, -0.007814510725438595], [0.20832523703575134, 0.15422621369361877, -0.09101849794387817, -0.03737982362508774, -0.029355697333812714, -0.12436550855636597, 0.009569677524268627, 0.2073410302400589, -0.18602989614009857, -0.2724311351776123, -0.3728901147842407, -0.022750090807676315, -0.16083276271820068, 0.1940639168024063, 0.36195147037506104, 0.03292731195688248, -0.2048836052417755, -0.44254428148269653, 0.1386508345603943, 0.3713696599006653, -0.09488892555236816, -0.013239332474768162, 0.22221477329730988, 0.35053834319114685, -0.05326905846595764, 0.20838817954063416, -0.4036613404750824, 0.0946492999792099, -0.08418209105730057, 0.025068659335374832, 0.04561752453446388, -0.18973682820796967, 0.5438877940177917, 0.4379977583885193], [-0.011979556642472744, -0.11534684151411057, -0.03849507123231888, 0.4243757426738739, 0.10188467055559158, -0.3624281883239746, 0.28062015771865845, -0.30505621433258057, -0.5265144109725952, 0.49787306785583496, -0.10767200589179993, -0.02106338180601597, 0.25839027762413025, 0.02046455815434456, 0.37034597992897034, 0.1565646082162857, -0.4675765931606293, 0.36085090041160583, 0.1054331585764885, -0.10409194231033325, 0.239740252494812, -0.09631194919347763, -0.07384797185659409, 0.10228521376848221, 0.5544518828392029, 0.051985763013362885, -0.2682870626449585, -0.2101370394229889, -0.08463536947965622, -0.11394042521715164, -0.19449754059314728, 0.2369227260351181, 0.14139604568481445, 0.2153499275445938], [-7.291357906069607e-05, -0.22823069989681244, 0.3864890933036804, -0.07658052444458008, 0.22894825041294098, 0.024173036217689514, 0.1894398331642151, 0.06390860676765442, -0.16566866636276245, 0.0744791254401207, 0.1302293986082077, -0.04242197051644325, 0.08588196337223053, 0.19928565621376038, -0.19446568191051483, -0.45312079787254333, -0.09025821834802628, -0.17350226640701294, -0.31043168902397156, 0.5009106397628784, 0.058446116745471954, -0.26816853880882263, 0.21665997803211212, 0.2397436797618866, -0.04713987186551094, 0.35668233036994934, -0.20518706738948822, 0.031731367111206055, 0.0656905248761177, -0.06540507823228836, -0.10704686492681503, -0.32932695746421814, -0.3495631515979767, 0.09775017946958542], [0.08188018947839737, 0.14085179567337036, -0.18511337041854858, 0.2640848457813263, 0.07521069794893265, 0.10052172839641571, 0.30680719017982483, -0.4962522089481354, 0.13827820122241974, -0.3351120054721832, 0.0016074453014880419, -0.3861508369445801, -0.09445939213037491, 0.2194048911333084, -0.18745465576648712, -0.4117467403411865, 0.10086065530776978, 0.1429925560951233, -0.03152237460017204, 0.024115419015288353, 0.20178088545799255, -0.06026405468583107, 0.20195235311985016, 0.16174589097499847, 0.22880055010318756, -0.07961703836917877, 0.17082642018795013, 0.08321792632341385, 0.059994254261255264, 0.34305354952812195, 0.05525312200188637, -0.12075930088758469, -0.20930756628513336, 0.23010435700416565], [-0.16108465194702148, 0.2638089060783386, -0.10773344337940216, -0.5372464656829834, -0.22039926052093506, 0.18194183707237244, -0.09678084403276443, 0.46662572026252747, 0.4246121346950531, 0.16197746992111206, -0.034015677869319916, -0.3224223554134369, 0.03179159015417099, 0.12798760831356049, 0.3882777988910675, 0.2571292817592621, -0.2662505805492401, -0.14675745368003845, 0.19626714289188385, 0.23279760777950287, -0.06136525049805641, -0.0025357885751873255, 0.3952278792858124, -0.08525195717811584, -0.057502761483192444, 0.3142138719558716, 0.3415217697620392, 0.04625331237912178, 0.01123165711760521, -0.08927718549966812, -0.24638810753822327, 0.4969850182533264, -0.27536725997924805, 0.10571761429309845], [-0.07643702626228333, -0.1599263697862625, 0.14037376642227173, -0.2506602108478546, 0.3518531322479248, -0.2051222026348114, -0.09086048603057861, -0.08165714889764786, 0.14495794475078583, -0.03717825934290886, 0.011856187134981155, -0.2937828600406647, 0.2237531989812851, -0.1856054961681366, -0.04178616404533386, 0.1943792998790741, -0.05952863395214081, -0.15845109522342682, 0.15453264117240906, 0.09786829352378845, -0.10574528574943542, 0.14680352807044983, -0.10318971425294876, 0.11301448196172714, -0.057638734579086304, -0.32962465286254883, 0.12464589625597, 0.5246329307556152, 0.21728114783763885, 0.6049320101737976, -0.17004187405109406, 0.21632246673107147, 0.1655227094888687, 0.2028646022081375], [0.16460098326206207, 0.24791519343852997, -0.5668626427650452, 0.24837203323841095, -0.1850357949733734, -0.04957621917128563, 0.3013632595539093, -0.08972164243459702, 0.3165118992328644, 0.20102240145206451, -0.17344355583190918, -0.5243563055992126, -0.12589947879314423, -0.10144346952438354, 0.026723587885499, 0.3395814597606659, 0.13912121951580048, -0.37180545926094055, -0.3242085874080658, 0.12249333411455154, 0.2653610408306122, 0.5509998202323914, -0.4817673861980438, 0.003015323309227824, -0.00269946432672441, 0.19961956143379211, 0.2516751289367676, 0.3069480061531067, 0.03805181756615639, 0.036073919385671616, -0.2941712737083435, 0.6278349757194519, -0.004080070182681084, 0.3391979932785034], [0.11343245953321457, 0.09904288500547409, 0.012529713101685047, 0.15156082808971405, -0.45584946870803833, 0.19038444757461548, 0.1444462537765503, 0.16408248245716095, 0.021259570494294167, -0.3397729992866516, -0.4756062924861908, -0.7225331664085388, -0.06871592998504639, 0.1932097226381302, -0.5867045521736145, -0.2612745463848114, -0.17782801389694214, 0.13402563333511353, -0.20294241607189178, -0.10256747156381607, 0.17666809260845184, -0.2268630862236023, -0.34126535058021545, 0.2643207609653473, 0.01160813495516777, -0.029232395812869072, -0.19493813812732697, -0.01305035687983036, -0.21537341177463531, -0.15217114984989166, 0.012255976907908916, -0.19167229533195496, -0.1508757621049881, -0.0747634768486023], [0.03294672071933746, -0.2900453209877014, 0.2995133101940155, 0.5376110076904297, 0.3312279284000397, -0.009398303925991058, -0.372158408164978, -0.10109331458806992, 0.48080241680145264, 0.15805211663246155, -0.12216612696647644, 0.2131606489419937, -0.22654156386852264, -0.12005827575922012, -0.0366758368909359, 0.09973648190498352, 0.30515676736831665, -0.18393361568450928, -0.050210196524858475, -0.04137849807739258, 0.5850554704666138, 0.4855233430862427, 0.04222530499100685, 0.017692171037197113, -0.16605961322784424, -0.62235027551651, 0.2458704710006714, 0.1286589652299881, -0.031234048306941986, -0.20382827520370483, -0.2322564423084259, 0.003920007962733507, -0.2870754599571228, 0.5197831392288208], [-0.06341519206762314, -0.0697162076830864, 0.13289308547973633, -0.1691897213459015, 0.29967495799064636, 0.2642797529697418, -0.023750463500618935, 0.15881408751010895, 0.17278993129730225, -0.457518070936203, 0.00597410649061203, 0.04630618914961815, -0.17103181779384613, -0.09302640706300735, -0.26202070713043213, 0.18828172981739044, -0.17513546347618103, 0.32256174087524414, -0.16605979204177856, 0.2755759358406067, 0.35240817070007324, 0.31394830346107483, 0.0963933989405632, -0.24187882244586945, 0.12090423703193665, -0.18361903727054596, -0.09951556473970413, -0.30646398663520813, -0.04020974412560463, 0.32888472080230713, -0.04559614881873131, 0.06367205083370209, -0.2999582290649414, -0.47882044315338135], [0.3968532979488373, 0.05856318026781082, 0.23149487376213074, -0.5219072103500366, -0.12222706526517868, 0.256010502576828, 0.4169681966304779, -0.05760083347558975, 0.0880516842007637, -0.3683183491230011, -0.03662450239062309, 0.08854152262210846, 0.10264433175325394, 0.17096203565597534, 0.3663611114025116, -0.29646557569503784, -0.020424121990799904, -0.40593162178993225, -0.2171565294265747, 0.00529928645119071, -0.24860553443431854, 0.1491638571023941, 0.10555130243301392, 0.10048729181289673, -0.2674190104007721, -0.37914448976516724, -0.18048729002475739, 0.18831253051757812, 0.1579398214817047, -0.005397141445428133, 0.10001340508460999, -0.24634751677513123, -0.14774735271930695, 0.1891307532787323]], [[-0.09236403554677963, -0.2492101490497589, -0.36446577310562134, 0.11226999014616013, 0.34386470913887024, 0.07413949817419052, -0.01360385213047266, 0.175944522023201, 0.4062418043613434, -0.20600107312202454, -0.054611608386039734, 0.11851173639297485, -0.1676606386899948, 0.28192609548568726, 0.10260196030139923, 0.34180396795272827, 0.4477727711200714, -0.14878052473068237, 0.36015671491622925, -0.4307529330253601, 0.1527164727449417, 0.15427036583423615, -0.12350774556398392, 0.17274287343025208, -0.19552560150623322, 0.693868100643158, -0.06947542726993561, 0.6335152983665466, -0.00919120293110609, 0.4695245027542114, -0.26436689496040344, 0.11334990710020065], [-0.018687231466174126, -0.17528067529201508, -0.011566794477403164, 0.03766302019357681, 0.032017841935157776, -0.021377623081207275, 0.2283869832754135, 0.2904220521450043, -0.08164477348327637, 0.6141135692596436, 0.060475051403045654, -0.12600445747375488, -0.18703609704971313, -0.3534499406814575, -0.2003304362297058, 0.0808110162615776, -0.17562676966190338, -0.1650133728981018, -0.21445414423942566, -0.15161316096782684, 0.36301663517951965, -0.05565742030739784, -0.1946457028388977, 0.01811249554157257, -0.17664596438407898, -0.08214667439460754, 0.003898311872035265, -0.1300961971282959, -0.23337899148464203, 0.14702200889587402, 0.37611132860183716, -0.20293405652046204], [0.005655608605593443, -0.3359110653400421, -0.04592018947005272, -0.10939861088991165, -0.31890198588371277, 0.0595422200858593, 0.11392892897129059, 0.3184494972229004, 0.31037136912345886, 0.43807220458984375, 0.07403601706027985, 0.7489154934883118, 0.19280479848384857, 0.10855040699243546, 0.3923147916793823, 0.4981115460395813, -0.03158808872103691, 0.07387328892946243, -0.062003958970308304, -0.3768971264362335, 0.3718724250793457, 0.31372636556625366, 0.17875589430332184, 0.5108333826065063, 0.2535575032234192, 0.6891904473304749, -0.05618302524089813, 0.43974369764328003, 0.08482121676206589, 0.31963449716567993, 0.15578052401542664, -0.2605605721473694], [0.07383237034082413, 0.13596710562705994, -0.055493131279945374, -0.016466189175844193, -0.20849421620368958, -0.15647344291210175, 0.35798415541648865, 0.3933887481689453, -0.5210652947425842, 0.10486600548028946, -0.30204668641090393, -0.15689925849437714, 0.5957571864128113, 0.1373991221189499, 0.040792860090732574, 0.30962151288986206, -0.06494347751140594, -0.18651247024536133, -0.06448440998792648, -0.14034603536128998, -0.1670629233121872, -0.34336262941360474, -0.006483795586973429, 0.17850306630134583, 0.15448525547981262, -0.2578126788139343, -0.0015393570065498352, 0.2055191546678543, 0.1435828059911728, 0.5405149459838867, -0.06909064948558807, 0.1364932358264923], [-0.3630320429801941, 0.11352822929620743, 0.04180549830198288, 0.02787264995276928, -0.42467525601387024, 0.17933541536331177, 0.27922719717025757, -0.01165852788835764, 0.5149564743041992, -0.14762571454048157, 0.28054675459861755, 0.1845627874135971, -0.2894660234451294, 0.14043189585208893, 0.23391053080558777, 0.4236285090446472, 0.17137549817562103, 0.09861788153648376, -0.21320249140262604, -0.01701764017343521, 0.40696361660957336, -0.3805719017982483, 0.05807334929704666, -0.022960761561989784, 0.179509699344635, -0.20068931579589844, -0.5029758214950562, 0.07089988142251968, 0.4464283883571625, -0.49798762798309326, -0.036602720618247986, -0.5833795070648193], [-0.22346895933151245, -0.0643097460269928, 0.06634920835494995, -0.2672209143638611, 0.11105316877365112, 0.001722642919048667, -0.19764089584350586, 0.2383435070514679, -0.05332622677087784, -0.21739712357521057, 0.46837714314460754, -0.00847122073173523, -0.07824624329805374, -0.05074207857251167, -0.15651851892471313, 0.18522445857524872, 0.3959583640098572, -0.6018585562705994, -0.07104481756687164, -0.3517564833164215, 0.49388667941093445, 0.11883631348609924, 0.11293011158704758, 0.06336457282304764, 0.40829721093177795, 0.2748410403728485, -0.16270337998867035, -0.01941029354929924, 0.14474517107009888, -0.24210581183433533, -0.35209015011787415, 0.015503118745982647], [0.017247945070266724, 0.038470640778541565, -0.05662226304411888, 0.32234853506088257, 0.05375143140554428, 0.07595508545637131, -0.19814486801624298, 0.3178224563598633, 0.05548645555973053, -0.3440876305103302, 0.33451220393180847, -0.12167614698410034, -0.3322560787200928, -0.41701459884643555, 0.19648301601409912, 0.005149018485099077, 0.09530572593212128, -0.3249000608921051, 0.28031566739082336, 0.19700287282466888, 0.09754861146211624, 0.1971997320652008, 0.03716808557510376, 0.20430199801921844, 0.34793293476104736, 0.13218151032924652, 0.09500527381896973, -0.19911766052246094, -0.08800297975540161, 0.16155913472175598, -0.07434922456741333, 0.08832302689552307], [-0.3345441222190857, 0.2625006437301636, 0.31844836473464966, 0.22834989428520203, 0.04919086769223213, -0.032094936817884445, -0.08127254992723465, 0.014548693783581257, -0.09368336200714111, -0.2534366250038147, 0.2273125946521759, 0.12776093184947968, -0.12217748910188675, -0.01736553944647312, 0.1934862732887268, 0.3930048942565918, 0.13780689239501953, -0.3171042203903198, -0.1798499971628189, -0.12850545346736908, -0.3682520091533661, 0.02833075076341629, -0.012391800060868263, 0.2518114745616913, -0.2941308915615082, -0.22906607389450073, 0.000596898200456053, 0.1395924985408783, 0.20705796778202057, -0.3345817029476166, 0.12549671530723572, -0.24687911570072174], [-0.05739108845591545, -0.27139973640441895, -0.06419465690851212, 0.015463849529623985, 0.2650747001171112, -0.14560294151306152, -0.17138352990150452, 0.3108491599559784, 0.0020087063312530518, -0.579537570476532, 0.049800846725702286, 0.03723544627428055, 0.4165872037410736, 0.032008096575737, -0.28168293833732605, -0.08917243033647537, 0.3018869161605835, 0.1349015086889267, -0.05312538146972656, -0.4885234832763672, 0.08301357179880142, -0.24333880841732025, 0.2625642418861389, 0.32851165533065796, 0.3482578992843628, 0.05382988601922989, -0.21283173561096191, 0.1059548631310463, 0.544218897819519, 0.08287430554628372, 0.08698836714029312, 0.17901036143302917], [0.04899027571082115, -0.023039601743221283, -0.01935819536447525, 0.23145584762096405, 0.3562707006931305, 0.1861790418624878, -0.40672245621681213, 0.20534096658229828, 0.04884481057524681, -0.3068300187587738, 0.36069822311401367, 0.13123786449432373, -0.25110918283462524, -0.4331660270690918, -0.0037995122838765383, -0.3440944254398346, 0.22042788565158844, 0.04033059999346733, 0.23982463777065277, 0.2854083180427551, -0.05227876827120781, -0.160728320479393, 0.31438297033309937, 0.09221360087394714, 0.1731587052345276, 0.2383752018213272, 0.3201979398727417, 0.2011876255273819, 0.2013062685728073, 0.6424265503883362, -0.31831443309783936, -0.07770303636789322], [0.01681159809231758, 0.01795024983584881, 0.1443096548318863, 0.26166588068008423, 0.2960848808288574, 0.5673733949661255, -0.4796564280986786, 0.1775027960538864, -0.01760118640959263, 0.5083255171775818, -0.37791481614112854, 0.30218029022216797, 0.16402198374271393, -0.41826456785202026, -0.056977786123752594, -0.13125178217887878, -0.35273438692092896, 0.28311318159103394, -0.2033223658800125, 0.24342003464698792, 0.007245725952088833, -0.3074554204940796, 0.596000611782074, 0.05657833814620972, -0.16677790880203247, 0.1631975919008255, 0.14347343146800995, 0.12695911526679993, -0.37762290239334106, 0.6125280857086182, 0.06173190847039223, 0.22583860158920288], [0.10861929506063461, 0.041035376489162445, -0.06837148219347, 0.059037335216999054, -0.01004826184362173, -0.07014838606119156, -0.1648445427417755, 0.15843893587589264, -0.19020360708236694, -0.11929521709680557, -0.1176786869764328, 0.07151816040277481, 0.2130078673362732, 0.31475186347961426, -0.08674865961074829, -0.6646504998207092, 0.11736086755990982, -0.32971614599227905, 0.27863654494285583, 0.016954030841588974, -0.2881375253200531, -0.1421375572681427, -0.27519088983535767, 0.06245329976081848, -0.014453025534749031, -0.11047298461198807, -0.25685417652130127, 0.04151366651058197, -0.3274683952331543, -0.030356302857398987, 0.17146028578281403, -0.09007427841424942], [0.030015582218766212, 0.08417348563671112, 0.21527104079723358, -0.11819231510162354, 0.027743404731154442, 0.2979944050312042, 0.09289772063493729, -0.3191109597682953, 0.022221259772777557, -0.13389042019844055, 0.3258172571659088, 0.06007034331560135, -0.28930363059043884, -0.1470298171043396, -0.21601927280426025, 0.01601971499621868, 0.027127813547849655, -0.3718409240245819, -0.029136067256331444, -0.05408122017979622, 0.00390073424205184, -0.0451265387237072, -0.34537094831466675, 0.6449359655380249, -0.09113501012325287, 0.04195694625377655, 0.015831368044018745, -0.24996033310890198, -0.32156774401664734, -0.011181256733834743, 0.164508655667305, -0.03801026567816734], [-0.1416538953781128, -0.17806273698806763, 0.06251604855060577, 0.23406127095222473, -0.5415305495262146, 0.07818415760993958, -0.1848076432943344, 0.00472041592001915, 0.09248637408018112, 0.21837520599365234, -0.21716728806495667, 0.23899656534194946, -0.40163975954055786, -0.14224234223365784, -0.2481880784034729, -0.07829219847917557, -0.13888418674468994, 0.09589069336652756, -0.30166351795196533, -0.3124328851699829, 0.06806563585996628, 0.03532163426280022, 0.24688191711902618, -0.5571548938751221, -0.11507350951433182, 0.0254930779337883, 0.12782171368598938, -0.14513544738292694, 0.22047294676303864, 0.23823538422584534, 0.01213091891258955, 0.1080484539270401], [0.19241726398468018, 0.08680006116628647, -0.4387000799179077, 0.5056196451187134, 0.430732399225235, -0.30269327759742737, -0.16521087288856506, 0.05828717723488808, -0.08950076252222061, 0.2070482224225998, -0.1848030835390091, -0.25330692529678345, 0.4800454378128052, -0.0613909550011158, 0.12430539727210999, -0.4666643440723419, 0.5488581657409668, 0.19166749715805054, 0.4192838668823242, 0.37061721086502075, 0.1589093655347824, -0.06039626896381378, 0.14573271572589874, -0.23945677280426025, 0.24857468903064728, -0.08768793195486069, -0.2048892080783844, 0.0057112653739750385, 0.21048298478126526, -0.17823979258537292, -0.12175983190536499, -0.02679818496108055], [-0.1397184282541275, 0.13155698776245117, -0.18872731924057007, -0.17786985635757446, 0.20505231618881226, -0.4617297947406769, -0.27445098757743835, 0.12722332775592804, 0.17883025109767914, 0.22432610392570496, -0.2034645825624466, -0.2571510970592499, -0.23208023607730865, -0.165876567363739, -0.02401707135140896, -0.12493672221899033, 0.6350453495979309, 0.16096121072769165, 0.26433834433555603, 0.0016756454715505242, 0.07013657689094543, -0.07655948400497437, -0.023959441110491753, 0.1295916587114334, -0.2930946946144104, -0.08650974184274673, 0.1389409601688385, -0.14806897938251495, -0.3920704126358032, 0.12380549311637878, 0.38578206300735474, -0.29401859641075134], [0.02575461007654667, 0.28760388493537903, 0.1265743523836136, 0.019812393933534622, 0.15229518711566925, -0.07221199572086334, 0.4498580992221832, -0.19235068559646606, -0.11711939424276352, 0.0023539839312434196, -0.014139531180262566, 0.23971273005008698, 0.4198416769504547, -0.11044154316186905, 0.6182429194450378, -0.03582606092095375, 0.38359662890434265, 0.15800796449184418, -0.22354808449745178, -0.3696231245994568, -0.4013825058937073, 0.6564834117889404, 0.11050479859113693, 0.028492525219917297, -0.11174125969409943, -0.23201337456703186, 0.33535221219062805, 0.12660090625286102, 0.3337896168231964, -0.1400519609451294, 0.15918953716754913, 0.15037474036216736], [-0.32469987869262695, 0.08735255897045135, 0.21463412046432495, -0.0664311945438385, -0.23093736171722412, 0.26674532890319824, 0.007474514190107584, -0.16616027057170868, -0.05802244320511818, 0.016470912843942642, -0.009746448136866093, 0.0022814441472291946, -0.4152566194534302, 0.09983029961585999, -0.4224134087562561, -0.0914749726653099, -0.1907218098640442, 0.2077452540397644, -0.17947012186050415, -0.0024020185228437185, -0.119737409055233, -0.050601959228515625, -0.0355621874332428, -0.085181325674057, -0.08673901855945587, -0.059717513620853424, -0.09965057671070099, -0.6689983606338501, 0.13346606492996216, -0.3119812607765198, 0.22484628856182098, -0.19901075959205627], [-0.026596248149871826, -0.09953010827302933, 0.133518785238266, 0.050941430032253265, -0.2155683934688568, -0.12400096654891968, -0.29432734847068787, -0.041645023971796036, 0.005447652190923691, -0.22156450152397156, -0.030178336426615715, -0.1950860619544983, 0.23955728113651276, -0.0674821212887764, 0.2841799855232239, 0.09539972245693207, -0.050286561250686646, 0.03181115910410881, 0.2748132050037384, -0.14432474970817566, -0.16992346942424774, -0.23665672540664673, 0.30212438106536865, -0.10681858658790588, -0.1874273270368576, 0.02240271121263504, 0.30394574999809265, 0.1610439568758011, 0.6630006432533264, -0.31530168652534485, -0.0196799598634243, -0.3033510446548462], [-0.042469874024391174, -0.07948073744773865, 0.15673968195915222, 0.2380644530057907, -0.175791934132576, 0.2912015914916992, 0.043833307921886444, -0.05977601557970047, 0.04417641833424568, -0.24228043854236603, -0.05941346660256386, -0.10719115287065506, -0.09884358197450638, 0.13454647362232208, 0.012444457970559597, 0.20392684638500214, -0.14025051891803741, 0.1253625899553299, 0.007514752447605133, 0.11369907855987549, -0.14222896099090576, 0.1639687567949295, -0.1488122195005417, 0.40642881393432617, 0.06996265053749084, 0.04967300966382027, -0.010227831080555916, -0.3795773386955261, 0.23670075833797455, -0.23916733264923096, -0.13822300732135773, -0.30942490696907043], [-0.018842415884137154, 0.18393564224243164, -0.1307981312274933, 0.26217180490493774, 0.3959927260875702, 0.20730578899383545, -0.01520388200879097, -0.04270636662840843, 0.2744537591934204, 0.16118811070919037, -0.030887456610798836, 0.034256573766469955, 0.2982133626937866, 0.04703798517584801, -0.08621903508901596, -0.137666717171669, 0.27991509437561035, 0.41654810309410095, 0.1499730795621872, -0.06380034983158112, -0.14034372568130493, 0.24366138875484467, 0.39853331446647644, -0.1370001584291458, 0.005682583432644606, 0.467970609664917, 0.5991647243499756, 0.5742388367652893, -0.26119062304496765, 0.07878133654594421, -0.1162860319018364, -0.03645651787519455], [0.292307049036026, -0.24826131761074066, -0.15075019001960754, 0.28026044368743896, 0.009800615720450878, 0.3014877438545227, -0.2541496753692627, -0.5348721146583557, -0.33665862679481506, 0.19614629447460175, 0.09946565330028534, -0.08448247611522675, -0.34646695852279663, 0.34838441014289856, 0.026881476864218712, -0.16931115090847015, 0.07840369641780853, -0.08956986665725708, -0.7813081741333008, -0.12591663002967834, -0.4745679497718811, 0.31807941198349, 0.06644292175769806, -0.34121009707450867, -0.32440128922462463, 0.346885085105896, -0.3500971496105194, 0.8543809652328491, -0.06569910794496536, -0.01011283602565527, -0.09405603259801865, 0.2666749358177185], [-0.22793784737586975, 0.11665504425764084, 0.21513281762599945, 0.4727567136287689, 0.18434667587280273, -0.03559334948658943, -0.10499163717031479, 0.40102526545524597, 0.17478527128696442, -0.30363866686820984, 0.3146152198314667, 0.12886911630630493, -0.2528485953807831, 0.29947781562805176, -0.2450150102376938, -0.2919384837150574, -0.15353581309318542, 0.027561228722333908, -0.32127341628074646, -0.3797665536403656, 0.46729332208633423, 0.03399589657783508, 0.01070753950625658, 0.01597074791789055, -0.022123906761407852, -0.06468310952186584, -0.11118453741073608, -0.29496732354164124, -0.19345813989639282, -0.13464291393756866, -0.3105039894580841, 0.08210058510303497], [-0.020038172602653503, 0.09776603430509567, 0.07015442103147507, -0.3199916481971741, 0.1291845738887787, 0.02958356775343418, -0.4417799711227417, -0.11548421531915665, -0.4124024510383606, 0.24088385701179504, -0.24647684395313263, -0.17987985908985138, -0.4405119717121124, -0.44065549969673157, 0.2907426059246063, -0.3133760094642639, -0.06129360571503639, -0.028312573209404945, -0.1344078630208969, 0.07463815063238144, -0.3219066858291626, -0.1983109563589096, 0.11987528949975967, 0.23299340903759003, -0.5211024880409241, -0.22571265697479248, -0.2639389932155609, 0.17297165095806122, -0.33366551995277405, -0.047697484493255615, 0.11596056073904037, -0.23661531507968903]], [[0.7531618475914001, -0.236833855509758, 0.4282761514186859, 0.0834871158003807, -0.2563017010688782, 0.2744215726852417, -0.16599826514720917, -0.41121721267700195, 0.04605948552489281, 0.43100184202194214, 0.42163971066474915, -0.3921087086200714, 0.2339058518409729, 0.2626051902770996, -0.08696115761995316, -0.08723420649766922, 0.08657143265008926, 0.7893136143684387, 0.04126288369297981, -0.4237358272075653, 0.5433028936386108, -0.07717265188694, 0.4671010673046112, 0.12460567057132721], [0.7098751664161682, -0.5088765025138855, 0.5008466243743896, 0.012547528371214867, 0.2886132001876831, -0.30329009890556335, 0.10928446054458618, 0.009964206255972385, -0.32491716742515564, 0.394331157207489, 0.5199266076087952, 0.457509845495224, -0.28461918234825134, 0.32217419147491455, -0.12252376228570938, -0.057692594826221466, 0.14596444368362427, -0.1719851940870285, -0.5394712686538696, 0.12021713703870773, 0.397410124540329, 0.07112916558980942, -0.10212165862321854, -0.028885245323181152]]], "biases": [[-0.008665463887155056, -0.09752105921506882, -0.06201036646962166, 0.0924818143248558, 0.13746201992034912, 0.12248881906270981, -0.192628875374794, 0.048743441700935364, 0.08166451007127762, 0.054740503430366516, -0.024308931082487106, 0.27000099420547485, -0.02412707358598709, -0.14067323505878448, -0.013380291871726513, -0.011486057192087173, -0.008471738547086716, 0.07132980972528458, -0.005608775652945042, 0.18278738856315613, 0.02204776741564274, -0.06074363738298416, 0.11501704901456833, 0.032829925417900085, -0.04786481708288193, 0.26394960284233093, 0.25524911284446716, 0.2253890037536621, -0.012019230984151363, 0.5005374550819397, -0.06173042580485344, 0.006874528247863054], [0.3117503821849823, -0.0488186739385128, 0.12649454176425934, 0.003929061349481344, -0.025396184995770454, -0.033021215349435806, -0.04184083268046379, -0.0357179120182991, -0.11152784526348114, 0.28927454352378845, 0.3198009431362152, -0.09439776092767715, 0.011891359463334084, 0.05078130215406418, -0.06761816889047623, -0.04150454327464104, 0.01766163669526577, 0.002371198730543256, -0.1250518560409546, -0.028475502505898476, 0.1846458464860916, -0.06213277950882912, 0.06346966326236725, -0.0054705883376300335], [0.5073500871658325, 0.23499831557273865]]}, "epsilon": 0.04999916370086185, "steps": 94072, "total_collisions": 1264}